2708 64
1359 0.44194514 0.20462643 -0.042597156 -0.48726955 -0.20425147 -0.11006285 -0.16597737 0.53267485 -0.3892297 -0.4143869 -0.24259722 0.0066549922 0.1373874 -0.022576673 -0.08475142 -0.19696753 -0.29624477 0.057477463 -0.3002544 0.43910316 -0.59437144 0.15363133 0.08240016 -0.15827706 -0.1350149 0.0024674826 -0.2849549 0.17521733 0.07945213 -0.21559985 0.12766498 -0.18321292 -0.32078943 0.0473976 0.250592 0.22866754 0.103253044 -0.015963076 -0.42188984 0.007652561 0.23320535 -0.37551898 -0.0738247 0.041958172 -0.17890714 -0.36135057 0.41394243 0.44858333 -0.23298228 0.08549435 0.7207257 0.13056514 0.12563781 0.12874079 -0.15923902 0.21306126 0.08590766 -0.26719698 -0.4154535 0.1977836 -0.11221646 0.09774571 0.08682669 0.5750428
1702 0.33901525 -0.2952224 0.6856524 -0.7196577 -0.39078158 0.009271446 0.19267596 -0.41595447 -0.14574343 0.03593848 -0.72376364 0.20847894 0.38402086 0.15070914 -0.037497304 0.10533057 0.023795854 0.106845275 0.3434545 -0.13190834 0.116355985 -0.24508403 0.90180475 0.12574635 0.026818061 0.25477618 0.0027375792 0.2744109 -0.19901305 -0.037643515 0.6721194 -0.3774265 -0.19825764 0.49672323 0.29841775 -0.25751293 -0.13165575 0.0023223269 -0.022015173 -0.034893595 0.12349539 0.19246872 0.03270931 0.41984287 -0.7334818 -0.91422224 -0.25601017 -0.029237185 -0.0044972324 -0.22119515 0.05188922 0.3322008 0.07561263 -0.026912227 -0.25769076 0.03911871 -0.43511075 0.097610205 -0.3880341 0.09368047 0.2751797 -0.20374621 -0.9253615 0.06449066
307 0.11241931 -0.07550942 0.081322156 0.30622146 -0.48648003 0.5019223 -0.060389977 0.16339043 0.068253495 -0.47431344 -0.6264435 0.6051082 0.1958322 0.15740524 -0.35413095 -0.012195593 -0.13589719 0.048606183 -0.53408784 0.30798185 0.21264835 -0.34887135 -0.014430542 0.185114 0.3354154 0.23308949 -0.4028706 0.34285665 -0.37049612 0.07860696 -0.23814325 -0.5716629 -0.042781718 -0.4589235 -0.3893926 0.23848794 0.26434174 -0.40391985 -0.22432533 0.17619179 0.2470778 -0.010870565 0.48030844 0.34919643 0.028538765 -0.35048935 0.15109901 -0.35264605 -0.2985769 -0.32659024 -0.43203014 0.5352696 0.12641288 -0.19955729 -0.09040944 0.37435007 0.009525122 0.12594102 -0.73774374 0.0076122736 -0.028929628 -0.0188941 -0.39496678 0.57188827
1987 0.21291164 0.124087475 0.1810867 -0.5184198 -0.5209004 0.17670755 -0.1575673 -0.080598585 -0.19619694 -0.25390592 -0.2884779 0.009773296 0.32671052 0.053997513 0.1858492 -0.0437401 -0.11273897 -0.2856695 -0.3610145 0.13975018 -0.058052342 -0.19452943 0.004366678 0.37902138 -0.119423896 0.61121094 0.25246903 -0.021347769 -0.21818276 0.37403855 0.28818038 0.2038015 -0.27499282 -0.024748795 0.068234384 0.042131215 -0.7936332 -0.016128067 -0.027353348 -0.19511653 -0.2586521 -0.35354084 0.048468996 0.2605794 -0.6191408 -0.9521573 -0.5482153 -0.2734895 0.004031778 -0.3717776 0.29504895 -0.20605266 0.3503333 -0.56344026 0.07596657 -0.16759071 0.021623246 -0.53679734 -0.4748464 -0.5477218 -0.04714645 0.20366845 -0.42266065 -0.08448595
1811 -0.0750907 -0.77401876 0.36483532 -0.72064745 -0.53016955 -0.2402796 0.23932421 -0.52366537 -0.631575 -0.37196943 0.3168907 0.44186407 0.501892 0.0001761147 -0.102734275 -0.12866235 0.04816752 0.39961585 0.2943636 0.10098047 -0.17406058 -0.11190642 -0.37134117 0.28181118 -0.31373122 0.29982895 0.022410072 -0.023773123 -1.0136335 0.06308292 -0.21979767 -0.077336736 0.21362363 -0.19192705 0.3780175 0.23892447 -0.045992818 -0.67654324 0.48284885 0.18861315 -0.26467535 -0.32842818 0.27926838 0.671358 -0.36055264 -0.6326474 -0.09719255 -0.19813447 -0.50877625 -0.3223833 -0.13767071 0.51262736 -0.18426514 -0.051605344 -0.3377396 0.24587806 -0.32136196 -0.46419522 -0.052899517 -0.12106247 -0.13934171 -0.8473922 -0.09515066 0.29799137
2035 0.058078628 0.30033398 0.35229987 -0.11277722 -0.4754732 0.26094785 0.24370979 0.45993292 -0.68297124 -0.36725554 -0.079501666 -0.30125555 0.27751786 0.14476815 0.4409311 0.12579091 0.33240023 0.11567405 0.50602514 0.18705076 0.2718748 -0.1024077 -0.1637906 0.938692 0.29870138 0.534783 -0.2967296 -0.10216911 -0.463393 0.11686284 -0.17401367 0.26847726 0.12581342 0.15410392 -0.37321988 0.43171766 0.499087 -0.025801996 0.25723112 -0.73292303 -0.14215589 -0.03261355 0.1970602 -0.087543994 -0.24471794 -0.9180746 0.5089725 -0.15654835 -0.24063496 -0.19129787 -0.1185685 0.44552746 -0.5104325 0.55241275 -0.736937 0.15410665 0.11092775 0.020545237 -0.28170565 -0.37377927 -0.15695442 -0.25203073 -0.30467638 -0.34886867
1624 0.006033679 -0.20213316 -0.041164346 0.04735523 -0.8431432 0.4148224 -0.08542911 0.41048092 0.039106574 -0.60299814 -0.49150643 0.6423166 -0.09662505 0.38605943 -0.23167819 0.00606299 -0.5087501 -0.36589092 -0.30803984 -0.25512227 0.25357765 0.0002173806 0.4140901 0.2538686 0.1484825 0.36001596 -0.8739483 0.7517131 -0.45256105 0.22330275 -0.1677724 -0.5067476 -0.14317645 -0.2913859 -0.4501705 -0.11652811 0.28269935 -0.59226984 -0.023519032 -0.1412762 0.56332374 0.19291446 0.08962686 0.31090516 -0.15003249 0.012229606 -0.020491946 -0.40467614 -0.70027834 -0.67107975 -0.6212225 0.35063204 0.027235363 0.24421895 -0.14978337 0.24583429 0.33192262 0.014281096 -0.45678645 -0.121238396 0.28679806 0.36368772 -0.18362655 0.6103929
1014 0.22703046 -0.15326914 -0.06680514 -0.20348687 0.027140189 0.07815289 -0.1342984 0.003582333 0.25299188 -0.43868673 0.10359263 0.03902971 -0.49584448 -0.18521944 0.36060777 -0.083777316 -0.23249786 -0.62313867 -0.4157817 0.029624624 0.42507347 -0.32123676 -0.21035899 0.037657358 -0.12978724 -0.043485362 -0.013948479 0.41271663 0.090618856 -0.5021968 -0.19079247 -0.46828374 0.24404721 0.13077739 -0.06837682 -0.48779565 -0.046760753 0.47545826 0.15115958 0.22126406 -0.064775355 -0.15570125 1.0946004 0.39691052 -0.25182244 -0.4077567 0.36768928 -0.17300187 0.3254221 0.42297632 0.15954739 0.91059196 -0.19130966 0.47413373 0.00095601764 0.20048232 -0.4581033 -0.26985174 -0.6735047 -0.6793066 -0.4498317 -0.23295848 -0.29287553 0.3183752
89 -0.21253778 0.2665376 0.47653273 -0.49870768 -0.08493619 0.51945776 0.0580244 -0.18926343 -0.06999127 -0.042812582 -0.23885484 -0.0031883935 -0.20196271 -0.14630063 0.4490452 -0.11259753 0.00080444757 -0.89538395 0.2111034 -0.40002126 0.6919359 -0.29831892 -0.24397188 -0.22288798 0.0071972 0.12747328 -0.82157856 0.18827406 0.4707136 -0.27144372 -0.48702413 0.17200643 -0.14939353 -0.081685275 0.02028792 -0.2200253 -0.19568291 -0.15130416 0.2624671 -0.3551178 -0.19243096 -0.3114734 0.6494045 0.06933953 -0.12924017 -0.23105793 -0.23426294 0.1766619 -0.6142502 0.008733283 1.2142241 0.41260207 0.49069053 0.07968942 -0.2647658 0.834937 0.07396602 0.110563464 -0.33676088 0.10112672 -0.085961506 0.27364326 -0.05762977 0.07556738
599 0.40665144 -0.5072098 0.44982895 -0.5034992 -0.7882791 0.1277626 -0.10677372 -0.41403338 -0.109296344 0.035927653 -0.07514968 -0.3672334 0.26656035 -0.42197546 -0.08293296 -0.34269658 0.44311064 -0.024948118 0.10460846 0.8134002 0.50828946 -0.67623734 0.60413164 -0.32312018 0.06409904 0.2780229 0.00808049 0.33249703 -0.93322015 0.09452076 0.46523777 -0.42806053 -0.09897462 0.48123813 0.5184028 -0.28107268 -0.49214256 -0.12440415 0.04632505 0.15642786 0.4051743 0.381832 0.013899975 0.005362293 -1.1455109 -0.9939779 0.065350555 -0.10262 0.008788739 -0.533372 0.094814494 0.21804853 -0.052366994 -0.044246893 0.113284804 0.087497786 0.2729906 -0.49245995 0.22403753 -0.4043642 -0.07136259 -0.34588298 -0.32170784 -0.049772706
1915 0.5639488 0.5743117 -0.3620335 -0.34602886 -0.4329305 0.78307396 -0.5680117 0.25741762 0.73237836 0.22126135 0.17478949 -0.26420817 0.17533815 0.25461486 0.3672022 -0.6487106 -0.21479589 -0.5425854 0.21367425 0.08267873 0.7638965 -0.6426198 0.042646658 0.100568846 -0.40512058 -0.026161809 0.20112765 -0.13369986 -0.008911155 -0.025822429 -0.634164 -0.09628657 0.44726503 0.30129158 0.31614774 -1.1982756 -0.4024248 0.4393153 -0.57005405 -0.38484892 0.14616162 -0.42053133 0.68691826 0.67971885 -0.31813163 0.3323915 0.608541 0.117137976 -0.70952004 0.01581678 0.08143831 0.646009 -0.17772317 0.3213276 -0.20627391 0.30988783 -0.7172906 -0.47597814 -0.69104505 -0.34134516 0.40551767 -0.23454241 -0.09783112 0.30975962
110 0.18011501 -0.2777213 -0.28111348 0.35770333 -0.40627173 0.09092663 0.24421948 0.5587305 -0.08260636 -0.30711752 -0.27395502 0.5102937 -0.23445283 0.22247352 -0.5718356 -0.22707649 -0.094353564 0.04865056 -0.11641667 -0.07161443 -0.087546304 0.09248867 -0.014497853 0.1341903 -0.435242 0.22439605 -0.53489274 0.45657885 -0.35724953 0.27200648 0.060887586 -0.42073393 0.02103094 0.0053880853 -0.0820533 -0.035568062 -0.026457293 -0.20535074 0.07875858 -0.3405593 0.11488747 0.43391368 0.4967793 0.19565639 -0.57801634 -0.36075935 0.16984686 -0.44343632 -0.3389019 -0.12995055 -0.16100882 0.28683 -0.04881399 -0.2163235 -0.18184467 0.21380372 -0.082830936 0.3974824 -0.66537464 -0.13890895 0.40195727 0.079180114 -1.0850662 0.8151911
734 0.2455851 -0.730348 0.5313624 -0.24158287 -0.6544666 -0.1370955 -0.19378673 -0.101373576 -0.26893958 -0.7972758 -0.05002059 -0.22285672 0.5182524 -0.035268318 0.60838115 0.05519591 -0.13724555 -0.33889738 0.32638028 -0.008177333 0.32625082 0.23511153 -0.50482064 0.19270313 0.25844595 -0.37539014 0.043114904 -0.5845076 0.009235429 0.004635432 -0.15903537 0.122553505 0.3805207 -1.0880733 0.30495334 -0.23722643 -0.07909991 -0.42207247 -0.16766933 -0.14150782 -0.13515696 -0.19494952 -0.4466546 -0.039165553 -0.1570684 -0.7764794 -0.5631622 -0.5816113 -1.002097 0.2531928 0.56443 0.04466031 0.38080993 0.108659364 -0.18755968 0.16205254 0.16557674 0.1969899 -0.59316343 -0.43377182 0.06026637 -1.0775558 -0.4005994 0.0028755781
1073 0.26084864 0.09393302 0.16245025 0.34885287 -0.46556494 0.29912505 0.13173018 0.3605428 -0.0070449393 -0.12956844 -0.5794314 0.24486308 0.35870937 0.22111936 -0.10993204 0.09939495 -0.22266573 -0.1686255 -0.2121086 0.47240788 -0.21470997 -0.44238973 0.14990243 0.073054925 -0.33431035 0.14049429 -0.39602545 0.22153984 -0.5645996 -0.3071012 0.39574397 -0.29570597 -0.0012489571 -0.3825869 -0.07887525 0.34008843 -0.14359836 0.07988973 -0.6805409 -0.21101315 0.18095161 -0.3704859 0.45545086 0.43507865 0.1281692 -0.37024897 0.081170544 0.09620912 -0.67950726 0.4987593 -0.12241059 0.1992712 0.116225116 -0.37518466 -0.4900479 -0.16142349 -0.48984906 0.28965646 -0.20592901 0.25572044 0.44863397 0.42412174 -0.14505558 0.6075821
2046 0.14924602 0.13436304 0.29391298 0.0704049 -0.368075 0.3913443 0.17567518 0.2280457 0.24563685 -0.45642576 -0.3823763 0.4232625 -0.36924917 -0.048837963 -0.5583553 0.19401297 0.2317552 0.545581 -0.3245467 0.024191482 0.02989016 -0.009044582 0.0690428 0.15045708 0.021652384 0.33534408 -0.456334 0.8170003 -0.22959797 -0.08132211 -0.0010118252 -0.42956245 -0.33350968 -0.12360729 0.007717074 -0.33219665 0.4221593 -0.5636312 0.30616072 0.2046692 0.23042768 -0.072798155 0.5923488 0.44903988 -0.44175616 -0.72100765 -0.015375257 -0.3385286 0.050425887 -0.07774139 0.15350862 0.5592641 -0.13597172 -0.17872433 -0.10979017 0.33384293 -0.33509248 -0.16814244 -0.7327976 -0.604177 0.05147215 0.286726 -0.74178314 0.671268
1543 0.2812483 -0.4844258 0.016832089 -0.84822416 -0.23862527 -0.24409412 0.15695758 -0.264356 -0.41683313 -0.35107973 0.34781638 0.013663576 0.14008585 0.44339654 0.30352348 -0.04743184 0.4854436 -0.93142277 1.0631436 -0.48674425 0.43678558 -0.011546077 0.11759831 0.36628786 0.3553294 0.5501435 -0.8398282 0.5042381 -1.1304278 1.3240021 0.56343657 -0.25910845 -0.31603375 0.082068115 0.5522887 -0.31155226 -0.34884614 -0.18824586 -0.93374497 1.212288 1.1532205 -0.31105158 0.051038094 0.061438676 -0.50599295 -0.50309205 -0.1968045 -0.22109313 -0.22998944 0.32035413 0.38077545 -0.08558078 -0.18783024 0.72346586 0.29939115 0.08708445 0.28108183 -0.57855433 -0.5012764 0.24245006 0.5926083 0.046577252 -0.58091563 -0.14335862
1442 -0.3391398 1.1846808 0.082548685 -0.34732533 -0.20305212 -0.22815727 -0.22648548 -0.33622718 -0.0826526 0.14197478 -0.105773374 0.855805 0.0424164 0.89415574 -0.39759812 0.21206318 0.39010245 -0.4991037 0.22914954 0.40118605 1.2365221 0.7747078 -0.62814635 0.16755344 -0.5287524 0.016290788 -0.009932265 0.271776 0.20292398 0.51229477 0.55094516 0.21306045 0.41000623 -0.17218892 0.5873621 -0.13914105 0.09967904 0.4544545 -0.42217112 0.33742246 0.61275005 -0.06232903 0.3681424 0.58192146 -0.4544913 -0.22818843 0.7216639 0.5203418 -0.5986994 0.08602932 0.3597402 0.47563052 -0.16327639 -0.7681231 -0.5151644 0.87914926 0.3905373 0.0638889 -1.5551145 0.16700149 0.4933805 -0.9881256 0.24622796 -0.13060102
1225 -0.2877794 0.21987501 -0.7531286 -0.279572 0.051591404 0.8856791 -0.003385131 0.26875383 0.14618902 -0.3525843 -0.2726999 0.22164166 0.6585373 0.18311194 0.23655899 -0.9410789 0.42541367 -0.413845 -0.12508479 -0.15967591 0.3033604 -0.16128038 0.14503689 0.088900186 -0.54392713 -0.16781883 -0.111040674 -0.19062756 0.6125055 -0.68558306 -0.16444856 0.011136006 0.34692472 -0.31495437 0.37528145 -0.15792271 -0.1852197 0.19356634 -0.17982818 0.36593148 -0.036142044 -0.22611211 0.5984833 0.46909314 -0.37021133 -0.26604617 0.34744477 -0.43726498 0.1273942 0.25266042 -0.22748934 0.40393862 0.61280596 0.13420133 -0.796827 0.74497753 -0.27003545 -0.5684227 -0.56232476 -0.6490326 0.54180974 -0.17496179 -0.08860976 -0.21574743
1170 0.5576575 -0.0071621 -0.8873618 -0.9067534 -0.6217684 0.2510012 0.11524602 0.70244247 -0.729606 -0.6500264 -0.46109924 -0.22259477 0.29236233 0.13921353 -0.22111396 -0.20902957 -0.51652235 -0.3628274 -0.30494344 0.37941888 -0.34553993 -0.30099058 -0.08816442 -0.41690043 -0.25330812 0.031496067 0.033876598 0.24097629 0.15052201 0.13842188 -0.02592801 -0.33154207 0.025095098 -0.09034765 0.7891671 0.8493653 -0.0361692 0.22358994 -0.20306362 -0.22088908 0.24380063 -0.38446918 -0.7708376 -0.38113713 0.41113007 -0.38878924 0.39301932 0.6289569 -0.21101749 0.3299077 0.7202504 0.40014073 0.070209734 0.4246845 -0.6805273 0.57572913 -0.6258103 -0.597438 -0.3681647 0.20692946 -0.25467387 -0.09434163 0.32912546 0.824706
1043 0.07454733 -0.31102386 -0.7732357 -0.0609236 -0.47173023 0.21443969 -1.0236115 0.7073036 -0.39007646 0.5311348 0.7143783 0.3127711 1.1484212 -0.12211533 -0.80024725 0.41663882 -0.47885704 -0.88205475 0.0121537 -0.37357742 0.6461871 -0.12775233 -0.20128469 0.6677806 -0.2876574 0.20931728 -0.7413999 0.529313 0.57998556 -0.6824845 0.67736006 -0.5292264 0.7563707 0.39821884 0.55260396 -0.06646757 0.2097734 -0.5367553 -0.3646016 -0.42136994 -0.15848291 0.03053911 0.1168213 0.42699242 -1.0476799 0.5025894 -0.026634473 0.03222031 -0.5103157 -0.0044495445 0.30331784 -0.39899087 0.30750236 0.34952667 0.004939779 0.27443367 -0.23440062 -6.704936e-05 -0.25103128 -1.142739 0.3454521 -0.39524996 0.5585962 -0.49857876
1132 -0.13745019 -0.40438426 -0.44737768 0.33737558 0.3138422 -0.14715075 0.097932346 -0.1619289 -0.18730396 -0.20917678 0.020792164 0.22234459 0.49345195 0.4401505 0.8237479 -0.8693387 -0.069203325 -0.19759431 -0.18572535 0.006543257 0.8408664 -0.45993122 0.29361406 -0.14439817 -0.77271783 0.8154575 -0.17387077 0.45174366 0.4387544 -0.27519014 0.08172993 -0.53856826 -0.35202152 -0.25955003 0.17273863 -0.049078654 0.3234204 -0.12333226 0.5004286 0.18716572 -0.47935832 -0.16470978 0.16075265 0.28892478 -0.4099495 -0.36716652 0.27239835 -0.1644325 -0.063678265 0.14054745 0.042842936 0.22904901 -0.04311937 0.74295187 -0.7808401 -0.0695354 -0.2810134 -0.54536974 -0.74078 -0.080795124 0.53592014 -0.4312143 0.1423153 -0.09095644
1484 0.7202974 0.20018373 0.13840935 0.10380064 -0.46371454 -0.2892891 0.043131568 0.32148084 0.17249869 -0.06981838 -0.42437148 0.0756568 0.3440777 0.365974 -0.27504513 0.3428393 -0.10670392 -0.29069155 -0.09215236 0.59898067 -0.19909392 0.021935793 0.0577678 0.3371107 0.22604921 0.14512068 -0.146523 0.98770976 -0.33722287 -0.82228893 -0.09065474 -0.14475681 -0.26659128 -0.58754164 -0.057501167 -0.39255264 0.09742419 -0.8782915 -0.4075535 -0.19667701 0.8326974 -0.7426318 0.20867416 -0.33083844 -0.23879877 -0.06518091 0.9302387 0.4716594 -0.46355858 0.19898333 0.32174578 0.4388792 0.45030472 -0.48411286 -0.21414329 -0.2618891 0.03422145 -0.26807746 -0.41616216 0.01417965 0.090738446 0.30424008 0.14635603 1.0605072
96 0.16935305 -0.35310555 -0.5110817 -0.23406817 -0.49908006 -0.3766254 -0.9969217 0.46253964 0.0021009515 0.21202968 0.87961686 0.18562065 0.082736105 0.1779868 -0.09273816 0.12256448 -0.40123433 -0.3824167 -0.38194162 -0.06520434 0.40096414 -0.29603627 0.20797598 0.43637118 0.33004794 0.094940685 0.041752934 0.25856182 -0.0965375 -0.019323986 0.47176436 -0.598218 -0.08339801 -0.009276921 0.20183751 0.5561789 -0.6395919 0.06774157 0.22532447 -0.15723051 0.11322004 0.5926648 0.40275672 0.24943225 -0.50619197 0.28927967 0.7177583 -0.34519744 -0.31407058 0.62535435 0.4880162 0.4134408 0.47527817 0.5925886 -0.597073 0.7170702 -0.025568392 0.20994434 -0.038733747 -1.0286176 -0.3523452 -0.5966027 -0.02298539 -0.20681104
416 -0.011975458 0.12565488 0.21197677 -0.4322417 0.18493208 0.6283003 -0.28544503 -0.062095977 -0.57855636 -0.28571922 -0.052163597 0.1409834 -0.2172106 -0.47873518 0.27522498 -0.084779024 -0.020499632 -1.3368365 -0.23648542 0.15288085 0.7152592 -0.46210405 -0.48973495 0.05724126 0.53964585 0.19129473 -0.18327166 0.12773141 0.3183799 -0.36046165 -0.16452724 -0.014649894 -0.40026572 -0.43391824 0.017673833 -0.39744616 -0.39804107 -0.10710022 0.34783006 0.10463523 -0.3086763 0.03099658 1.1368865 0.028340165 -0.07709259 0.18601355 -0.032477587 -0.06343733 -0.15901217 -0.13138655 1.2140055 0.564533 0.5393178 0.7833866 0.08338108 0.37489837 0.1268011 0.26242936 -0.50072396 -0.13948317 -0.2570786 -0.11115824 -0.12758322 0.25907272
964 0.7287512 -0.68724495 -0.23855513 0.018375224 0.3237892 0.021298291 -0.11420639 0.9919953 -0.28221732 0.2494126 -0.6037407 -0.11945271 0.10461415 -0.38589495 0.020677693 0.13628948 -0.6075158 -1.1186786 0.30153698 0.20043178 0.67573404 0.39350864 -0.038851593 0.18394105 -0.1652451 1.1286191 -0.4754567 -1.1101859 -0.4273601 0.4102787 -0.4783757 -0.42236373 -0.14236303 -0.6285589 -0.36218008 -0.0038949996 -0.002400919 -0.44303486 0.18203272 0.35198522 -0.110870056 0.036863185 0.4434626 0.3492739 -1.1605457 -1.0395944 0.23745984 0.90305156 0.2795959 -0.27009836 -0.68401515 1.033149 0.7204557 0.2715729 -0.125561 -0.069289185 0.067568146 0.3654442 0.09372588 0.030591976 0.5397073 -0.5725715 -0.44241175 0.30133015
119 -0.38454023 0.66511416 -0.5798316 -0.06569267 0.49771744 -0.012443858 -0.045573086 0.33874324 0.31753087 -0.86597943 0.06760271 1.3195745 0.16179217 -0.14347261 0.5170353 0.0567358 -0.24308829 -0.36729115 0.37628907 0.1882511 0.6293488 -0.23299442 0.57185304 0.30962664 -0.055167027 -0.1484403 -0.4421851 1.1699142 -0.36526787 -0.4691444 -0.48443127 -0.84212905 0.43849346 -0.27944493 -0.233977 -0.12220297 -0.3969043 -0.44875357 0.020773519 -0.5411901 -0.14264835 -0.14133541 0.6829838 0.6069948 -0.007684031 -0.65857494 0.1137558 -0.3328191 -0.6948209 -0.22538924 -0.15736546 -0.12827124 0.5497145 0.003501329 -0.07804797 0.2360156 0.054545026 -0.7431272 -0.47493905 0.44256404 0.8605103 -0.91943955 0.28177437 0.15302092
2183 -0.43192247 -0.39360297 -0.08957957 -0.6322816 -0.40508273 0.19911504 -0.9778768 0.44425303 -0.38948822 0.0013014063 0.12059257 0.63256085 -0.3034895 0.07873587 -0.013198892 -0.28905624 -0.55313486 -0.60374624 -0.27876684 -0.17779943 0.36987752 -0.25394216 -0.22965051 0.17852744 0.47654906 0.3203348 0.27816492 0.10911251 0.0899884 -0.55815727 -0.08722599 0.03887477 -0.3780832 -0.7611291 0.48916596 0.104284726 -0.9933286 -0.7552514 0.032396305 -0.29395252 0.49502498 0.057234704 0.24586233 0.5975841 -0.14445856 0.44518077 0.60849094 0.066930376 -0.43460864 0.603273 0.37815213 0.76269674 0.5039784 0.91772574 -0.034547295 -0.19810185 0.12207309 0.089525916 -0.14887664 -0.5904261 0.037091173 -0.70879674 -0.21629353 -0.40348512
1693 0.24814168 -0.7795186 -0.63976127 -0.54255784 -1.4225719 -0.18365367 -0.24510446 1.2083008 -0.098795496 -0.61544794 0.28484488 0.34084752 1.4109565 0.2976334 0.015028249 0.6571 0.30080742 0.008225029 0.25153264 0.46308655 1.2885073 -0.20891832 -0.6561294 0.5650017 0.085198045 -0.7673922 0.33808234 0.2275769 -0.33984 0.051568538 0.16707645 0.11349225 -0.25135842 -0.7480861 -0.6412368 0.41035327 -0.63958013 0.20126097 0.3649879 0.84078246 -0.30390066 -0.55100244 -0.035774752 0.10200223 -1.1890198 0.21392563 -0.36563706 0.3626566 -1.1202674 0.10967181 0.21806376 0.06620757 0.60489714 0.2890502 0.26031572 0.14072096 -1.1044825 0.49548924 -0.2417066 -0.47112182 0.21857126 -0.16154593 -0.1145752 -0.40417546
1258 -0.52152455 0.42350617 0.18372889 -1.1117944 0.07217565 0.89841473 -0.6096438 -0.26078063 0.61647147 -0.01733068 0.57714367 -0.45461366 1.4592807 0.32224837 -0.14275753 0.25733072 -0.25795972 -0.9417203 0.06874972 0.9127637 0.3594407 0.47880083 -0.27281687 0.83249617 -0.2944935 0.72578967 -0.2651376 0.727569 0.51487935 -0.10420594 -0.28587437 -0.23867887 0.022777062 -0.0828424 0.63285244 0.57537204 -1.0244348 -1.1622474 0.5413644 -0.39520437 0.1376315 -0.22494991 -0.6402757 -0.16957863 -0.32000554 -0.9630303 0.22760026 -0.02611468 -1.0504694 0.5987487 -0.3820413 1.2758842 -1.475799 0.8096655 0.19139808 0.021936502 0.19837008 0.5670298 -0.39167148 0.73780257 0.053180147 0.25339076 -1.0412693 0.605318
1414 0.27453315 -0.606625 -0.037043978 -0.7621728 -0.3608855 -0.10186484 -0.044707164 0.058132436 -0.6342034 -0.40664223 0.21339038 -0.06750523 0.2406681 0.33051577 0.070775755 -0.07822272 0.7360054 -1.0754722 1.4024125 -0.3316573 0.37504712 0.4926983 0.118490666 0.6538115 0.40475136 0.94925094 -1.035773 0.47632587 -1.4461493 1.529754 0.43622997 -0.5903117 -0.1906929 0.09947829 -0.041864973 -0.1564696 -0.70924824 -0.092168 -1.0649033 1.6236122 0.6665405 -0.7926974 0.29525226 0.24452658 0.21935064 -0.7721264 -0.224255 -0.80224067 0.02547788 0.6923823 0.036909577 -0.40057266 -0.20712884 0.91753036 0.29270944 0.6477729 0.64051825 -0.75576 -1.2936217 0.02410582 0.96573997 0.22672933 -0.29210222 -0.19319983
508 0.37853232 -0.86330545 -0.15181878 -1.1715733 -0.32598624 -0.10200125 0.10984583 0.07520154 -0.80346483 -0.17553063 0.13767691 -0.30462787 0.23108383 0.10075157 0.20500198 0.031192113 0.55783385 -0.61369157 1.1542617 0.0148666985 0.3430481 0.38681984 0.21283276 0.6691173 0.03173117 0.65073216 -0.6486483 0.15993649 -1.4426776 1.6735986 0.6730406 -0.5537743 -0.06622245 0.3183517 -0.32403418 -0.26455864 -0.9598917 -0.4581454 -1.1825175 1.1587112 0.5138481 -0.561183 0.53141224 0.34696138 0.39229146 -0.35055712 0.52962434 -1.1344677 0.11114329 0.7560789 0.16431363 -0.18266284 0.19438484 1.2052778 0.3251022 0.46387798 1.0987812 -0.74314415 -1.2966495 -0.002148084 1.0706618 0.14408313 -0.5321298 -0.23100609
1417 -0.27981248 -0.079261765 -0.48401415 -0.8191048 -0.7441611 0.12550445 -0.0804799 0.13390039 -0.5948625 0.025194883 0.3516323 0.41471958 0.22356427 -0.119812176 0.20291895 0.16464071 -0.23454867 -0.50382006 0.34620282 0.110781156 0.061832592 0.32298696 -0.15122792 -0.0016843437 -0.39319098 0.38140786 -1.2677383 0.19265303 0.4273506 -0.6790815 0.21126293 -0.77286094 0.1982192 0.14739056 -0.088079244 -0.096375056 0.09172323 0.1856784 -0.48596185 -0.05700886 -0.72666836 0.09315924 -0.45243543 0.43854427 -0.72041893 0.63198674 -0.019881422 0.028785672 -0.2612832 0.1787725 0.28662482 0.3489455 0.29338798 0.5432817 -0.23343281 0.39189503 0.55132496 -0.41490299 -0.18968251 -1.690751 0.41218665 -0.20461835 0.13524033 -0.3708132
2156 -0.17909175 -0.38872424 -0.59142405 -0.07816272 -0.014110896 0.2227345 -0.012546808 0.48397505 -0.103151105 0.18876778 -0.602155 0.1323912 1.0370162 0.3163782 0.28765324 -0.3646539 -0.27729505 -0.63698334 0.34234804 0.050624717 0.07608423 -0.25479126 -0.4298985 0.15157886 -0.6179214 0.388317 -0.16355951 0.18456118 0.20415492 -0.41257563 -0.5328163 -0.78485876 0.0071790447 -0.2367034 0.37821874 -0.17355578 -0.018991357 0.016752357 0.1243494 0.33710143 -0.4859035 -0.05739229 -0.29167548 0.4952633 -0.6732917 0.05393358 0.50728106 -0.7523968 -0.094226465 0.39682844 -0.22518407 -0.29661798 0.40869847 0.55107653 -0.6987902 1.0189674 -0.49430284 -0.20941766 -0.24583861 -0.47285688 0.06410332 -0.3977949 0.56528664 -0.19998556
1704 0.6628677 0.31276256 0.14638151 -0.11542796 -0.03167537 0.03901627 0.6088827 0.8570114 -0.3327909 0.15715913 0.48939833 -0.06372435 0.6389156 -0.0871524 0.18157378 0.18090981 -0.29093122 -0.5105063 0.5562396 0.47178435 0.84986883 0.31064892 -0.47125888 -0.11111128 0.24449107 0.88475597 -0.14896935 -0.9470321 -0.07514657 -0.016197914 -0.4000988 -0.45897633 -0.21358068 -0.36928624 -0.13492346 -0.2786582 -0.37315536 -0.027862716 0.32003918 -0.6271017 0.49941674 -0.6448061 -0.48864558 0.66012996 -0.5030554 -1.1837591 -0.30893576 0.48172745 -0.5138615 -0.57153183 -0.32331935 0.5069345 0.41931593 0.4625564 -0.15535611 -0.19144768 0.7698008 0.7361427 0.05668351 -1.1004556 0.626661 -0.46278533 -0.09319279 0.014006392
974 -0.6136449 -0.067087695 0.3680603 0.13921884 -0.5032834 0.07095901 0.46159288 -0.018082976 0.1841336 -0.7174621 -0.92338365 0.25082386 0.029838312 0.123115666 0.11598585 -0.2314467 -0.6121967 -0.6793512 -0.079107925 0.18229984 0.27999064 -0.13756628 -0.027743747 0.44843486 -0.6642265 -0.050392024 -0.34665915 -0.039731737 0.030344954 -0.20015569 -0.17613055 -0.27063838 0.28564307 0.13237497 -0.35742918 -0.04209926 -0.5592859 0.114998735 0.10177083 -0.36458805 0.14714018 -0.65972984 0.9957086 0.61364466 -0.31608915 -0.045683067 0.27565944 0.06995388 -0.15144195 0.02882587 -0.09620914 0.6806255 0.68927556 -0.41513252 -0.16303349 0.29169804 -0.49741888 -0.00653026 -0.12774685 -0.004688103 -0.15074866 -0.4467892 -0.4190813 0.16200556
430 0.47590482 -0.51390845 -0.25090787 0.19740815 -0.9248194 -0.22129339 0.58504325 1.2246637 -0.49456784 -0.25464034 0.1505459 -0.6860913 0.19536076 0.10107619 0.7598889 0.8242297 0.76004964 -0.21687706 0.4062287 -0.2368818 0.5694453 -0.12292339 -0.35082772 0.7616026 0.13017264 0.06612462 -0.13022704 -0.20779341 0.19415453 -0.83775157 -0.053942353 0.06959663 0.4918049 0.20297465 0.38716662 -0.18404512 -0.19457075 -0.43792385 -0.58930916 -0.33029905 -0.20264411 -0.14873892 -0.10124506 -0.18494454 -1.0523117 -0.795683 -0.06393383 -0.961566 -0.6471364 -0.6355566 -0.088533886 0.2683189 -0.61109465 0.4852725 -0.50052565 0.2742283 0.1833396 -0.13970926 -0.2962638 -0.009728557 -0.54620284 -0.44051605 -0.43186864 0.114746675
1766 0.38105312 0.22023068 -0.18890153 -0.3014781 -0.25205618 0.25095424 0.08599841 0.78424084 -0.7100655 -0.9964416 -0.14319271 0.047644664 0.114801854 -0.03655589 -0.37117797 0.060757335 -0.13460615 -0.16990456 -0.44443706 0.6446696 -0.31823474 0.19830735 0.44935837 -0.3163049 -0.12927034 0.059134733 -0.1076953 0.19603384 0.26733416 0.20613994 0.21486987 -0.2610167 -0.042076863 0.2124679 0.32071772 0.35416684 0.06795365 0.19070606 0.2538471 -0.12420367 0.37339032 -0.8760936 -0.6544243 -0.01565328 -0.48996317 -0.42068183 0.25947046 0.4177709 -0.1321747 0.43493786 1.198651 0.19729163 0.09086378 0.26960707 0.039832048 0.7185865 -0.51080215 -0.61883956 -0.22393338 0.14762756 -0.27692825 -0.44045126 0.24624793 0.7241736
437 -0.22440939 -0.6107981 -0.66299796 0.22591554 -0.09599809 0.25062606 -0.25022075 -0.30034247 -0.38531613 -0.30202344 -0.08143551 0.37953466 -0.1421169 0.25340313 0.9329175 -0.6491562 0.2692145 0.05498607 0.32262266 0.42886394 1.2482967 -0.20122752 0.03355787 -0.12348382 -1.1113305 0.16261101 -0.6963209 0.23177728 0.30682376 0.17430888 0.091823734 -0.5333614 -0.41507235 -0.55729556 -0.69781846 -0.34500903 -0.044370912 -0.27245572 0.7218176 -0.1541451 -0.61025745 -0.61474735 0.26332697 -0.16018777 -0.4177002 -0.5455412 -0.076675855 0.98195565 -0.40568402 0.5599148 0.3415319 -0.18866198 0.5924339 0.36476523 -0.4016676 0.96348673 0.03766293 0.36889756 -1.4013345 -0.13386126 -0.26381856 -0.1637926 0.03730897 -0.26908576
1104 0.89924383 0.059004664 -0.3327941 -0.90582335 0.21549562 -0.52506983 -0.03630542 1.0212295 -0.60216665 -0.79048294 -0.36729482 0.20633906 -0.06360398 -0.3514341 -0.028719706 0.010315539 -0.77736086 -0.44440937 -0.03189173 0.5322498 -0.8195247 0.0742923 0.57709575 -0.7491439 -0.59548885 -0.30094445 -0.67762536 0.06348431 0.005779089 0.29442394 0.5138287 -0.14819525 -0.036446605 0.34440684 0.64084387 -0.39769533 0.31302696 -0.5662511 -0.36790457 -0.2789666 0.22268113 -0.56366557 0.28702205 -0.14429921 -0.6075725 -0.5272766 0.17094922 0.19771208 -0.2752518 -0.002793759 0.6380261 0.018878775 0.0675927 0.49554884 -0.67649865 0.32871884 -0.10105348 -0.20167819 -0.75805587 0.32301295 -0.31524435 -0.23514478 0.34772316 0.5611381
2395 0.44487166 0.5458741 0.36366165 -0.7804605 -0.40724072 -0.051730417 0.012594252 0.21450907 0.22182761 -0.5528132 0.48030156 0.056022756 0.014783825 -0.72604203 -0.6675177 -1.1633197 0.5962779 -1.4505405 0.26618466 -0.73927945 0.5310062 -0.19907252 -0.12708406 -0.8572273 0.020935463 0.045682833 -1.1328999 0.07737651 -0.23453568 0.41716522 -0.35171735 -0.29519254 0.5148744 -0.30551365 0.09778221 -0.59977657 -0.3133998 0.10692492 0.024887212 -0.801318 -0.5455874 -0.30008602 0.92738503 -0.4814363 -0.54014736 -0.36543038 0.30427146 -0.47663158 0.0531842 0.37434602 0.97768307 1.7183839 0.8811278 0.29342964 -0.33749726 0.49943343 -0.6177661 -0.11484639 -0.5286505 0.4377871 -0.11978104 -0.09833813 0.19862369 -0.40251237
662 -0.24470243 0.83625615 0.48723274 -0.3428015 -0.79788476 -0.054276295 -0.39357167 0.23544568 -0.9551061 -0.24009623 -0.62419075 -0.30157742 -0.42291442 1.081452 -0.662797 -0.6868175 0.32809415 -0.53762156 0.63249445 -0.12357256 0.930639 0.5094457 -0.04480567 0.07841023 -0.30722418 0.2463642 -0.37122256 -0.13545476 -0.037900954 -0.8572915 -0.3752926 -0.5882221 -0.13874803 0.29701552 -0.39377114 -0.19244398 -0.6297112 0.35122597 0.10437046 0.39015713 0.47685057 0.16683468 1.0351793 -0.10327052 -0.4336867 0.29937792 -0.23410167 -0.12034133 -0.15352896 0.48642653 -0.41702092 0.33016217 -0.012616938 -0.14479904 -0.3466702 -0.00036834728 -0.38761616 -0.22730449 -0.66035604 0.3097067 -0.038736865 -0.5456129 -0.20886336 0.4740662
2002 -0.09109002 -0.53381646 -0.26268226 -0.57388794 -0.64785546 0.2829384 0.2882479 0.9736786 -0.40943944 -0.12532736 0.3894166 -0.34230852 0.45900935 0.08420875 0.47782704 0.76188856 0.22793141 -0.29106835 -0.06963976 0.58359 0.38467085 -0.53969556 -0.5356498 0.6196299 0.00813225 -0.46836624 0.36725697 0.26674893 -0.1945742 0.19705413 0.29531112 -0.64646083 0.110001355 -0.36384764 0.26444963 -0.32356584 -0.69806576 -0.100702494 -0.7554174 0.19750342 -0.618047 -0.5292441 0.09401973 -0.43796328 -1.1126283 -0.3672188 -0.8071967 -0.26869422 -0.27642593 -1.1817261 -0.114510864 -0.021247476 -0.11238443 0.11332536 0.015285417 -0.31633073 -0.14874934 -0.5081691 -0.5282866 -0.14321636 -0.5912598 0.072237246 -0.15343209 -0.06756365
1625 0.31480977 -0.4179316 -0.051427748 0.007056221 -0.7616301 0.49429345 0.20510179 0.33396006 0.103657156 -0.27437362 -0.23455492 0.7229505 0.028749127 0.23818913 -0.5645289 0.30418754 -0.26427847 -0.45918834 -0.3876522 -0.5613152 0.23613042 -0.08998401 -0.16211121 -0.119496666 -0.77119875 0.17074579 -0.11776362 0.20265533 -0.5000566 0.38208202 0.15275629 -0.9079912 0.38122547 -0.72027934 -0.09327539 -0.020926274 -0.08516394 -0.23321936 0.023411753 0.24928468 0.21277805 0.8467492 0.17737024 0.20104688 -0.24514203 -0.26716307 -0.17333882 0.49852684 -0.6153554 -0.4967035 -0.4179506 0.17667283 -0.3914921 0.7416871 0.026822915 0.2985793 0.90009713 0.19139571 -0.8977481 0.07410903 0.1283608 0.11337691 -0.5724809 0.92703664
1629 0.44267523 0.037746962 -0.36771333 -0.08480861 -1.0099796 0.5482096 -1.0151147 -0.032103032 -0.14475113 0.3096673 0.65680146 0.3953555 -0.24774306 0.37342733 -0.31566036 0.2926695 -0.057238724 -0.76198304 -0.32266298 -0.6803075 0.06126511 -0.0074778665 -0.04971533 0.0784269 0.3465738 0.27986932 0.33669913 0.4634016 -0.006863637 -0.4958717 0.5263188 -0.72472566 -0.15788007 -0.3718051 0.0057901833 0.14206056 -0.6989717 -0.55654913 0.24451101 -0.86758304 0.11055872 0.05288216 0.052324787 -0.101511315 -0.8731778 0.37147227 0.48253307 0.07409345 -0.17302763 0.3369791 0.10154434 0.4062644 0.39467123 1.3318632 -0.2759206 0.5495221 -0.2032731 0.16211544 -0.1478191 -1.0211859 0.25377232 -0.5616096 -0.05425076 -0.48763245
2249 0.05990212 -0.18465847 0.31214893 -1.2072294 -0.25699973 0.40612364 -0.52525187 -0.42686665 1.1178877 0.016953189 0.9787458 -0.12780799 1.2124832 0.32113057 0.42740917 -0.74384993 -0.22549333 -0.47446027 -0.107793026 0.9956291 0.36259112 0.9210856 -0.662466 0.80579567 -0.80168515 -0.033351045 -0.60862637 0.5771843 0.45899615 -0.2963009 0.4702096 -0.0945804 0.5231996 -0.017187864 0.41379562 0.6350882 -0.7580989 -1.075699 0.2045185 -0.3943451 0.6261165 0.28907475 -0.03853265 -0.9638747 -0.36557445 -1.1660641 0.8565447 -0.7121314 -0.18677728 0.60758364 -0.3795897 1.1412958 -0.9405938 0.83441347 0.27828225 0.051875826 0.07371835 0.71239173 -0.4928095 0.88723826 0.004491944 0.31719154 -0.94221467 0.46577403
1726 0.41974396 0.27755252 -0.32122934 -0.21113493 -0.57240784 0.15993053 -0.33749855 0.058348693 -0.60296315 -0.2987888 -0.13172214 -0.42510998 0.07160314 -0.18082017 0.16051687 0.11824532 0.1788684 -0.24997866 -0.306496 0.5373516 -0.7883138 0.39776278 0.045923434 -0.21762002 -0.69819397 0.17376426 0.09315371 -0.023133093 -0.49339816 -0.55634433 0.11260404 -0.64243275 -0.24354161 -0.016328484 0.122315384 0.77379227 -0.27174392 -0.13113317 -0.4251944 0.14254193 0.27274266 0.030992925 0.09394866 0.74625504 -0.009242732 -0.3813014 0.39380392 0.45999178 -0.8112246 0.065190874 0.578608 0.3975616 0.30625296 0.50081676 -0.4868264 0.27167365 -0.47955367 -0.16119972 -0.22083747 0.65267307 0.37085536 0.49805987 0.39520773 0.6538177
2672 -0.5530541 0.93561846 -0.24723111 -1.2728003 0.14212514 1.2782805 -0.3368488 0.36147413 0.56606567 -0.18774195 0.5756293 -0.54885596 1.1729721 0.11895763 -0.031728722 0.25905937 -0.62793607 -1.0228388 -0.06387503 1.0376513 0.3392022 -0.4986376 -0.3082344 0.80396223 -0.18602243 0.5166205 -0.33766502 1.3833289 0.77277607 -0.019856635 -0.26722538 -0.18803872 0.3071761 -0.674981 0.9601242 0.7037405 -1.1654183 -1.0909628 0.8558635 -0.14879271 -0.13212189 -0.1450474 -0.54699033 -0.14584933 -0.34485072 -1.1440192 0.27233052 -0.01819072 -0.7521346 1.1274495 -0.5353439 0.93431777 -1.2839805 0.8587582 0.102144144 -0.118152 0.4752771 -0.026666468 -0.13121356 1.1474745 -0.04909289 0.15620734 -1.2809831 0.18570742
1310 -0.37827986 -0.20515507 0.68364495 -0.49624088 -0.051359884 0.47001123 0.42027697 0.34573245 -0.058397952 -0.2212062 0.02666485 -0.25217935 -0.28635338 -0.22057584 0.31787556 -0.48856154 0.056243237 -0.9817271 0.2220454 -0.09108128 0.80259204 -0.2546079 -0.044610307 -0.421558 -0.053711586 -0.19299702 -1.1208978 0.39262265 0.6673329 -0.45204574 -0.35785738 0.3829504 -0.04364378 -0.04952829 0.124772035 0.52652276 -0.4023653 0.011473042 0.334383 0.31935656 -0.026468094 -0.0880301 0.890939 0.035176866 0.14790864 0.009989033 -0.12793034 0.32093984 -0.5133325 0.2180689 1.1004711 0.32722756 0.5215082 0.77287036 -0.07011705 0.46974948 0.15326267 0.030402254 -0.87502563 -0.4591999 0.073274806 -0.072123155 0.16469735 0.27168748
1974 0.12191113 0.29977143 0.13302796 -0.07448381 0.19488329 0.12649274 -0.010665452 -0.18532725 0.389018 -0.6211031 0.060087614 0.461665 0.47776258 -0.037039302 -0.18453516 -1.186231 -0.044888128 -1.0707177 0.23664367 0.78354573 0.37684685 -0.54191375 0.22967286 0.5415531 0.010036063 0.6236752 -0.30896378 -0.92982644 0.6235521 -0.008554135 -0.5823341 -0.24400851 0.588769 -0.7672947 0.3635575 -0.39229792 -0.08378216 -0.20136695 -0.2362806 0.36603844 0.048334945 0.06350397 1.047241 0.20812036 -1.0025051 0.07705731 0.46924868 0.0026813578 -0.16206416 0.6584934 0.30589023 0.312008 0.19180821 0.53364545 -0.41306314 0.37054878 -0.66275585 -0.37764686 -0.47734857 0.011945119 0.31833723 0.4116916 0.44717982 -0.044765342
1895 0.48558432 0.23553777 -0.014272627 -0.5048189 -0.40353635 0.24770583 0.96777743 0.06880983 -0.5282581 -0.0807946 -0.2515362 0.003952148 0.88024366 0.45025608 0.50349176 -0.44292092 -0.1806577 0.44369546 -0.34544954 0.08635327 0.5016199 -0.2361127 -0.22332276 1.0115563 0.352014 0.34912923 -0.3737369 0.13996097 0.058945753 0.026016077 0.688939 -0.21589673 -0.69848573 0.7282375 0.26429954 -0.037210822 0.34493506 -0.2567491 -0.25103664 -0.53274363 -0.6432283 0.07488515 0.20085125 0.52595395 0.22301576 -0.86186355 -0.31023392 0.010416094 0.27283034 0.8405473 0.2439434 0.100427605 0.09373975 0.89522004 -0.412061 -0.06539685 -0.022237888 -0.17722231 -0.64920545 -0.5575392 -0.16386795 -0.305692 0.23771599 0.15760146
1230 -0.4427743 0.22421108 0.046133887 -0.32405958 -1.0127376 0.10675958 -0.36958823 0.6256163 -0.52671 0.17187312 0.24607033 0.5648001 0.6641508 -0.6865935 0.53429604 0.036328632 -0.016985195 -0.33937407 -1.1255506 0.32316118 -0.41196045 0.36081398 -0.18066335 0.100968845 -0.23811702 -0.058588 -0.9542139 -0.5089205 -0.3211071 0.002672483 0.31494978 -0.68715787 -0.19891322 0.41076997 0.43935132 0.45823523 0.004930759 0.05023307 -0.5938699 0.04868902 0.50806564 -0.42238006 0.2400674 0.10878051 0.14196868 -0.48446366 0.44617516 0.48018306 -0.24941549 0.46804002 0.92405903 -0.46421468 0.59823537 0.2648583 0.3905118 0.09569189 -0.007618175 0.6087229 -0.7995892 -0.034690157 0.32944974 0.07270573 0.34304848 1.5399458
311 -0.47963455 -1.3353775 -0.21187985 -0.8569985 -0.118903935 -0.5927136 0.68162316 -0.47240716 -1.3451825 0.47634327 0.49165687 1.0146968 1.0404472 0.693056 0.46268192 -0.15666427 0.0071438225 0.17456159 0.5903083 -0.6568394 0.86307913 -0.5477169 -0.9210114 0.58260304 0.24684049 0.27476794 -0.15205647 0.37646598 -0.6117821 0.2871342 0.24855764 0.54781723 -0.1739397 -0.19974113 0.5599237 0.14900786 0.080078244 0.15054922 -0.5880403 0.13642271 1.2110262 -0.14238556 0.13472266 0.36517674 -1.0203503 -0.934949 0.31227383 0.21658777 -0.72960055 -0.092185184 0.5389221 0.89116174 0.16366018 0.18769135 0.22834614 0.52115536 -0.22253545 -0.680877 0.30070442 0.4272716 0.86028117 -0.54169595 -0.6893549 0.6160914
688 0.61772007 0.10634261 -0.7939597 0.0270169 -0.39640334 0.15156259 -0.2920078 0.47499546 -0.06081641 -0.09156637 -0.10659269 0.21764727 0.5998505 -0.62238866 -0.31901065 -0.0511984 0.51993054 0.009504009 -0.10865744 0.43049204 -0.4421512 0.39850113 0.11813588 0.13545355 -0.14185563 0.1914082 0.0097285975 0.29344603 0.18535599 -0.04253831 0.04311237 -0.5563085 -0.71340245 0.16630216 0.045705017 -0.187376 -0.5930674 -0.111863635 -0.4296781 0.10315097 0.35629007 -0.028772522 -0.44306737 0.24299191 -0.12821913 -0.7229522 0.010541223 0.21431683 -0.21936081 0.47638208 1.0118707 0.61737806 0.0058517633 -0.15890425 -1.0917374 0.14550775 -0.09495359 -0.62752444 0.0407573 0.3567144 0.36130214 -0.089997806 -0.10710141 0.72537714
1741 0.23930381 0.12874804 0.46366534 -0.058113676 -1.2432108 0.16183554 0.30060455 0.50425285 -0.74608964 0.06188117 -0.025916561 0.018192608 0.16446917 -0.8324111 -0.28809807 0.12183793 0.17821252 -0.3733729 -0.73124844 0.55765754 -0.6542989 0.05185031 0.116990454 -0.19802022 -0.916416 0.22308554 -0.16288164 0.29217917 -0.70495445 -0.17814729 -0.062247626 -0.1336349 -0.42798415 -0.4502409 0.0108061 0.15445727 0.04738457 0.21362771 -0.53222215 0.19973765 0.35259056 -0.4597614 0.14962584 0.8563294 0.0772837 -0.5987184 0.53376186 0.14107311 -0.48090774 0.57246894 0.24109796 0.16947165 0.43523753 0.39420468 -0.44011414 0.10966746 -0.60670024 0.35149392 -0.41778904 0.37480018 -0.037769444 0.5939158 0.5034351 0.45906729
2368 0.5514056 0.6025693 0.1912667 -0.26829648 -0.65294635 0.12670769 0.30286753 0.05261224 -0.1143089 0.7980207 1.0132602 1.0472603 0.86148006 -0.08259059 -0.11983243 -0.43963072 -1.5789193 -0.36515507 -0.24473038 -0.2765662 0.700734 0.37255827 -0.8786189 -0.56979465 0.73479295 0.16429317 0.50818753 -0.7486397 -0.790902 -0.13879266 0.040778868 -0.53185934 -0.20287062 1.7491679 0.13003406 -0.29687542 -0.016207542 -0.75490797 0.055052474 0.57446235 0.95368314 0.5678398 1.521634 -0.6653749 -0.86817884 -1.1909915 0.92766327 -0.57651365 -1.4993541 -0.034288187 0.54209864 -0.36240947 0.7358374 1.4175272 -0.49263507 -0.008590276 -1.2333705 -0.6229663 -0.7744387 -0.4630556 -0.9539358 0.87558955 -0.8352342 0.22553296
1928 -0.23448111 0.262518 0.18554464 -0.8784585 -0.6593251 -0.010963706 0.6369538 0.24919364 -0.30996612 0.28785196 0.19246364 -0.12901586 0.27437747 0.47657934 0.8164383 -0.2032955 -0.76781094 -0.80765957 0.9775911 0.37112907 0.14324117 -0.13281077 -0.078491576 -0.4750291 -0.10721085 0.7961784 -0.89684486 0.08911276 -0.14031325 -0.83242905 -0.30638298 -0.9573326 -0.48440924 0.15352136 -0.18989588 -0.21638519 0.30996063 0.15620121 -0.05128576 -0.3640205 -1.2274665 0.00967941 -0.48575884 0.19421767 -0.50468653 0.10206577 0.6817342 -0.5226178 -0.13282533 -0.3782638 0.053918187 0.74594325 0.14238302 0.18241255 -0.39948088 0.7277276 0.79109454 -0.38749102 -0.8424427 -0.94374114 1.0968453 0.058452897 0.37544757 -0.38718832
1951 -0.0056282426 -0.9744568 -0.18042137 -0.9734288 0.110129215 -0.6900876 1.2411581 -0.47157124 -1.2835613 0.80969375 0.20806782 0.72446877 0.97476983 0.92644566 0.2602996 0.32992768 0.0011808756 0.3468328 0.3228413 -0.5215339 0.9299814 -0.35854524 -0.57801104 0.8185411 0.7247872 0.153797 -0.26524022 0.5578511 -0.37359524 0.5527969 0.5242724 0.19206542 -0.32566112 0.06806021 0.20923395 0.03808622 -0.20944862 0.07844036 -0.7304143 0.24528478 1.3170052 0.23879574 0.31072903 0.28464913 -0.946495 -1.0184671 0.5508158 0.008854033 -0.6093539 0.043958463 0.7855906 1.14168 -0.1560275 0.7309594 0.35420462 0.7125176 -0.32951587 -0.7945117 0.12971243 0.23297426 0.9090939 -0.4817131 -0.58124393 0.375675
646 -0.07001711 0.5553688 -0.124182425 -1.3184495 -0.47717857 0.51232105 -0.2597779 0.47699493 -0.76995707 0.037388522 0.43956795 0.06915901 -0.392197 0.2245367 0.8507825 -0.61233234 0.0751832 0.22887997 -0.13366865 0.5954422 0.18775535 0.17847559 -0.077905655 -0.3706249 0.29171312 0.14810948 -0.6908791 0.02685065 0.5632148 -0.44065532 0.020520473 -0.079010226 0.3370084 -0.41935834 0.47048104 -0.2067894 0.71492106 0.118713066 -0.5818135 -0.5141541 0.6460568 0.025099216 -0.09347466 0.530906 -0.14649048 -0.106282346 0.19408302 0.3546699 -0.5647551 0.36047748 -0.32445544 -0.38371655 0.34932762 -0.3587278 -0.14691556 0.59890074 -0.619762 -0.5594524 -0.5920818 0.68852395 -0.27140012 0.24908087 -0.16190484 0.24705398
240 -0.014108911 -0.57093036 -0.26413167 -0.38913995 -0.8463011 0.6856718 -1.0153655 -0.3688858 0.023473697 -0.053228844 -0.45177045 0.19484848 -0.11879511 0.1503927 0.007513453 -0.37366873 0.19862698 -0.45232862 -0.37647152 -0.4190016 -0.13136248 -0.31668937 -0.2471094 0.36573088 -0.028456042 0.06468891 0.29974344 0.7628042 0.1558057 -0.28684533 -0.064015634 -0.64454395 -0.4680327 -0.36182326 0.045905743 -0.13537593 0.21596465 -0.16991554 0.14335376 -0.03396365 0.059459664 -0.50257915 -0.079065725 0.6836526 0.08160006 0.017774073 -0.041711 1.1444639 -0.31655207 -0.008171627 -0.20051128 0.85819197 0.34076092 1.2974081 -0.08417976 -0.13097247 0.4077194 -0.3616077 -0.3406839 -0.8953618 0.20068575 -0.43976238 -0.26736015 0.050331663
1743 -0.0367666 0.59960407 -0.21384427 -0.4373296 -0.12058876 0.47877434 -0.6860725 0.37684378 -0.7593388 0.13473368 -0.17088233 -0.16964935 -0.13230383 -0.4502731 -0.047823336 -0.16679361 -0.094513215 0.22018325 -0.20187926 0.1187068 -0.43639567 -0.06547734 -0.58417445 0.028415404 -0.21370897 0.31886423 -0.1087184 0.28806928 0.34736362 -0.34902766 -0.09686693 -0.30064183 -0.6812693 0.38004562 -0.3629325 0.57285345 -0.22249049 0.012681397 0.120435625 -0.28352386 0.8556576 -0.7357953 -0.29398614 -0.009322808 -0.5883468 -0.57618564 0.1350471 0.108991176 -0.7804916 0.28166664 0.7887492 -0.019530145 -0.38639733 0.7599506 -0.17006959 0.5194195 0.16070354 -0.6846879 -0.56350976 0.5021616 0.023578143 -0.04311028 0.5284322 1.040691
526 0.006115533 0.16939686 -0.1863911 -0.59454143 -0.62115693 -0.11827266 -1.1814541 0.14516813 -0.6006273 -0.13625413 0.5589044 0.78686184 -0.44729495 0.058153626 -0.1274955 0.15553671 -0.17134799 -0.92608035 -0.46401596 -0.33163798 0.32710403 -0.26569393 0.08744782 -0.018036682 0.66921073 0.2821621 0.17709173 0.16746232 0.36762092 -0.3116816 0.41529727 -0.04084533 -0.09668796 -0.823632 0.1600909 0.13269949 -1.04573 -0.80044943 0.08224871 -0.58848137 -0.119546816 0.18945739 0.5015366 -0.2306877 -0.7261984 0.20272583 0.63541096 -0.16274942 -0.17925408 0.40745395 0.31067452 0.3762292 0.52084005 1.3246251 -0.6926495 0.28701735 -0.2785588 0.9101716 -0.2107967 -0.8505291 0.03205087 -0.12671934 -0.60900027 -0.17145541
74 -0.057039373 -0.096003376 -0.004599018 -0.29375783 -0.31988934 0.2697733 -0.08619438 1.1212888 0.23887776 -0.3479187 0.061600823 0.6570084 0.42197672 -0.3933267 0.2879309 0.0037311516 0.16943859 0.023480793 -0.31165072 0.35641283 -0.4214776 0.64166087 0.12899178 -0.30020082 -0.71736425 0.17852308 -0.11886355 -0.25943175 -0.059994325 -0.51999825 0.55540735 -0.012280059 -0.5065265 -0.24391009 0.035086393 -0.08247327 0.004733512 -0.22885211 -0.46708152 0.09437628 0.33288163 -0.5691803 -0.92665845 0.468839 -0.3167634 -0.45715308 0.6719432 0.2033494 -0.3665821 -0.434008 0.99793 0.37124655 0.74472666 0.13290577 -0.87578493 0.7183073 0.017598484 -0.5299674 -0.42261285 0.73479575 -0.1648515 0.6368053 -0.33473378 0.4097224
1016 0.14956796 -0.74706435 0.24658267 0.56090075 -0.5072336 -0.38401702 0.30907482 0.83264464 0.5050969 0.41223606 -0.09260502 -0.4362416 0.26542976 0.47259054 -0.6349253 0.04962275 -0.21614973 -0.84275734 0.03164578 0.35345095 -0.11447798 -0.08304033 -0.779047 1.1351751 -0.41572082 0.31269255 -0.81233615 0.02458607 -0.24631998 -0.38555542 -0.43859765 -1.0689025 0.9490631 -0.5358628 0.645295 0.13187659 -0.3632594 0.22790703 0.044922493 -0.32714137 0.29637262 -0.07660047 0.12743731 0.10764306 -0.87876105 -0.3420734 0.29214552 0.27550444 0.09877202 -0.9736316 -0.052001968 -0.41405207 -0.20342465 1.1224923 -0.43951792 0.040069677 -0.21823338 0.16419685 -0.3375508 -0.094100505 0.27314383 -0.29349118 -0.49411863 0.19797777
2131 0.12880442 0.41433424 0.7715807 0.21455018 0.068879224 0.21043788 -0.048335128 0.6723673 -0.8337702 -0.015090721 0.43976763 -1.0603166 0.74869365 0.44379866 0.7383864 0.53894264 0.22998045 -0.09947558 -0.18419617 0.70191514 0.5396283 0.19313139 0.20967063 1.5260948 0.56279135 0.7895902 -0.08886557 0.38838708 -0.46852896 0.13333859 -0.29682606 0.5645019 0.37547138 0.17743047 0.11877829 0.31352198 0.279212 -0.11391346 -0.0041286405 -0.8038727 -0.26870373 0.15904687 0.13100508 -0.49429584 -0.42784303 -0.83521 0.22620305 -0.30520192 -0.69490725 0.3799784 0.28135148 1.2518392 -0.34091917 0.9348334 -0.07091165 0.13080405 0.54344034 -0.16708979 -0.46104687 0.23344196 -0.5711238 -0.12023536 -0.642404 -0.1992789
1120 0.08834016 0.3330291 0.592118 -0.31195077 -1.1538502 0.7971551 -0.054298908 0.380609 -1.1011823 -0.15863724 1.4771159 -0.5675382 1.6771253 -0.33192936 0.1190426 0.07215761 -0.66860074 -0.68916637 -0.45090893 -0.32342795 0.51573324 1.0086834 1.0197965 0.555637 0.65444124 0.29648894 -0.3747487 0.19607201 -0.28720906 0.5557019 -0.55921894 0.38101527 -0.007328344 -0.024809342 -0.072414495 -0.1435034 0.885778 0.23768514 0.56664795 -1.4969201 -0.3285179 -0.8562019 -0.2967199 -0.46628484 -1.2434752 -0.9632465 -0.9093521 -0.7170438 0.07031654 0.6045191 -0.10516234 -0.028864399 0.42299187 0.4540001 0.00457711 0.27523607 -0.040006228 -0.9361655 -0.76697963 0.260153 0.28804877 0.105568685 -0.5245235 -0.21054962
1967 0.5967613 0.3209764 0.40386996 0.876816 -0.011733078 0.058362015 0.89965814 1.216199 -0.3941366 0.0020749571 0.6173009 -0.29972172 0.6721149 0.48128834 0.08531077 -0.5828861 0.01820042 -0.5074 0.20310353 0.59740263 0.935923 0.7214651 -0.4803778 0.3228024 -0.44987315 0.5843198 -0.1899144 -1.0392783 0.14850946 -0.42694464 0.38586167 -1.0113022 0.3962157 -0.066006765 0.05717361 0.08080484 -0.81859887 0.25676885 0.52569324 -0.5391535 0.6882904 -0.9152757 -0.8067305 0.32926685 0.15705311 -1.2539355 -0.36975542 0.47427812 -1.0991619 0.046454024 -0.30342752 0.7135077 0.33268437 0.57197016 0.3686881 0.2659149 0.63605136 0.19494112 0.23285176 -1.2069545 0.8018979 -0.4505265 -0.54306287 0.0143319005
2465 0.28118232 -0.3757434 0.8513817 -0.42786822 0.13802262 0.16334242 -0.7934539 0.9046461 -0.15953761 0.8843082 -0.075765714 -1.361011 0.20285751 -0.22623566 -0.52030426 0.8629787 -1.0018909 -0.34385222 0.41788885 0.3383463 0.4844529 0.01376609 -0.52884847 -0.8325529 -0.27216268 1.0351114 0.20272553 -0.60142946 1.1894257 0.9225774 0.53607076 -0.65180826 0.18962154 -0.5351343 -0.66792387 -0.079397164 0.27909747 -1.0279791 -0.5577008 0.052745175 0.1733628 -0.7613815 0.19926335 -0.065056354 -0.55472016 -1.0158206 0.20911956 -0.87026477 -0.16253749 -1.2611583 -0.6479551 0.8434964 1.5246029 1.0485694 -0.77950054 0.1272503 -0.5286921 -1.0806139 -0.6330146 0.09146799 1.2559303 -0.9681658 0.55027187 0.4972988
578 0.35406932 -0.3451042 0.54236645 -1.0922841 -1.9487556 -0.09237439 -0.38509896 -0.4005952 -1.5151695 -0.65562725 1.0520223 -0.2273028 1.3592503 -0.40772584 -0.63961715 0.2713469 -1.2792711 0.049039554 0.41025278 0.036642797 -0.11124598 -0.055657156 0.23623854 0.69165355 -0.28578612 0.76598 0.2684609 0.69416213 0.9607363 0.44046617 -0.51254165 0.01299184 0.4741746 0.015348545 -0.66097975 -0.8247186 -0.7721093 -0.48610187 0.4770417 0.03957559 -0.6380424 -0.29072604 0.857887 -0.8883742 -0.1852301 -1.2113138 -0.09711676 0.38673562 -0.66902286 0.0650068 -0.39417878 0.060507134 0.9024132 -0.15722308 0.5697266 -0.019117232 1.0521201 -0.9430227 -0.55070436 1.1716802 0.40997604 -0.2702747 -0.09589054 -0.40921342
520 0.15596277 -0.17777458 0.00744346 0.34459922 -0.40150064 0.46021074 0.3130923 0.27545932 -0.20035748 -0.28742674 -0.5569166 0.08572759 0.13977598 -0.17384256 -0.5236069 -0.14694452 -0.1160435 0.22230993 -0.41642192 0.19908361 0.2728915 -0.25400132 0.46015856 -0.010064671 -0.13318382 0.4699334 0.24637519 0.56969714 -0.1775198 0.18677984 0.36437744 -0.5708579 0.011551789 0.044652797 0.022873653 -0.22994992 -0.2971916 -0.06328349 0.47548634 -0.015162454 -0.48342416 -0.03456207 0.6167886 0.6569606 -0.45015255 -0.825184 -0.11562517 -0.49137455 -0.40736717 -0.6418799 0.23004353 0.3699833 -0.12958333 -0.15811087 0.15883721 0.0026897339 0.2515462 -0.2674219 -0.6322146 -0.21013732 0.01076016 -0.111166894 -0.96894604 0.3109637
1051 2.2380414 0.6835888 0.4859867 -0.84691256 0.26474333 -0.06845138 -0.0212842 0.4721176 0.5586894 -0.3367463 0.23609212 0.08425132 -0.09340434 0.06328212 0.5626968 -0.41835746 -0.5093223 0.08589024 -0.3371411 0.36348093 1.9174525 1.3736023 0.023702363 1.2854137 -1.5262469 1.1867713 -0.17003377 0.11012234 0.49348402 0.49401203 0.12817055 -0.432207 0.5065078 0.16355854 1.0630239 0.6432016 -0.06981363 -0.036614574 0.38104072 0.51066977 0.58844066 -0.82830113 -0.7607563 -1.4430509 -0.0030734052 -0.85001254 -0.23910351 -0.18758659 -1.4947261 -0.18330999 -0.56871635 1.2895212 0.6153378 0.42079848 0.012787694 1.0796541 0.09734201 0.63648236 0.44191432 -0.41471192 0.67365676 0.2762813 -0.66979766 0.3628493
351 0.30790043 -0.31401634 -0.017348928 0.44479483 -0.9442163 0.31178695 -0.18065499 -0.2698874 0.011260591 -0.79360855 -0.6746585 0.5490006 0.26895297 0.35500744 -0.6941909 0.03156315 0.0022384608 0.053162303 -1.0047728 0.26852453 0.8320618 -0.5565019 0.2642527 0.051112395 0.6354884 0.42334166 -0.8882272 0.38491616 -0.31430498 0.25148618 -0.3552306 -1.0789006 0.21082196 -0.59739524 -0.28836846 0.35967964 0.21815288 -0.34181336 -0.27589804 -0.016492514 0.32350528 0.2096282 0.39119735 0.37168372 0.06187735 -0.5070004 0.109236404 -0.29576698 -0.39833927 -0.66405374 -0.4952924 0.7087254 0.22772174 0.484839 -0.08246419 0.28971133 0.4848478 0.07889847 -0.5209684 0.1718952 -0.24486448 0.090525165 -0.25757277 0.9315315
2026 -0.5352504 0.26404905 -0.028534306 -0.8408171 -0.59880286 -0.3668872 -0.23872969 0.12908022 -0.048343156 -0.7021291 -0.7285422 0.0108081205 0.30048674 0.15840057 0.78786415 0.4985261 0.15444703 0.14179935 -0.46161896 0.17159392 0.40354502 0.08351745 -0.17511307 0.6126555 -0.8835024 0.05869876 -1.1381454 -0.08662126 0.21245751 -0.96388084 -0.2796609 -0.7172344 -0.14807832 -0.19512281 -0.36509687 0.09112433 -0.35350642 0.2942904 0.4371673 -0.01202003 0.02298845 0.4009837 0.22106285 0.5263927 -0.70972097 0.21763803 -0.5148348 -0.100511014 0.3483766 -0.053095628 0.14486404 0.81205267 0.46542034 -0.30833218 -0.30966276 0.048653923 -0.5061871 -1.0547312 -0.54554766 -0.84643036 -0.18069328 0.019243479 -0.7915273 -0.2603179
155 0.3430577 -0.35378405 0.053701226 -1.3476104 -0.1704163 -0.035316218 -0.4054255 0.4636909 -0.50172526 -0.6182175 -0.3007602 0.20784496 0.23400652 -0.0034800633 -0.60560733 -0.523837 -0.8761738 -0.08384356 -0.56233156 0.92858744 -0.6020006 0.3201819 0.3426138 -0.24181238 -0.35810786 -0.4780147 -0.74408376 0.1759381 -0.066504754 -0.3667738 0.057316996 -0.7938522 0.040255073 -0.19438961 -0.16912146 0.2824702 0.33389217 0.21883525 -0.13234046 0.1943165 0.58577013 -0.63646555 0.17043903 0.23108755 0.16068092 -0.5478088 0.5656485 0.58919305 0.050108243 0.115077324 0.73014504 0.45053357 0.016231712 0.024710024 -0.76044077 0.08011423 0.667946 -0.41467136 -0.36381555 0.31649038 -0.19961031 -0.07588965 0.12199594 0.01662857
566 0.008430986 0.0038922546 -0.7367665 0.14110057 -0.20851068 0.04718884 -0.25812504 0.5282675 -0.48817727 0.7984845 -0.40631074 -0.26419568 0.35932896 -0.7753657 0.07965511 0.31803402 0.13379003 -0.3786596 -0.28006753 1.0198941 -0.9077474 0.31547317 -0.27454698 -0.22062072 -0.6118376 -0.021542884 -0.8855966 0.79165465 0.57455486 -0.12577634 0.07389725 -0.8967459 -1.2695974 0.3252501 -0.551934 -0.4542627 -0.35333747 0.16238849 -0.52945346 0.34325078 0.7226387 -0.78587055 -0.62085986 0.31427765 -0.4050801 -1.4044921 0.67202073 -0.34560356 -0.9524375 0.7081923 0.06922196 0.3681177 -0.09849984 -0.36767188 -0.7646956 0.39679053 -0.26583874 -0.42755428 -0.015366293 0.10111417 -0.053268414 -0.30255327 -0.0030406907 0.81731004
1506 0.21157241 -0.36251658 -0.17519432 0.72908676 -0.8880089 0.14868763 0.5190145 0.19325721 0.08157397 -0.46260443 -0.36252326 0.64444685 0.020457597 0.09449831 0.057120077 0.45831615 -0.68562984 -0.540569 -0.49304596 -0.064018495 0.59163564 -0.080970444 -0.5356987 0.14144488 -0.8357523 -0.52912474 0.052136343 -0.024799692 -0.3477113 -0.12627429 0.14602622 -0.7859213 0.025232283 -0.59020996 0.28351122 0.41007242 -0.21248502 0.34306395 -1.1530052 -0.577625 0.2997761 0.41153044 0.53620356 0.0524311 -0.35093108 -0.7392656 -0.39321345 0.34793463 -0.37037537 0.31544432 -0.13721119 0.42535326 -0.4261793 0.27747548 -0.2455 0.23845594 0.2541737 -0.016203033 -0.40835354 -0.25719684 0.15941016 0.5518959 -0.17712404 0.76451856
1656 0.33086228 -0.056204133 -0.29636642 -0.27409065 0.25520954 -0.4880598 0.020626998 -0.23094288 -0.6061765 -0.11098722 -0.003783329 -0.25487486 0.65737534 0.4864407 1.2158203 -0.5148147 -0.18239912 0.300255 0.27059108 0.15662494 0.5883948 -0.4030863 -0.25842366 0.30175185 -0.77832025 0.70129395 -1.07414 0.5481748 -0.0010711045 -0.3798454 0.52401096 -0.2630723 -0.6881274 -0.35934702 0.10067471 -0.17328916 0.13330108 0.033415522 0.23447926 -0.20317456 -0.24297264 0.10697001 0.23853722 0.73371947 0.048847098 -0.2897245 0.09229375 -0.41104266 -0.070327245 0.38583457 -0.10499574 0.016431324 0.13902855 0.7766814 -0.4925554 0.10745319 -0.31033793 -0.56785995 -0.36997613 -0.7075523 -0.4960283 -0.3507565 0.09663304 -0.14141333
95 0.25875458 -0.897521 0.7309938 0.6318324 -0.47980335 -0.4358463 -0.2832196 0.8553441 -0.048956297 -0.23202108 0.032319434 -0.0012219239 0.43968302 0.6000747 0.6895111 -0.43936995 -0.23142587 -0.78928524 0.1823879 0.24654727 0.13705899 0.4389668 -1.0441508 0.8713413 -0.48934102 0.4612935 -0.059940398 0.13290884 0.29895586 -0.55333817 -0.10738449 -0.42253476 0.09679037 -0.37801448 0.5567327 -0.59405077 -0.30112463 0.6739696 -0.09952711 -0.18539889 0.08264438 -0.19895875 -1.2371283 0.18161146 0.10681557 -1.2386523 0.21441394 -0.2115812 -0.30041847 0.37984496 -0.15136397 0.6808439 0.46406707 0.42660415 0.6291228 0.3988503 0.079326585 -0.026091922 -0.14834699 -0.60069686 0.4367899 -1.6326207 -0.6868916 -0.21750876
2239 0.8695156 0.32830495 0.30608374 -0.054313265 -0.23536713 0.043595415 0.0746938 1.0245752 -0.34299916 0.50680006 0.21569754 -0.1570613 0.29331318 0.01065339 0.5419414 0.48600066 -0.44291332 -0.7713134 -0.068197146 0.19100565 0.7693954 0.26627728 0.2941695 0.33005163 0.14938335 0.53532934 -0.51011413 -1.3002344 0.13820559 0.056828674 -0.26234776 -0.30048192 0.28532413 -0.7826118 -0.20906556 -0.14672844 -0.47696033 -0.47024438 -0.34482548 -0.042036794 0.28349736 -0.881378 -0.22937837 0.74022824 -0.957355 -1.3424124 -0.94021136 0.79555696 -0.15229654 -1.0106906 -0.31846112 0.3934441 0.094804436 0.21184702 -0.06586702 -0.109613016 0.47842845 0.30498934 -0.08837409 -0.5148834 0.48050556 0.08279934 -0.006397773 -0.048476715
56 0.53498656 1.0006099 -0.10944508 -0.2364287 -0.5149984 0.5127977 -0.53241295 -0.19702587 -0.6601364 0.25721914 -0.06319377 0.059814595 0.23531348 0.17695652 0.06216115 -0.5883072 0.4457849 -0.46653894 0.5897533 0.30610362 0.20049237 -0.83269083 -0.5373187 0.27711156 -0.43269777 -0.07188418 -0.13031161 0.6822583 -0.5713392 -0.26832247 -0.25954443 -0.42493242 0.22026454 -0.3119143 -0.5981009 0.10152946 0.029650211 -0.22750114 -0.073656246 -0.48308092 -0.7339564 -0.09156846 0.03907467 -0.73194015 0.048655264 0.07504245 -0.07870002 0.4974358 -0.396311 0.13107498 0.4369427 0.66518384 0.44348493 0.60444754 0.08697973 1.2919112 0.176211 0.1447752 -0.21374512 -0.7864221 0.9563213 -0.2733995 -0.72026074 -0.24956408
658 -0.46423125 -0.08542359 0.36794564 -0.18037973 -0.87222606 -0.13328171 -0.31374976 0.5298202 -0.63503593 0.83804566 0.21636607 0.48342827 0.6707602 -1.2517785 0.6467752 0.059266027 0.42698202 -0.62432796 -1.2824062 0.60830283 -0.5238347 0.5381082 0.4017694 -0.04634132 -0.4123911 -0.55632913 -0.8704622 0.28303763 -0.11400946 0.38117975 0.18885535 -0.800299 -0.18411814 0.16598883 -0.03242999 0.5644445 -0.08100645 0.41652438 -0.6488681 0.092174865 0.41180652 -0.55340564 0.40017948 0.33180758 0.1434121 -0.89794594 0.95275307 0.2876638 -0.42354223 0.8400368 0.20471077 -0.19104293 0.5963669 0.10557712 -0.019053461 0.12802267 -0.33731684 0.49100336 -0.87304646 -0.387693 0.12074726 -0.1046804 0.30731288 1.4529545
365 1.1727136 -0.54700434 0.21242371 -0.7555188 -0.09438117 0.15954828 -0.52982825 1.3042777 -0.7207272 -0.9308515 0.21583092 0.14117272 0.20290667 0.13378729 -0.022474078 -0.20062536 -0.82307404 -0.5843531 -1.0906453 0.4200033 -0.4727605 -0.28230092 -0.11618008 -0.19834875 -0.5022982 -0.43020818 -0.96160895 0.51595664 -0.407491 -0.21807623 0.4941019 0.11965603 -0.31118214 0.05942806 -0.34643403 -0.15616627 0.13564898 -0.35967234 -0.074834466 -0.0028272339 0.5589645 -0.5681474 0.0128227845 0.25630575 0.11156248 -0.8364953 0.53693366 0.8144608 0.15745007 0.27034387 0.9676157 0.12902014 -0.04732531 -0.16623558 -0.84312534 0.33143362 0.62393343 -0.24163532 -0.56741387 0.7115697 -0.30826756 -0.25925297 0.09978765 -0.041192275
2360 0.35633406 0.1023119 -0.48725435 0.1368423 -0.614722 0.25996593 -0.5871919 0.6297195 0.48618472 -0.30762357 0.3285005 0.8059543 0.8185773 -0.8222002 -0.06146477 -0.13346627 0.49686733 -0.008472016 0.077085495 0.19453001 -0.12258317 0.43952215 0.3180974 0.33285806 -0.48451197 0.49471498 -0.05275237 -0.265857 -0.12103794 0.21425742 0.50087035 -0.70507264 -0.7663946 -0.08792822 0.061229795 -0.146141 -0.31205595 0.26331395 -0.4890104 -0.07486834 0.21080574 -0.104215674 -0.72086406 0.43143752 0.04585739 -0.35588974 0.22167324 0.057895344 0.2656949 -0.25010183 1.2632138 1.0045326 0.14653355 0.037916824 -0.94784635 0.6253782 -0.2035812 -0.9180159 0.13757147 0.5475875 -0.049021456 0.32134634 -0.4201295 0.6518322
219 0.69136786 0.17097904 0.42082325 -0.053667385 -0.74827397 -0.43756473 -0.054078285 -0.43547076 -0.4488407 -0.3848787 0.24817139 -0.062427383 0.18920268 -0.3047181 0.37358224 -0.06332727 0.13213842 -0.19119352 -0.4463867 0.04322292 0.30667758 -0.632124 -0.13581224 0.20562434 0.7272758 0.10924129 0.11034141 0.13771081 -0.17859243 -0.60437274 -0.54619056 0.26830947 0.4634472 -0.16862427 -0.110958025 0.57405436 -0.049734708 -0.19830137 -0.18284506 0.5818759 0.19906254 -0.72991306 -0.91599256 0.16616563 -0.64212936 -0.5816251 -0.62743974 -0.948664 -0.515088 -0.10269491 -0.3808495 -0.15815148 0.30886564 -0.055417854 -0.7598146 0.3864397 0.15528345 -0.5658865 -0.7664453 0.4842268 -0.047101583 -1.0318786 -0.4720243 0.24111904
455 -0.20491976 0.75323915 -0.33633018 -0.12688413 -0.47315443 -0.4448061 0.4420342 0.14816524 0.046952575 -0.67693025 -0.16785246 0.82518774 -0.23979084 0.497685 -0.34102732 -0.0041435235 -0.84297216 -0.44477215 0.42529288 0.04825994 0.4064911 0.3160583 -0.6161762 0.08351747 -0.09483074 -0.46099168 -0.0989865 0.73186946 -0.2338241 0.070056446 -0.013396304 -0.2861418 0.9851478 0.22376195 -0.43580687 -0.48067763 -0.64507854 -0.028904373 -0.39854068 -0.20828557 0.24866079 -0.6371927 0.6719253 0.57415843 0.11256195 -0.20746078 0.48689023 0.3620288 -0.088698246 -0.023521174 -0.40632218 0.2691127 0.29589736 -0.13668764 -0.1306309 1.0121635 -0.40836722 -0.103384435 -0.4954249 -0.20656285 0.35708663 -1.1256641 -0.51696646 -0.17370307
1172 0.43042418 -0.15310775 -0.52303886 -0.2615396 -0.56646895 0.4018969 -0.33810952 -0.016275477 0.28172073 -0.53284156 0.009106316 0.5999193 0.6304573 -0.6338549 -0.14045379 -0.33634284 0.2947842 -0.61296475 0.094405375 -0.09154065 0.59013265 -0.08196851 0.023318194 0.20792235 -0.5389909 0.5643295 0.6622283 0.055437934 0.12197676 0.2029699 0.12881519 -0.9905884 -0.3349618 0.3029518 0.47051293 -0.3386999 0.106869064 0.59168774 -0.01960086 -0.049323753 0.11579706 0.3392321 -0.5369898 0.07541109 0.3282055 -0.55809855 -0.41742113 0.125723 0.44410166 0.42311177 0.46602565 0.6403014 0.14880621 -0.3468707 -1.0419735 -0.43442088 -0.04976823 -1.1700112 -0.16111891 0.05684909 0.17641583 -0.20239729 -0.70423454 0.30769518
488 -0.20581986 -0.609108 -0.04878324 -0.091376245 -0.85406274 0.35336277 -0.12824877 0.88025224 0.30376306 -0.5437302 -0.9438616 0.5002213 0.32025868 0.30128554 0.11536831 0.13460852 -0.14449151 -0.33004728 -0.49745 0.03810932 0.032687955 0.16454254 -0.21303642 0.12958118 0.081170745 0.43588358 -0.61257017 0.16673504 -0.47573864 0.08607071 0.29816234 -0.55222523 0.07369328 -0.72810185 -0.47235692 0.2679942 0.28462517 -0.42466262 0.12485169 0.04787148 0.3693737 0.32123393 0.3845754 -0.24813665 -0.034010354 0.31539968 -0.044258565 -0.43864596 -0.43682766 -0.4599293 -0.5114531 0.49904376 0.10408743 -0.2481427 -0.24488758 0.53075224 -0.21375582 0.07469555 -1.3627334 0.32764468 0.27067152 0.13266173 -0.6145 0.41284943
506 0.45258838 0.36638337 0.5311308 0.11038167 -0.7311416 0.45677924 -0.14150138 0.66529655 -0.23885603 -0.7392161 -0.30252254 0.07361756 0.4743603 0.66918397 -0.38804185 -0.7051439 -0.015633995 -0.112170234 -0.54424924 -0.12711962 0.17939582 -0.43685213 0.055107452 0.39569947 0.8577629 0.5893855 -0.8197929 0.61710376 -0.16872002 0.07902415 -0.0874679 -0.80698735 0.9424157 0.010299101 -0.22530888 -0.5426246 -0.17654048 -0.45940518 0.1363755 0.07329995 0.80093944 0.39941013 -0.08925458 0.050875776 -0.10143719 0.023249833 0.3754348 -0.14873208 -0.5286174 -0.4429551 -0.2715903 -0.15065607 0.41092098 0.103104174 -1.3461155 -0.27357116 0.55917156 0.2503602 -0.06764076 0.0022869385 -0.40439618 0.13689868 0.11661055 0.94765484
442 0.03606446 0.43407264 -0.31097722 -0.17521791 -0.6640825 0.16659412 -0.10865278 -0.1756244 -1.2630156 -0.52194345 -0.8583458 0.011167829 -0.21383461 0.6200198 -0.20793562 0.41818407 -0.35606143 0.084950306 -0.2870383 0.30138022 0.97891855 0.76891243 -0.6434689 -0.06269962 -0.5330685 0.36290956 -0.20409869 0.57301265 -0.43037754 -0.43262798 -0.09154281 -0.35451782 1.212527 0.5989787 0.19860053 0.08573243 -0.862686 -0.13801761 -0.40298012 -0.217101 0.9859313 -0.7768471 1.361006 0.19812104 0.17382741 -0.0130817015 0.83774954 0.6464337 0.6613219 -0.471993 -0.4274452 0.44392392 0.89503545 -0.36159977 -0.09262099 0.5452979 -0.0358256 -0.45657828 -0.048736222 0.08317237 -0.2438573 -0.24480581 -0.8327201 -0.120581366
834 -1.0286888 0.80713296 0.3255436 -1.0387106 -0.090381466 0.81638443 -1.1417973 0.80367327 0.40993777 -1.283708 0.06777595 0.23625274 0.5011875 -0.07834997 0.86333495 1.0315303 0.09545105 0.36256865 0.5600619 0.16896693 0.51379 -0.8862121 0.45268586 -0.32700086 0.8915084 0.22202446 0.5053689 0.55100673 -0.16125466 0.96045846 0.86128575 -0.3369583 0.16402254 0.84166574 -0.69329745 1.2101929 0.07200724 0.0442077 -0.8489563 -0.5837923 0.30382535 -1.4833516 0.5217814 -0.16267656 -1.044802 -1.9799359 1.0397171 0.29634836 -0.31913912 -0.23049867 -0.6733363 0.78681344 -0.05904464 0.015679602 -1.1337583 0.70727074 0.39272377 0.88362646 0.5037455 -0.7183199 0.22053221 -0.92034024 0.14377211 0.56499624
735 -0.10514774 -0.5284743 -0.087562725 -0.16644168 -0.32138637 -0.27584785 -0.9294615 -0.076725446 -0.6742097 0.13400553 1.2825123 0.66260016 -0.44298422 -0.15055075 -0.48377192 0.4738408 -0.91900986 -0.7106374 -0.40945956 -0.108397245 0.80336976 -0.78222364 0.35181636 0.61038816 0.07926013 0.2087778 -0.38866937 0.244589 -0.17900029 -0.76900935 0.37109196 -0.5376306 -0.5560815 -0.5037272 0.7834306 0.26491475 -0.92647076 0.7576568 -0.335299 -0.29525113 0.16200931 0.08700417 0.12062207 -0.08161557 -0.3158213 -0.122861385 1.3294029 -0.19508873 0.044920318 0.7822206 -0.37040305 0.084236234 0.38785163 0.49066156 -0.7932294 1.3869405 0.26472482 0.11544395 -0.5065862 -1.121602 -0.7401119 -0.23838206 -0.75103146 0.0934098
2452 0.76117307 -0.41262785 0.6643091 -0.3054403 -1.2300003 0.45625108 0.20076425 0.8984967 -0.19312388 -0.19275108 0.10776944 -0.26837552 -0.0018494147 -0.57993066 -0.5622816 -0.084949985 0.24873209 -0.53694206 -0.48718658 0.82339275 -0.14389654 0.16764641 0.3559088 -0.079260096 -0.88196254 0.12934278 -0.12173714 0.5742767 -0.91476446 -0.4077984 -0.5190757 0.18594845 -0.55418265 -0.7849041 -0.3249731 0.14669645 0.022159617 0.37355274 -0.49892417 0.16607815 0.79113847 -0.40405327 0.3884102 0.68532306 -0.38016555 -0.8411409 0.42311808 -0.21044119 -0.63157964 0.47941145 0.27110252 -0.61269546 0.41474012 0.14766113 -0.8851487 -0.14897558 -0.40270773 0.39195737 -0.26628923 -0.07437801 -0.13450329 0.5222576 0.93241316 0.8046519
749 0.6576304 -0.18577072 -0.45326635 -0.6450396 0.08909783 0.46680275 -0.18564548 0.46676195 -0.53558433 -0.5874543 -0.6077819 0.059565146 0.12792112 -0.23250681 -0.13875064 -0.32713604 -0.16613486 -0.46646962 -0.20455506 0.85767806 -0.80326194 -0.23469962 0.006027697 -0.57293624 -0.18016498 -0.0061560827 -0.2557103 0.44544205 0.49790204 0.052800644 -0.11729456 -0.26793635 0.8869482 0.26065734 0.6457633 0.4422623 0.2154793 -0.02060321 -0.45084986 -0.07678146 0.23507717 -0.3552424 0.07929595 -0.20077114 -0.17616105 -0.22119509 0.3598878 0.13445173 -0.08844551 0.6009903 0.32316625 0.23865736 0.49849266 0.3965151 -0.93880093 0.4589603 0.15401112 -0.39879608 -0.19127333 0.107226685 -0.07084998 -0.16540898 0.40376878 0.5536891
280 -0.5047079 0.15234958 0.019333534 -0.33451068 0.060098726 -0.31410533 0.45758057 -0.3453779 -0.13869314 -0.6054573 0.52021384 0.4126129 0.4895442 -0.062158216 0.7474311 -0.65558374 -0.28888744 -0.041750547 -0.018637296 0.6337687 0.98472494 -0.39255732 1.0047463 0.45215023 0.0669985 0.4039308 -0.2982879 -0.026686521 0.33901227 -0.42666328 -0.709386 -1.5193509 -0.4334622 -0.010382623 -0.045235265 -0.19297615 0.05942428 -0.73014295 0.014011108 0.35769957 0.14238247 -0.1630506 0.86516935 -0.14185125 -0.36442402 -0.46749905 0.18443772 -0.50479096 0.48621687 0.13701938 0.28369433 0.2722265 0.061908167 0.4238925 -0.8851764 -0.8029781 -0.21470197 -0.4503445 -1.5154182 -0.34684193 1.2935865 -0.19258052 0.63100266 -0.22672014
1777 0.6661719 -0.18385628 -0.09602005 -0.16364828 -0.32982102 0.24976313 0.13300423 0.6382851 -0.22476459 -0.6857941 -0.3925448 0.48980197 0.26546764 0.070085764 -0.15291648 -0.04789256 -0.13836084 0.27109638 0.07048911 -0.19432409 -0.051622074 0.123105355 0.27648515 -0.2888752 0.5408603 0.49463373 -0.2995937 0.88487077 -0.19016618 -0.6829141 -0.08274659 0.031171836 -0.64344543 -0.23786041 0.038100183 -0.2222951 0.3290666 -0.328175 -0.033765633 0.058352403 0.61294746 -1.0713794 0.25978354 0.51630056 0.15339467 0.13817738 0.3443055 -0.49949312 -0.6479876 -0.44521168 -0.08522967 0.45902446 0.21259142 -0.11127763 -0.022703495 0.06458777 -0.361963 -0.07272647 -1.0821359 -0.3123773 0.323889 0.7827926 -0.7708684 0.95160234
317 0.51193655 0.10781961 0.4420747 -0.57192695 -0.8570951 0.042983185 0.3950377 -0.184869 -0.13250282 0.21843202 0.061595127 -0.045503404 0.5923402 -0.34287736 0.2929279 -0.6829731 0.44249904 0.03224537 -0.19316816 0.987929 0.014355024 -0.8387642 0.37835613 -0.084725514 0.2069957 1.062296 -0.2994813 0.3747626 -0.6032867 -0.19044209 0.7935943 -0.11714572 0.26893336 0.59229475 0.23614697 -0.2838269 -0.62661886 0.061086606 -0.21364482 0.14824292 0.20273516 0.72824025 -0.11777988 0.010684738 -1.525977 -0.36171377 -0.26852074 -0.09927035 -0.19037117 -0.47298735 0.3920569 0.5595061 0.040108323 0.14924775 -0.09858518 -0.17711551 0.20979565 -0.404896 0.31349963 -0.3694143 -0.51649326 -1.1120597 -0.69893056 0.5112988
66 0.4563242 0.14207119 -0.124411315 -0.4482237 -0.35888958 0.72742337 -1.0601016 -0.39465207 -0.078445345 -0.09697604 0.006535892 0.25202352 -0.105751954 0.17828083 -0.20673032 -0.10950432 0.48826903 -0.6378081 0.16564216 -0.23548011 -0.23362511 -0.0075492975 -0.41808456 0.6464744 -0.31895915 -0.5629799 0.23942564 0.73303676 -0.050360553 -0.70274395 0.053978935 -1.0464356 -0.3234441 -0.3420465 -0.49363416 0.18231273 0.2033203 -0.5163711 -0.07455713 0.08742889 -0.24579792 -0.43603545 -0.103664674 0.34951913 -0.5484035 -0.028940568 0.24624754 0.88719815 -0.30702987 -0.14224991 -0.2263476 0.9452518 0.33576205 1.2041937 0.031267572 0.50777346 -0.08935325 -0.09529403 -0.5109657 -1.7170206 0.4445188 -0.4462044 -0.14891073 -0.39934775
736 -0.8190249 0.5698067 0.1800338 -0.0649004 -0.82231194 -0.8210181 -1.4217783 -0.10058768 -0.70627373 -0.97540325 -0.08191875 0.47507286 0.3182695 0.7924997 -0.47256184 1.3044566 0.6082208 -0.9527483 0.74615115 0.6718728 1.7237011 1.1732074 -0.1778366 -0.19605885 -0.62578565 1.5991378 -0.040660806 0.037175182 -0.27037132 0.49009615 0.2566871 -0.5357963 -0.14188032 0.41258097 0.058113363 -1.2073474 0.05495768 0.865824 -0.64880735 -0.08859914 1.1015834 -0.117857985 0.966217 0.056977313 -0.88366234 0.6958106 -0.036951907 0.25318062 0.36482456 0.49553943 0.010430525 0.09127807 0.68780005 -0.7015474 -1.0847263 0.72720027 0.5947085 -0.17271979 -0.7703589 0.4506635 -0.08683198 -0.96130645 -0.006426042 0.8984979
2451 0.739837 0.47616184 -0.15353245 -0.28669578 -0.35319993 -0.59304714 -0.1864849 0.16365752 0.057240415 -0.114581 -0.4180212 0.090602346 0.1938956 0.17767194 0.011215695 0.52094316 0.10720357 -0.50688404 0.26618025 0.6302127 -0.22032212 -0.18387572 -0.30791065 0.07207079 -0.040314704 0.24049743 -0.4929132 0.8154455 -0.5380318 -0.9519681 0.055438086 -0.044111528 -0.01983566 -0.20217443 0.30104226 -0.91923976 0.2199547 -1.4110389 0.15101917 -0.30856577 0.78877 -0.7180874 0.55826813 -0.64685893 0.0018601179 -0.10656808 0.8715774 0.60146934 -0.54345113 0.39102367 0.76639915 1.0667344 0.63645715 -0.2735637 0.3056671 -0.07033464 0.21784976 -0.27623713 -0.41105622 -0.18123807 -0.044820804 0.18281323 0.61636925 1.203903
2161 0.8165013 -0.22130789 -0.010959986 -1.2972653 0.09388234 -0.24401413 -0.12898412 0.5344249 -0.8622243 1.1845381 0.8587292 -1.5371042 -0.8332004 0.5317772 -0.4948425 -0.75620526 -0.9391226 -0.40132695 -0.16154979 -0.34450448 1.6725788 0.30539274 0.816468 1.5397856 -0.20253344 -0.48358077 -0.14058249 0.44010648 0.017939055 1.033944 0.51557934 -0.5747683 0.06239341 0.18530414 0.9441623 1.3643404 -0.37217003 -0.25953686 1.5717243 -0.0830232 0.23679373 -1.1902515 0.5718967 0.04767691 -0.3799954 -0.45387834 0.05465894 -0.31112227 -0.7334053 -1.1056457 -0.0048786374 0.16371152 0.9670004 -1.4641069 -2.4539905 0.92592216 0.38785353 -0.853743 -0.86679906 -0.2613944 0.2059318 0.09349577 0.40345374 1.4157776
1318 1.0761178 -0.47366196 -0.48287374 -1.0098206 -0.5600919 -0.022792293 -0.18013647 1.1193372 -0.9800914 -1.2145134 -0.20544614 0.037676793 -0.0038273095 0.25394925 -0.4511118 -0.33578473 -0.57656413 0.09274905 -0.4943134 0.7001259 -0.1199049 -0.33144316 0.74785644 -0.29877856 -0.5702255 0.57529 -0.2987127 -0.08907278 0.47727597 0.24850067 0.19273242 -0.29445055 -0.37962013 -0.021457398 0.4418731 0.393269 -0.14450277 0.10890044 -0.12637573 -0.23913135 0.42407802 -0.8447444 -0.57687205 -0.07297219 0.35518128 -0.28494957 0.4254026 0.13111943 0.26552886 -0.058977176 1.5354518 0.31586948 -0.3366925 0.12044222 -0.09813505 0.4701409 -0.26519164 -0.56812096 -1.0375549 0.4942462 -0.05426255 -0.33120298 0.36192936 0.16764297
1955 -0.33064452 1.2296885 -0.03993143 -0.6282966 -1.1336869 0.32556045 -0.42529124 0.275604 -0.6522669 0.11505804 -0.39056897 0.6499975 0.11648884 0.2550763 0.06621372 0.06842698 0.60527945 -0.2774408 0.07765485 0.52240586 1.8963529 0.957871 -0.5465639 -0.30255798 -0.6593142 -0.012244315 -0.048981406 0.0033026007 0.121802256 0.6750715 0.7064299 0.33794957 -0.2234716 -0.2731415 0.7543756 -0.1954573 0.68013036 0.40201092 0.073828734 0.2315648 0.9192405 0.21145815 0.12557355 0.40258238 -0.13641714 0.3019376 0.21198708 0.19834979 -0.61716837 0.29864463 -0.3648694 0.52836776 0.39079592 -0.63401586 -0.21698655 0.2595122 0.25173092 -0.5939494 -1.469048 0.41696122 0.009100963 -0.905328 0.4755013 -0.42283025
1352 0.7666955 0.35243887 -0.04912959 0.10063758 -0.39730853 0.8136133 -0.204611 0.507067 0.5048639 0.39805338 0.29620913 0.2893697 0.27407387 0.17814866 0.88888973 -0.66936857 -0.19362964 0.32297367 0.13658713 -0.10277742 0.7067788 -0.6771261 -0.19764422 0.11089861 -0.7340194 0.55123746 -0.3193766 0.34457555 0.48755157 0.85416657 -0.004453249 -0.74805075 0.5766913 0.1265593 0.5760555 -1.2182823 -0.829084 0.106165975 -0.35185218 0.31128514 -0.55684984 -0.62349933 0.3813565 1.0200799 -0.30809867 0.036628656 1.2634786 -0.26749027 -0.41846028 0.7418656 0.051839076 0.44570962 -0.037560843 0.6939405 0.04814304 0.70543796 -0.4895312 -0.4203728 -0.60705256 -0.56633353 -0.16794151 -0.20615381 0.3334851 -0.13832149
1953 -1.3082378 -0.5271483 -0.05859495 -0.84535813 -1.4520544 0.73388267 -0.5042793 1.0079504 -0.8918209 -0.33846873 0.42228204 -0.62549835 0.29127842 -0.81511796 0.5727712 -0.08497262 0.39083517 0.7924679 0.49291646 0.3743466 0.52561134 -0.72434187 -0.09211833 1.2081393 -0.27224818 0.37101516 -1.0295494 -0.29569173 -0.823134 0.57090724 0.32616448 -0.58211774 -0.42153463 0.23132385 0.6691579 0.027411621 0.9512228 -0.10656745 -0.38195848 -0.5333214 -0.5189018 -0.60491186 -0.42293486 0.50735164 -0.7325245 -0.4769699 0.8457179 -0.3811366 0.3998254 -0.282619 -0.43301678 1.1800938 -0.701416 0.63238984 -0.8156702 0.76149994 0.85799366 0.12856583 -0.068180926 -0.68569934 0.98389494 0.25087932 -0.5245474 0.19363706
237 0.36258638 -0.062372625 -0.19430815 0.44906792 -0.4368823 0.5551776 0.15589355 0.5649764 0.00085114513 -0.44898656 -0.4540438 0.6010866 -0.046096012 0.013276783 -0.1283261 -0.05494024 -0.19260693 0.363488 -0.22495086 0.105863824 0.10959973 -0.398375 -0.063805304 0.039329562 0.018514251 0.4050187 -0.3841273 0.57010615 -0.37393278 -0.014305098 -0.2849312 -0.5996352 -0.37373742 -0.056199703 -0.054272465 0.23704425 0.31295326 -0.5890557 -0.15509588 0.28096223 0.30334696 -0.18290974 0.6489755 0.711033 0.101378284 -0.728258 0.3104821 -0.3588406 -0.44453794 0.1780419 -0.21658222 0.52452517 0.22512724 -0.46246094 0.0418255 0.21412528 -0.31711814 0.3389347 -1.012566 -0.23287551 0.28459454 0.51757616 -0.9374274 0.80032957
757 0.09783144 -0.61011595 -1.212593 -0.21026668 -1.071325 0.281633 -0.26663098 0.9264952 -0.23401825 -0.47805974 0.19768395 0.6475786 0.60627156 0.4837422 0.26240557 0.5555056 0.14870086 0.012760987 -0.119344026 1.0966096 1.3931534 -0.18421373 -0.17725202 0.6796044 -0.64130044 -0.49127537 -0.42429832 0.24240305 -0.5562331 -0.06335481 0.17328665 0.083186746 -0.49522436 -0.738225 -0.7712837 0.3742628 -0.34431764 -0.008359709 0.6520641 0.8200619 -0.35772574 -0.45010033 0.25423688 -0.56786484 -1.073139 0.35771167 -0.58470523 0.42627534 -1.1955097 0.56416595 0.78212744 -0.12692517 0.8493772 0.26031652 0.09596416 0.30414775 -1.1062691 0.83859825 -0.6987557 -0.48149046 0.7576431 -0.4611493 -0.6242477 -0.8532519
211 0.9779798 1.1333902 -0.03230517 -0.43819943 -0.4867159 0.11810967 0.3909114 0.37759417 -0.51007843 -0.09031023 0.06150296 0.15234724 0.61864185 0.7352262 0.67645043 -0.46500173 0.327967 -0.64961135 1.040019 0.05494014 0.5879903 -0.94538397 -0.42303425 -0.04106642 -0.44319057 0.38916454 -0.2250174 0.0705219 -0.26208195 0.32709768 -0.48761573 -0.30673218 0.28057244 0.10877761 -0.38911304 -0.059777368 0.012048098 -0.065604836 -0.0060010334 -1.0153745 -0.582655 -0.46071166 0.042638425 -0.036282603 0.21189997 -0.08025455 0.15535842 0.039040465 -0.18270878 0.20614739 0.07164707 0.5594965 0.3521912 0.17183995 -0.09847638 0.58215547 0.22669333 0.2524682 0.052571163 -0.99648046 0.83844215 -0.03334219 -0.59462917 0.18955344
2123 0.6058271 -0.051711436 0.15457533 -0.2457986 -0.74880224 0.5704266 -0.15660185 0.9786273 -0.78861487 0.17171076 0.44282374 0.16398849 0.3227725 0.56946516 0.85896856 0.4568339 0.688565 -0.20727105 0.43866912 -0.013643748 0.12802081 -0.6274927 -0.26034254 0.53856987 0.30833584 -0.41496947 -0.7415878 -0.34090328 -0.27016336 0.15304297 -0.010208357 -0.7337612 0.11104524 -0.53539395 0.19841905 0.26147938 -0.8353306 -0.38994995 -0.8301603 -0.04954348 -0.054674983 -0.8776249 0.2560846 -0.4538607 -0.80886614 -0.5019172 -0.8020445 0.20257126 0.31784433 -0.7335479 -0.61692834 0.26229158 -0.67595977 0.013039385 -0.0021114033 0.22024514 0.37889752 -0.3835124 -0.6136301 0.03794776 -1.065906 -0.078911096 0.33145258 -0.30292857
1584 -0.3040564 0.24988313 -0.30851147 -0.7790076 -0.1099363 0.1145347 0.12077545 -0.106299475 0.6527575 -0.45048025 -0.46591398 0.0650525 0.34159324 0.53520435 0.4881949 0.22287776 -0.3618728 -0.49868804 -0.6845578 0.25800157 0.01684813 -0.25758407 -0.24913624 -0.062483095 -0.75532985 0.037721567 -0.59331316 -0.33989313 0.23038091 -0.4091576 0.28573948 0.050623123 0.03803065 -0.22160959 -0.15235707 -0.05230473 -0.3735542 0.44483986 0.13255608 -0.010848958 0.11741291 0.024384694 0.72881883 0.3395559 -0.68486845 -0.63033867 0.04203618 -0.39011583 0.45697716 -0.24181277 0.003046293 0.6534758 0.37481025 -0.3905773 -0.11658657 -0.15898757 -0.51206213 -0.6635993 -0.61702603 -1.1173743 -0.022828525 -0.3158808 -0.7244147 -0.013743618
1903 0.4051587 0.49555 0.059994373 -0.23484823 -0.20377697 1.1640818 0.044819135 0.0846356 -0.57903224 -0.5521859 1.5040209 0.16264743 -0.21966864 1.1487377 0.0760556 0.4063361 0.5650089 -0.53627336 0.23275101 1.3504244 0.12227678 0.12455244 -0.14893918 -0.30736664 -0.012818422 -0.4470925 -1.2433747 -0.1307929 -0.2284157 -0.42285845 1.327402 -1.1193682 0.07055777 -0.46161088 0.468601 -0.3200976 0.102901414 -0.05027772 -0.030646008 -0.53348017 0.3617405 -0.17769988 0.7968042 1.1306213 0.18909472 -0.43505168 0.4690613 0.29425597 -0.81561345 -0.033074956 -0.12615749 0.16447914 0.3993734 -0.7090428 -0.581322 -0.04420076 -0.8045251 -0.11944659 0.059995215 1.2996039 0.77701986 0.11326282 -0.2796802 0.42031026
2084 0.72539204 -0.1200751 0.23055229 -0.4661358 -0.10262402 0.70132226 0.40269184 1.0368448 -0.11668849 -0.37852037 0.1273128 -0.27894542 0.35972357 0.5044516 -0.82100934 -0.72713774 0.32215834 0.058218613 -0.2587882 0.5532391 -0.40784135 0.2773726 0.3742664 0.92945457 0.03271494 -0.1459447 -0.07269415 0.6860315 -0.23890245 -0.43130043 -0.15199035 -0.08964096 -0.25078472 -0.40312523 -0.35987478 -0.37480792 -0.35713825 -0.37970698 -0.31633702 -0.37083974 1.1137419 -0.18602785 0.1396063 -0.18480782 -0.3626812 -0.40268278 1.0485554 0.25905603 -0.6290731 0.08577561 0.28658414 -0.24803619 0.86107564 -0.14614342 -0.9889832 -0.26928142 0.291539 -0.32164297 0.010775535 -0.34373358 -0.45485893 0.017531352 0.64833295 1.1612836
1155 0.051639672 0.64047915 0.20112616 -0.9046417 -0.12595068 0.422921 -0.3730631 0.8273326 -0.7171389 0.13221194 0.10828193 0.10924242 0.062073477 -0.58907974 -0.10130012 -0.16902511 0.15917334 0.14184222 -0.33582282 0.37710407 -0.64189833 -0.050507087 -0.28048083 0.26650208 -0.079445876 -0.025695626 -0.08346663 0.16821048 0.39156103 0.031281695 0.25449082 -0.3261614 -0.7734844 -0.30642888 -0.17135382 0.26959392 -0.22443113 0.0027236461 -0.15192816 -0.3508224 0.8160798 -0.57251984 -0.17969102 -0.3433592 -0.1411161 -0.6491751 0.7381316 0.80467224 0.07651527 0.08660724 0.7026083 -0.29639727 0.13315183 0.6126905 -0.3226289 0.3919558 0.22744884 -0.26605913 -0.8093692 0.16362163 0.19983004 -0.5656647 0.22542009 1.4514246
90 1.2543385 -0.5736955 0.40856606 -0.055873416 0.28910613 0.67392063 -0.5612927 0.9637924 -0.7941207 1.1228901 -0.40121353 0.24582087 0.024728127 -1.0463281 0.35814565 0.1897933 -0.91757315 -0.9805732 0.58252454 -0.12936303 0.8402813 0.26634437 -0.10185902 0.52967703 0.15703602 1.0332947 -0.8924141 -0.6779817 0.10908468 0.7866674 -0.23609695 -0.2677715 0.3481449 -0.6174472 -1.5406972 -0.43263286 -0.4717972 -1.7008669 0.38560185 0.3981019 0.38127542 -0.0026251506 0.21763116 0.60290694 -0.6821255 -1.4076724 0.4951806 0.7440802 0.093462825 -0.26529106 -0.6279839 1.1915773 0.9732713 0.24241887 -0.7096136 -0.43543842 -0.025957355 -0.5072432 0.038757395 0.80482346 0.8571822 -0.7405191 0.19954814 0.8475702
1559 0.67797154 -0.11565053 1.0755514 -1.2040845 -0.59419405 0.6550226 -0.105525576 0.048866544 -0.42815393 -0.2126367 0.034825254 0.48325244 0.12929581 0.0823973 -0.4500638 0.020124353 -0.48278713 -0.60310996 -0.6259422 0.17150588 0.36692378 -1.5337158 -0.37441027 -0.13337235 -0.1338942 0.99461246 0.20463613 0.7294013 -0.03136168 0.4209261 0.24712016 0.258667 0.45199525 -0.61731195 -0.43874878 0.26099658 -0.4665329 0.081033066 0.15260598 -0.049811427 1.291909 -0.34463745 -0.74002177 0.037551876 -0.71496826 -0.54728395 -0.44537985 -0.864501 -0.2340621 -0.32117826 0.34615558 -0.4812847 0.16075113 -0.5312712 -0.76312345 -0.50803185 -0.07514345 0.11771471 -0.86373234 -0.26594925 0.1937935 0.2139711 0.3379691 -0.850744
2336 0.026864711 -0.10412653 -0.3934848 -0.24503957 -0.40516877 0.21364366 0.15517057 0.65382993 -0.49648154 0.6425584 0.32764068 0.35799906 -0.31571493 0.23069029 0.12153251 0.47420722 -0.020328578 -0.9381766 -0.32479042 0.51394546 0.101056114 -0.10416891 -0.39037684 1.0717045 -0.08174209 0.11949513 -0.4143479 -0.61677694 -0.026032832 -0.10333694 -0.46046585 -0.8305053 0.41454822 -0.2594641 0.8213264 -0.2280352 -0.68158615 -0.12947962 -0.5810137 0.058532473 -0.2785773 -0.77324414 0.4485653 -0.24673127 -0.92397225 -0.43486127 -0.8755154 -0.21894087 -0.19108373 -1.183741 0.60890394 0.071584344 -0.09326398 0.2128938 -0.34137154 -0.1876052 -0.11380684 0.29940572 0.23616531 -0.26283884 0.45542815 0.05411104 0.13623124 0.075265706
491 -0.3700206 -0.097835675 -0.19991621 0.140186 -0.32663718 -0.015200415 -0.018660937 0.11650859 -0.030280659 0.16444175 -0.017825076 0.2117996 -0.14850186 0.5800734 -0.011902952 -1.6761109 0.47293156 -0.6872755 0.37117273 0.3560174 0.6654704 -0.30531272 0.34445736 -0.27606168 -0.3510891 0.1943279 -0.9160444 -0.38741356 0.8846914 -0.81825745 -0.3782098 -0.1904298 -0.020478351 -0.38448155 0.13155219 0.3768805 -0.325952 -0.3371009 0.32032755 0.2844888 -0.25623438 0.37377253 0.74177885 0.104834266 -0.59999305 -0.48743817 0.30427364 0.45815888 -0.3840247 0.33138838 0.70191973 0.28524178 -0.0462619 0.36305112 -0.43704748 -0.24338888 0.23299466 -0.62870824 -0.8764141 -0.23536257 0.23533854 0.16263162 0.12927459 -0.2547707
457 0.22606581 -0.10132102 -0.38515565 -0.33304846 -1.0094323 -0.8244097 -1.0556039 0.7728153 -0.051724147 -0.19903195 1.015317 0.43685824 0.55236506 0.16580747 -0.6046804 0.6051315 -0.33430883 0.04118324 -0.7665989 -0.7037807 1.1589476 -0.1981637 0.1167243 0.23973723 0.31202662 0.11792016 -0.31247157 0.48092535 0.38286564 -0.13254389 0.33630568 0.029520845 0.0054187197 -0.31563383 -0.09122031 0.35269645 -0.64200616 -0.09374431 0.46090686 -0.32049748 0.24063486 0.5285439 0.48559493 0.24625368 -0.9446422 0.19354881 0.31431994 -0.33666405 -0.64932823 0.3551695 0.5286237 0.39069453 0.16418923 1.184498 -0.32874638 0.48297676 -0.11783915 0.63933223 0.037987564 -0.4181687 -0.061581664 -0.21462493 -0.036579326 -0.26187888
375 0.79555583 0.4276369 0.6569668 -1.2248399 -0.060585923 0.309604 -0.4055966 0.46786216 0.8696057 0.5167856 -0.5970377 0.67876863 0.09568262 -1.1716837 -0.7780556 -0.9599368 0.14438508 -0.88490915 -0.48847142 0.13726981 1.1886971 -0.37909922 -0.62679696 -0.11386606 -0.44426963 1.014586 -0.31234798 -0.11094471 0.056550905 -1.0537575 0.8719223 -1.6114243 0.23335129 -0.9900711 -1.278738 1.334653 -0.9804397 -0.7152399 -1.7808623 -0.13709547 -0.3315629 -0.7673993 0.41200608 0.8093151 -0.17156218 -1.0850036 0.52399546 -0.107749335 -1.276929 0.22833008 0.42652282 -1.0567781 -1.1702598 0.9978774 -0.6914291 0.82474804 0.14066787 -0.21673143 0.29280347 0.050893273 -1.7026993 -1.570461 -1.0010802 -0.42517853
1683 0.31107372 0.16735011 -0.45237315 0.10652483 -1.8871819 0.19393492 -0.3068584 0.092865035 -0.047796704 -0.7439282 -0.35131973 0.012039239 0.34752518 -0.0872787 -0.2150407 0.33804724 -0.7600211 0.36641672 0.95695865 0.010482064 0.7876882 0.08257206 -0.33658192 0.09480885 0.13637951 -0.7297244 -0.7735706 -0.18587723 0.25641873 0.29384348 -0.4004203 -0.07131221 0.531906 -0.6792185 0.07744982 -0.002077486 -0.60382944 -0.41401145 -0.570249 0.4795938 0.092584 0.042556006 -0.11965245 0.45346847 0.6036403 -0.5555427 0.4925796 -0.79127604 -0.5914601 -0.0006953191 0.5687901 -0.148149 0.43150273 0.32205895 -0.5145835 -0.7034852 -0.13886167 0.44835213 -0.69427705 -0.6151119 -0.026299966 -1.3963788 -1.1654181 0.1514006
1913 -0.08636013 -0.3121511 1.1348611 -0.033416737 -0.5625581 0.85234046 -0.09225018 -0.14962208 0.20753933 -0.3065302 -0.04879288 -0.39539924 0.25814128 -0.6268707 0.40812415 -0.27915144 0.10808201 -0.57398975 0.042957712 -0.09085012 0.5986381 0.011639088 -0.76873505 -0.4039271 -0.40790144 -0.38558045 -1.1184492 0.621475 -0.50564504 -0.518766 0.22951363 0.5043711 0.74292314 -0.26975805 0.18926203 0.38907886 -0.8487298 -0.15080656 0.096250616 -0.14103773 0.28708905 0.24747564 0.7710613 -0.45585245 0.027006395 -0.51868796 -0.43401322 -0.28731203 -0.2206575 -0.56443006 1.151056 -0.46722853 0.5795782 0.57470894 -0.45520568 0.12180827 0.1382593 -0.5087658 -0.6895207 -0.60372794 0.6247428 -0.63677657 -0.20564432 0.58708686
2081 -0.19284745 -0.32984674 0.6313997 -0.15140654 -0.65487665 0.93766165 -0.22135131 0.55144066 0.13269073 -0.7954876 -0.19452927 0.70078963 0.38268495 0.41748613 -0.058407422 -0.0889072 -0.5373472 -0.35935235 -0.45799065 0.6835041 0.4170043 0.28523412 0.13188653 0.5106017 0.44383246 0.35980663 -0.41068754 0.63878673 -0.4108372 0.14075889 -0.6067378 -0.603485 -0.36975065 -0.69252676 -0.4320267 0.60797733 0.39197615 -0.4154532 -0.36748126 0.4061792 0.16747579 0.45114532 -0.04010599 0.22780906 0.10139452 0.16820751 0.34412858 -0.8043991 -0.027694155 -0.66206735 -0.6786609 0.35271096 0.08122032 0.040512837 -0.0377433 0.85751414 0.004224479 -0.047281805 -1.0384325 0.46758473 -0.2959314 0.049264815 -0.5444467 0.5654627
2384 0.6825402 -0.5353584 -1.0354252 -0.17129932 -0.8904338 0.8543288 0.20343 0.25845006 0.06030667 0.408562 0.77123606 0.32367298 0.40658337 0.7237914 -0.2710108 0.2975203 0.50294894 -0.048536636 -0.08896477 -0.48400122 -0.27614635 -0.22761498 0.07035873 -0.03623175 0.08697149 0.6143007 -0.5553146 -0.32561213 0.094266556 -0.55453044 -0.29215333 -0.5696655 0.057832543 -0.4647225 -0.6578544 0.3981418 -1.5129274 0.27864295 0.667335 -0.058090825 0.9473933 -0.6391994 0.42719758 -0.5065791 -1.159474 -0.43105194 0.01198297 -0.07851522 -0.32937384 -0.875159 -0.7070124 0.5504269 -0.4279473 1.1189381 -0.28333017 0.46417505 0.1746609 0.69340444 -1.1449395 0.39214063 0.19331193 -0.31154698 0.103346735 -0.5391993
1703 0.6135076 0.49304974 0.5662373 0.42675155 -0.35029644 0.13188106 0.55493087 1.1396171 -0.57718366 0.41235733 0.7789893 0.011285605 0.37073988 0.016340153 0.03761566 -0.21446626 -0.31990644 -0.55358994 0.47009507 0.5041639 0.8339636 0.2870479 -0.15444067 0.01574412 0.16507196 0.8189141 -0.044487633 -1.1871619 0.3740341 0.005941062 0.19771267 -0.7933973 0.099500075 -0.40120602 -0.16658051 -0.27803722 -0.47032124 0.07531184 0.16279036 -0.47332543 0.62826747 -1.0090836 -0.55742925 0.71848893 -0.7946429 -1.5051179 -0.72709817 0.85920995 -0.8216111 -0.38983485 -0.4990324 0.79965204 0.38519305 0.5440899 0.17154403 -0.16719882 0.8683576 0.676738 0.2609179 -0.81545734 0.5488357 -0.15001068 0.042169183 0.07989357
49 -0.95777154 -0.7106888 0.37007222 -0.03564526 -1.1656431 0.858623 -0.16487832 1.0244759 -0.012473787 -0.020161234 -0.0286781 -0.8281055 0.6780429 -0.2365604 -0.03090228 -0.09377782 0.55938584 0.15673159 0.22279246 0.7624372 0.739057 -0.34200725 -0.31028837 0.78125226 0.3364492 0.12860714 -0.3340504 0.078864224 -0.9245721 0.50278556 0.5273869 -0.52214795 -0.24682865 0.13922542 1.1319549 -0.4058187 0.060607523 -0.6561563 -0.08647742 -0.30452472 -0.5742857 -0.60911345 -0.17384955 -0.25915778 -1.12602 -0.7651709 0.15758078 -0.49522957 0.59234726 -0.35063702 -0.19008584 0.9049851 -0.3437323 0.6172408 -0.4461297 0.24044825 0.36466423 -0.5652682 0.39610842 0.008493048 0.52042407 0.25140816 -0.25463292 0.044264104
1870 0.099619344 -0.47509474 0.40935704 -0.94284266 -0.41879922 0.007122145 0.10310935 -0.2801349 -0.12664512 -0.15131535 -0.22391166 0.21541323 0.81892574 0.3529109 0.0077409465 0.17282432 0.41282666 -0.5774891 0.2235082 -0.5787447 0.06271637 -0.14811844 -0.08265507 -0.27764902 0.45747942 0.5323269 -0.119187556 -0.16990519 -0.44957227 -0.084368855 -0.027321052 0.2629568 -0.3233388 0.16024902 0.3115613 -0.15483493 -0.2045545 0.27262664 0.34594485 0.20709595 -0.54406416 -0.37358648 0.5259078 0.103026345 -0.38578823 -1.0555005 0.29907697 0.17023195 -0.3633024 0.0011739791 -0.24154581 0.99613005 0.23650688 -0.8399713 0.05548763 0.48472336 -0.5281207 0.31042853 0.25375488 -0.5553083 0.41119435 -0.44009328 -0.2807148 0.705625
703 0.4468691 0.055057272 0.3304561 0.22674546 0.68416697 0.89991176 -0.84422904 0.4840709 0.5101169 -0.42197114 -0.80836445 0.37451312 0.6428699 0.44397518 -0.73421615 -0.5146399 -0.07901304 -0.9985338 0.2406398 1.663769 0.26676345 -0.61120045 -0.11217291 0.6646683 -0.80833745 0.15666032 -0.3473904 -0.4334696 0.365641 -0.08804303 -0.63094306 -0.37358618 0.5476992 0.43436307 0.7398283 0.20746875 -0.053814575 -0.19548143 -0.6735562 -0.06665454 0.43239877 -0.022059824 0.4720211 0.3652072 -0.8025473 0.08445287 -0.07452071 -0.76634306 -0.22469243 1.4178282 0.112812035 -0.17524177 0.44308278 0.7663866 -0.28357533 1.628619 -0.6415451 -1.0214536 -0.33751103 0.10600811 0.61240566 -0.08831128 0.1313287 -0.9563906
60 -0.055151656 0.7691506 -0.17903894 -0.5426484 -0.42612416 -0.34707084 -0.5945505 0.4710011 -0.90086234 -0.2741679 -0.4577407 0.19029877 -0.17186612 -0.25723204 -0.19980744 0.23122138 -0.45868838 0.46863976 -0.5733514 0.68304205 -0.5122722 0.26119372 -0.22636637 -0.19176586 -0.107205 0.018787574 -0.16751145 -0.32974255 -0.3547187 -0.33706635 -0.03860126 0.09705468 -0.30174798 -0.24312048 0.23577787 0.2789835 -0.5861039 -0.1579175 -0.5458897 -0.19540992 0.5194141 -0.34455895 -0.010683361 0.6767443 -0.27050412 -0.776908 -0.014067331 -0.047289863 -0.6032862 0.260049 1.0316482 0.42484057 -0.25074166 0.7152906 -0.032704372 0.5358856 -0.5945625 -0.39332289 -0.48238778 0.5595086 0.50888276 0.0028227367 0.6955563 0.70856464
1023 0.9636686 0.28387535 0.8913273 0.031100988 -0.6605471 1.7601013 0.19818427 -0.42276904 -0.4840125 0.9337043 0.7237972 0.65085256 -0.79358107 1.0148629 0.22326946 0.29499426 -0.5187911 -0.6026275 0.55600923 0.48710692 0.4515183 1.2235755 0.2018093 0.903028 -0.11453661 0.10740153 -0.7599013 1.0825976 1.3138918 -0.30688128 0.41965777 0.53044903 -0.22727646 0.0536603 0.72566116 0.7511309 -0.17616913 -0.34197187 -0.42112732 -0.35860524 0.67876107 -0.73869294 0.7727445 0.88904476 0.24532442 0.5603372 -0.62479734 0.44201347 -0.5806526 -0.33244407 -0.38980457 0.5012335 1.1855036 0.37946522 -0.04719131 0.37608153 -0.5238132 -1.0017188 -0.9537943 1.0358319 -0.44543952 -1.3599595 -0.5876368 0.2814259
181 0.45996296 0.21317522 0.4939734 0.009226959 -0.44464633 -0.05406288 0.18533868 -0.14479123 -0.29599178 -0.17925523 0.45338535 -0.124611884 0.21404938 -0.44132656 0.3717965 0.018061029 1.0559863 -0.094988704 -0.13503255 0.5027968 0.08724828 -0.41591927 -0.32531065 0.57988805 0.9667194 0.81565773 -0.40539405 -0.49335533 -1.0116633 0.06702378 0.30400085 0.16920584 0.6498129 0.5517907 -0.15673478 0.33162022 0.37011147 -0.21910098 0.26058677 -0.14675744 -0.21407463 -0.63626164 0.008035707 -0.2756445 -0.7462058 -1.1641315 0.05536056 -0.6306052 -0.37204653 -0.57484746 0.11789239 0.21999119 -0.009224879 0.36018687 -0.8257127 0.6610455 0.26111206 -1.0683842 -0.27563924 0.3691289 -0.4955883 -0.91012883 -1.4250373 -0.08200782
2292 -0.1142133 -0.72626954 0.23876035 -0.39917824 -0.9315811 -0.025166135 -0.49079308 -0.22325698 -0.29633158 -0.71521497 -0.5244243 0.12861048 0.6005135 -0.20903109 -0.026379304 0.282174 -0.4680521 0.10070396 0.07193424 0.016350763 0.22868854 -0.21442813 -0.13130063 0.29973537 0.26927397 -0.44913903 -0.18638813 -0.7580139 0.78412485 0.46962553 -0.060770735 0.50763303 0.21822152 -1.3927206 0.5400282 -0.111971535 -0.58970606 -0.6856706 -0.25765267 -0.11638712 0.27453995 -0.92131776 -0.3397429 0.46538523 0.350536 -0.06491631 0.14253911 -0.32060084 -0.9500263 0.305879 0.6433746 0.42709145 0.10904794 0.3213972 -0.44692555 -0.021593148 0.1419243 -0.07730974 -0.45904213 -0.58621407 0.3062029 -1.7582897 -0.6120553 0.32392514
2200 0.38293502 -0.76686406 -0.7931108 -0.32412812 -1.1853011 -0.7333133 -0.72543997 0.9768281 -0.11666497 0.074597 0.9424002 0.18610233 0.8025426 0.3906803 -0.2950397 0.50430715 -0.51568556 -0.07778779 -1.0089314 0.14912525 0.828107 -0.2635117 0.1013407 0.41846868 -0.09822661 -0.35546243 -0.09203869 0.5981932 0.0643411 0.18847752 0.44162256 -0.053020623 0.15025933 0.054433085 -0.12267338 0.27556226 0.013391299 0.06597523 0.33952728 -0.018698217 0.04005658 0.45897612 0.81204295 0.1533596 -0.5662197 0.68544084 0.104622446 -0.17267776 -0.9317418 0.55284 1.0051811 0.17820874 0.2762082 0.82971966 -0.88725686 0.7212032 -0.1744831 0.46128982 -0.16605872 -0.58634245 -0.25161114 0.070238374 -0.25683403 -0.04281272
1890 0.36767897 0.047697004 0.57058126 0.24854429 -0.4434197 -0.1171184 0.45295712 1.3118978 -0.59936804 0.047315273 0.22219682 -0.65463233 0.35043922 0.342162 0.7620262 0.6215352 0.25266883 -0.4037584 0.13489117 0.22506492 0.3055232 0.076483905 0.0976532 1.5030499 0.3085252 0.57662946 -0.1350407 0.10277829 -0.32485193 -0.42814687 -0.12150051 0.660716 0.6401613 0.4422742 -0.23314494 0.08011733 -0.11923895 -0.011609426 -0.31388035 -0.5713863 -0.08845231 0.13126412 0.35386753 -0.00163442 -0.60826105 -0.7518879 0.16472408 -0.09231687 -1.0729856 0.117793284 0.10759964 1.0471148 -0.8439249 1.0267267 -0.4697447 0.15243669 0.6791586 -0.23838729 -0.2918165 -0.1834617 -0.63717514 -0.22471817 -0.4632029 -0.56009895
1740 0.92982966 -0.32264817 0.10121222 -0.8731782 -0.029798215 0.01584186 -0.6462423 0.95094484 -0.6962639 -0.51702803 -0.37230763 0.1888652 0.36608267 0.09203762 -0.3143001 -0.08195139 -0.6932841 -0.060518797 -0.13994981 0.3070789 -0.5446699 -0.037929773 0.75439507 -0.33400145 -0.47254553 0.07758835 -0.51257753 -0.2503406 0.25102988 0.076451354 0.38030893 -0.040109247 -0.5449403 0.06612533 0.65112686 -0.32471424 -0.17882389 -0.06749205 0.010434862 -0.17830178 0.25244677 -0.8259989 -0.08175184 -0.41349208 0.24856544 -0.44192034 0.068842955 0.40023458 -0.27782604 -0.38548264 1.1014205 0.16375089 -0.34116584 0.13921532 -0.11595929 0.18205966 -0.23036858 -1.0395777 -0.63192946 0.15336789 -0.28592515 -0.28373605 -0.115926415 0.38334823
1465 0.69489247 0.035173565 -0.6218614 -0.3479886 0.05585759 0.828721 0.19889303 0.20889421 0.5863105 0.2580784 0.7205064 0.3862904 -0.11461366 0.02314635 0.35436594 -0.6924257 -0.30542177 -0.9625459 0.11769622 0.71313953 0.27765787 -0.6090464 -0.0048415144 0.12499955 -0.0963567 0.63752395 -0.13313161 -0.32212245 0.24237458 0.2419609 -0.6520772 -0.15237993 0.71786225 0.18430421 -0.026879366 -1.6517184 -0.3752404 0.5204937 -0.117243394 0.4247692 0.2491096 -0.38486427 0.415627 0.5414286 -1.0140691 0.2960646 0.5489253 0.3257131 0.058408026 0.7439021 0.09579192 0.73827386 -0.19366959 0.40302876 -0.32471007 0.30909026 -0.85452044 -0.2553978 -1.2334459 -0.59800345 -0.59969854 -0.24989869 -0.73990595 0.49644783
712 0.20402017 0.34162748 -1.026019 -0.21999356 -0.48650482 -0.4499095 -0.086274564 0.16163512 0.28378195 -0.0828939 -0.88816696 0.582922 0.21260627 0.018686526 0.47476956 -0.33053422 -0.4099007 -1.2135803 0.28064892 0.74524105 0.094659016 -0.67859906 0.24109688 0.16598889 1.0067294 0.3616038 -0.24154028 0.1984312 0.0103336 -0.23557897 -0.5946296 -0.6193886 0.7560295 -0.42360502 0.53361773 -0.93095803 -0.84558403 -0.6283289 -0.24168897 -0.606426 0.119178094 -0.2528861 0.64355814 -0.0043260185 -0.1774795 0.44235843 0.5511424 -0.2749843 -1.0905043 0.26815945 -0.5636219 0.3029141 0.69361246 0.3397546 -0.12761511 0.22842257 -0.057095308 -1.1289822 0.107102536 0.30504674 -0.36955476 -0.29350165 0.36669508 0.6403561
1956 0.32184583 1.0062385 0.3155469 -0.7435362 -1.155773 0.75712985 -0.119939506 0.40373382 -1.076875 0.9927659 -0.6768756 0.8093942 -1.1971822 0.36004725 -0.94006974 -0.16261545 0.489091 -0.6456402 0.16162132 0.89693654 2.0638068 0.6558347 -0.5747931 0.4059831 -0.7248942 -0.0626862 -0.36965486 0.010358373 -0.19620621 -0.22328308 0.18194257 0.76074284 -0.7643391 0.1630404 0.8333102 0.122634456 0.2214686 0.40329543 0.4519936 -0.17006794 0.76726866 0.050096903 0.13737628 0.29047185 -0.07612878 0.05448356 -0.2092306 0.029493885 -0.38356945 0.9245876 -0.931118 0.8367602 0.32056615 0.26197693 -0.22545542 -0.28048018 0.30493546 -1.1469004 -1.5745771 0.8206322 -0.02593977 -1.2037439 0.34987012 -0.31598365
868 -0.78923523 0.038394444 0.3891063 -0.12203183 -1.0952681 -0.13418433 0.05334005 0.4258433 -0.77652687 0.97123444 0.5307396 0.71057534 0.9645451 -1.2342708 0.6243034 -0.1396328 0.32400653 -0.6659448 -1.7494596 0.50010735 -0.23450354 0.73714954 0.32803038 0.12998769 -0.102736436 -0.20896117 -1.322282 0.1964125 -0.04131254 0.32320723 0.31143382 -0.78366864 0.14647366 0.46413743 -0.032741435 0.8805927 -0.39011022 0.2680672 -0.784036 -0.00033679133 0.6488871 -0.88959575 0.038481895 0.1512807 0.055346 -0.88752484 0.84721524 0.3520519 -0.2467654 0.6406615 0.40020505 -0.42692146 0.75190264 0.16253357 0.25340164 0.32233644 -0.35726607 0.5530049 -1.3910162 -0.26194286 0.38610664 -0.17680521 0.38318747 1.8645569
2682 1.5813552 -0.43712696 1.290359 -0.31423113 -1.2497548 0.5637239 0.2640753 0.15695217 1.0809267 0.5611959 -0.74092364 0.83395165 0.52904963 -0.21458066 0.64916915 0.17271245 1.8074136 -0.81630254 -0.6524267 0.98775285 0.67954564 1.1357982 -0.4371809 1.0571222 -0.37487572 1.3220752 -0.63190895 0.13241561 1.1267924 0.51631796 0.3683997 -0.66980565 -0.25471544 -0.11191851 0.25815696 0.006599586 -0.24798198 -2.0674405 -0.9656846 -0.5715406 0.8206319 0.52348405 -0.39894024 -0.7229381 0.12004629 -0.67057866 1.1883152 0.28902116 -1.8976933 0.9954313 -0.5558656 0.39460889 -0.66788703 1.9075698 -0.018677361 -0.96586555 -0.7361119 0.100247644 -0.9920979 0.5309217 -0.40259364 -0.6103507 -0.5238855 -0.7770927
