2708 64
1359 -0.1357035 0.13147144 0.3440669 0.05353413 0.5368892 0.21022277 -0.38877627 -0.60889614 -0.097116835 0.016426247 -0.1700789 -0.15520805 -0.051752254 0.47439486 -0.19911471 0.26467848 0.25366774 -0.24993917 -0.011528128 0.52740717 0.38121703 0.2165182 -0.22475179 0.20285183 -0.06780168 -0.3211541 0.1836774 0.22670013 -0.031405956 0.021090165 -0.15374993 -0.61945724 -0.28382716 -0.17334865 -0.18381886 -0.22006822 0.09146168 0.0024804266 -0.22390732 0.109777756 -0.1967078 -0.33381456 0.35187456 -0.045860995 -0.10554683 -0.22239605 0.04303675 0.33164126 0.2172131 -0.043697182 -0.55704576 -0.068685874 -0.25451455 -0.24582796 0.47971293 0.07444408 -0.20459108 -0.0645589 -0.3998473 0.041740164 0.06823352 -0.566323 0.21550715 -0.076666705
1702 -0.16120327 0.08477936 0.91470325 0.37381867 0.29958403 -0.23717232 0.12605262 0.10644504 -0.083076365 0.18519664 -0.15539835 -0.005025224 0.26801106 0.09585094 0.31458443 -0.16875266 0.20498975 0.08760264 -0.31986997 0.45654845 0.034825023 -0.55121493 -0.21533523 -0.9609447 0.5158587 0.29512772 0.3723066 -0.012743205 -0.251189 0.28849068 0.08857036 0.19604442 -0.89839786 -0.12086276 0.4392459 -0.61628807 0.2320001 -0.09359302 -0.24687612 -0.15319157 0.3202537 0.24062976 0.12128129 0.38547832 0.45137972 -0.34354416 0.52720475 -0.16349743 0.060639597 0.058571618 -0.29490045 0.17559355 0.054633107 -0.13575856 -0.19434719 -0.23105057 -0.8185519 0.15575813 -0.34909347 -0.1709973 0.5929349 -0.44704482 0.13157079 -0.00680642
307 0.33527294 -0.3154868 0.4282046 -0.30397317 0.7021239 -0.28256696 -0.1852548 0.30195072 0.07475603 0.19679059 -0.020406568 -0.38486832 0.0064208484 0.34684283 -0.09985339 -0.016527299 0.1804537 -0.006521769 -0.84540665 0.19014695 0.6993723 -0.13623355 -0.14965433 0.14186217 0.5675166 -0.535729 -0.17759879 -0.050561246 -0.37111747 -0.012742129 0.062988825 0.17826124 -0.3945498 -0.040408958 0.40536258 -0.16510084 -0.0048237843 0.27910587 -0.22536224 0.11256494 -0.1899061 0.13244255 -0.25347534 0.8195523 0.13860506 -0.45458937 -0.08272643 0.2894714 0.29848203 -0.17458084 0.14626563 0.16954577 0.13992932 -0.93354076 0.01657724 0.5632715 0.37351736 -0.17195034 0.110124744 -0.24223948 0.22291894 0.027964089 0.023662642 -0.065010585
1987 -0.7176445 0.07341497 0.62470376 0.051975086 0.23808776 -0.059682105 -0.024649652 0.043929163 -0.024475202 0.62906986 0.25132567 0.22960153 0.26272526 0.025420161 0.24500135 -0.108799346 0.17723191 0.076711796 -0.7682787 0.74775434 -0.1445193 -0.2621938 -0.5217454 -0.00105706 0.24425843 -0.21193689 0.14349337 -0.2814955 -0.626566 -0.15808003 0.12314025 0.27739844 -0.25642246 -0.3271512 0.2569682 -0.054728527 -0.18692191 -0.23393354 -0.11167937 -0.39264157 0.20005736 -0.6196365 -0.4546793 -0.24944915 0.29162887 -0.18100685 0.38826162 0.12686323 0.14993723 -0.27859068 -0.043580055 -0.055272892 -0.5363767 0.30379334 0.054866068 0.07699891 -0.29874977 -0.11933154 -0.16916701 -0.3274621 0.10149701 -0.40024322 0.2327546 0.6077144
1811 -0.07307555 -0.39701357 0.59061444 0.3719781 -0.3940665 -0.18332303 0.0063698795 0.18031098 0.35190228 0.5009038 0.10455061 -1.0639977 0.07677013 0.05466232 0.7945794 -0.20287976 0.5261545 0.16958515 -0.50045323 0.435075 0.4982182 -0.006386403 0.27138042 0.031780522 0.37894762 0.33404294 -0.0944222 -0.23815359 -0.3116498 0.18239352 -0.46655077 -0.2810966 -0.056898247 -0.44331443 -0.103153795 -0.29263857 0.41299534 0.13680243 0.16503769 -0.30653852 0.27065697 -0.119917564 -0.48331797 -0.031526122 0.25010744 -0.678968 0.6448935 0.7916906 -0.034927014 0.4393874 0.12516028 0.12802754 0.1946842 -0.32450038 -0.0018974072 -0.49866927 -0.33920595 -0.43854648 -0.25007078 -0.59054434 0.07294259 -0.4716724 -0.64893746 0.09186676
2035 0.20733146 0.15750097 0.3157855 0.52030474 0.3792567 -0.6694071 0.21555841 0.10125539 -0.085064866 0.20171182 -0.1745533 -0.28843853 0.04578902 -0.31875956 -0.21141425 -0.047636792 -0.17205706 0.07740179 -0.102821924 0.4832998 0.22478992 -0.48422232 0.34401178 0.5068659 0.6891935 0.561225 0.32130495 -0.2273718 0.068675734 0.21031676 -0.2854357 -0.38763338 0.2175281 -0.34867507 0.17009021 0.47358522 0.043825716 0.40472755 0.23546581 0.08771658 0.07795396 -0.2917505 -0.45732132 0.6123003 0.051456485 0.13750294 0.52266544 -0.17321303 0.7908548 -0.3161492 0.6102023 -0.2913215 -0.45294392 -0.79121685 0.5432401 -0.6530217 -0.42812294 -0.1630603 -0.3933796 -0.35942852 0.20554578 -0.09137727 -0.26351565 0.37056616
1624 0.22103727 -0.19419295 0.32408503 -0.25181922 1.1397252 -0.14433482 -0.23306943 0.7871516 0.049495786 -0.34937644 -0.14249013 -0.77374244 -0.39910868 -0.14988576 -0.2246219 -0.5352555 0.35288963 -0.55572253 -0.52831894 0.41190058 0.5878747 -0.20097539 -0.5148207 0.28030103 0.2663764 -0.64368194 0.044199128 0.09845033 -0.3255211 0.4365947 -0.07314247 0.41639557 -0.14450082 -0.061833385 0.50263363 0.09217926 0.22994173 0.2739738 -0.23190077 0.03550948 -0.38095286 0.2180769 -0.36145273 0.24957007 0.19072175 -0.5604559 -0.042634223 0.20808578 0.6743757 -0.29600942 0.21530496 0.045893766 0.27184755 -0.8617488 -0.39935234 0.160848 -0.018551057 -0.28798532 0.013108835 -0.039325137 0.17718817 -0.17206173 -0.044067066 -0.24240397
1014 -0.21366495 0.008293539 0.42442492 -0.5358129 0.12877272 0.11709661 0.09230991 -0.4623731 -0.053836055 0.6750572 -0.13524646 -0.32650393 -0.5738534 0.11998628 0.04538453 0.462697 0.31101117 -0.017730145 -0.14635767 -0.3220224 -0.3495377 -0.37267685 -0.609687 -0.49459228 0.5526043 0.35240182 -0.41038653 0.06993899 -0.14235157 0.20029908 -0.12643012 -0.52066314 -0.11494284 0.07157277 0.5648997 -0.3501391 -0.5847035 0.0117883 0.6103696 0.6492999 -0.14271587 -0.05262304 -0.33463797 0.39297298 -0.107132256 -0.46961367 0.16399722 0.40710127 0.5009741 0.31267512 -0.1571102 -0.2481473 -0.064497225 -0.6337595 0.20133112 0.14697243 -0.18574587 -0.06108537 0.6147976 -0.040442716 -0.1811879 0.04432209 0.5889097 -0.30544922
89 -0.20922066 0.27051505 0.83666134 0.6406488 0.4451975 0.08130035 -0.03506426 -0.021726614 -0.30415538 0.2532179 -0.13225007 -0.06512212 -0.6746804 -0.3076008 0.062298726 -0.05618536 -0.37664282 -0.11647973 -0.009308738 0.5240545 -0.033252236 -0.12678795 -0.48974517 0.31566024 -0.3581059 0.06815763 0.2503266 -0.039508257 -0.35647783 0.032007996 0.14340788 -0.056686994 0.32164544 0.018136533 0.23031363 -0.22827251 -0.5877684 -0.18573117 0.38206238 0.94470364 -0.15429921 0.28443137 0.006156378 0.51451766 0.14603095 0.039181966 0.545432 0.009781945 0.23337522 0.29784757 -0.79019356 -0.84153014 -0.33173558 -0.3806758 -0.33954588 0.2502875 -0.11903868 -0.5246823 0.3925304 -0.33163565 -0.5829029 -0.20006332 -0.32019997 -0.09547702
599 -0.66814053 -0.028048716 0.9239547 0.50089353 -0.21152878 -0.1578342 0.5043155 -0.0267054 0.26000723 0.31654647 -0.31557846 0.1864255 0.43649143 0.18522094 0.11316859 0.2924514 0.38114116 0.01662635 -0.22588378 0.92982084 -0.048329964 -0.67779666 -0.21050957 -0.58150697 0.37620962 -0.07816874 0.10627591 -0.014430659 0.21005978 0.24905378 -0.52911323 0.53935534 -0.6942808 0.17322803 0.04715244 -0.40750036 -0.18602493 -0.12273679 -0.460919 -0.14209463 0.33816484 0.17859153 -0.58473825 -0.0777836 0.10869025 -0.86986405 0.40092778 0.16365625 0.48376355 0.14879148 0.15574606 -0.05474045 0.12907648 0.27788812 0.52701503 0.16123246 -0.33631673 -0.26633695 -0.7943398 -0.26208284 0.5525291 -0.04460854 -0.38050053 -0.19960338
1915 -0.16051503 0.2541136 0.11963089 -0.10081819 0.813271 0.052584466 0.5461278 -0.19735976 -0.18592815 0.046413198 -0.1451249 0.14174128 -0.67952996 -0.043198936 0.3029676 0.1682414 -0.5067075 0.088253275 -0.008846807 -0.19296451 -0.38286474 -0.38210425 -0.165239 -0.75750035 0.65059537 0.06757131 0.012331805 -0.0035894485 -0.88199365 0.40094328 -0.43590325 -0.11136613 0.62428355 0.5220941 0.51661646 -0.2840322 -0.15430482 -0.1868021 0.15220909 0.9859045 -0.18416142 -0.3514308 -1.0818853 -0.35727218 -0.7748845 0.24400797 0.11842595 0.59558034 0.45994857 0.46329892 -0.7243427 0.33966723 -0.4857871 -0.52659637 -0.03208188 0.16521087 -0.033594366 -0.69713086 -0.3574661 -0.29821825 0.036802545 -0.31107768 0.021415327 -0.8554212
110 0.6192908 0.08437081 0.48574507 -0.1597456 0.70937943 0.22006999 -0.12527959 0.24322516 -0.3743802 0.3118204 -0.30723754 -0.68249315 -0.2753385 -0.15894173 -0.3058877 -0.44504535 0.23213233 -0.05500736 -0.6060749 -0.08085859 0.31755596 -0.33440655 -0.20913386 -0.17517464 0.24467093 0.04924121 0.08390734 0.2889147 -0.25511664 0.20327754 -0.07133249 0.2268329 -0.7064958 -0.11666163 -0.19861765 -0.10216002 -0.11419028 0.08212106 -0.13951787 -0.06643627 -0.37599632 -0.14209221 -0.4742805 0.38419303 0.023278808 -0.35719627 0.16588782 0.34290916 0.22693032 -0.6940121 0.23065911 0.7065635 0.39823395 -0.49793696 -0.06231573 0.3821036 -0.2216741 -0.15407912 0.11321893 -0.24607797 0.24264193 -0.6185616 0.20920382 -0.13468455
734 -0.8312632 0.56979525 1.066453 0.3426097 -0.099554226 0.19914778 -0.08289504 0.1369029 -0.06704446 0.42925307 -0.11916792 -0.39970928 0.4979768 0.45645368 0.16150106 -0.051405516 -0.6737384 0.06972959 -0.8244947 0.24652681 0.22658882 0.15075247 -0.31442034 0.5559553 0.16076311 0.6549374 -0.008328906 -0.1895601 -0.7445179 0.020994691 -0.060053494 -0.0075389775 0.48010582 -0.09428132 0.7321752 -0.04090765 0.23932976 0.40459043 0.5880029 -0.6482744 -0.099321455 0.27411702 0.5570903 0.20401333 -0.5959793 -0.21714036 0.37717396 0.24996005 -0.08733382 0.04978201 0.47089884 0.17458808 -0.31619373 0.016734308 0.22652732 -0.48327306 0.13960221 -0.5681702 0.2178836 -0.37026674 -0.114247255 -0.6319566 -0.7206532 -0.13375573
1073 0.45109192 -0.06752026 0.545746 -0.13774814 0.45441273 -0.27276126 0.019558176 0.18488683 -0.082876086 -0.119489186 0.27470872 -0.51636076 -0.039281886 0.33667883 -0.32551253 0.32887146 -0.30389968 0.07913143 -0.4190117 0.46189657 0.45274916 0.046146676 0.07590725 -0.36011222 0.10299601 -0.40521404 0.05470416 0.13923225 -0.38003603 -0.3419743 -0.15449941 0.33654895 -0.38943157 0.3350199 0.18055874 -0.0870841 0.72714704 0.18624915 -0.07433066 -0.09737433 -0.24226755 -0.35035363 -0.19288489 0.57167023 0.005666032 0.0962438 0.27465138 0.43532953 0.17041819 -0.23199956 -0.56962556 0.37222892 -0.322145 -0.64130193 0.3399492 0.5413428 0.10236618 0.5537727 -0.17234083 -0.0661308 -0.2134301 -0.4766433 0.40006605 -0.22755091
2046 0.33678216 -0.1686174 0.80256504 -0.11608354 0.7425335 -0.009522202 -0.2985676 -0.07319768 -0.17279886 0.06417877 0.051503878 -0.36454 0.21438953 0.25376984 -0.31343803 -0.16889411 0.44246018 -0.062398 -0.9202625 -0.043262713 -0.15937354 -0.36234015 -0.11009128 -0.037694193 0.5305567 -0.21940209 -0.27626726 0.27849564 -0.38748825 0.1660662 -0.018169085 -0.33997655 -0.37572205 -0.037525818 0.16485305 -0.32002944 0.06211352 -0.46752152 0.055711787 -0.050703645 -0.06924865 0.009463555 -0.35189041 0.39570022 0.18890606 -0.73643774 0.1545343 0.17608371 0.33660737 -0.523144 0.08530768 -0.18302895 0.3721163 -1.0360491 -0.047153704 0.1821387 -0.24515219 -0.19150603 0.18745941 -0.3831836 0.50042284 -0.023200067 0.6156308 0.20459802
1543 0.11486901 0.30399355 0.8233081 -0.08990355 -0.78680766 -0.6837466 0.83749163 0.5294515 0.12460514 -0.3266811 -0.7159346 -0.5232597 -0.580871 0.22536184 0.53192383 -0.72357947 0.23224568 0.0789027 -0.4565798 0.9863505 -0.1419653 -0.71911013 -1.1331644 0.38657105 0.59334165 -0.0071064155 0.11067842 0.16520067 -0.28544074 -0.17153469 0.11349458 1.0344801 -0.17164399 -0.10651619 -0.31554192 -0.56907934 0.09964887 -0.58518404 0.3396511 -0.26774487 0.4195995 0.3284104 0.46325946 0.26490813 -0.65130186 -0.5989449 -0.109977975 -0.16862312 1.1186403 0.59908426 -0.37650615 -0.2627452 -0.33119178 -0.09660886 0.15911646 -0.5215928 -0.14659624 -0.39299187 -0.86439687 0.14496794 0.71134704 -1.0087215 0.4860927 -0.14060594
1442 0.64112407 0.288941 0.13785471 -0.14998616 0.92703617 0.5045337 0.110701516 -0.19127205 0.10183344 0.44931546 0.26371682 -0.50445235 -0.6054355 0.75224715 0.5188572 -0.026035497 -1.3960111 0.08743465 -0.31501365 0.69473404 0.6048169 -0.5529645 0.11055363 0.74696547 0.4254564 0.14029936 -0.05613476 0.27595356 -0.53673726 0.83808446 0.39678964 -0.47065258 0.22295637 -0.06724787 -0.45262948 -0.78825474 -0.16316268 -0.40332067 0.51745206 -0.08371603 0.7930475 0.14305793 -0.4270119 0.5771952 0.08884948 -0.15296154 0.3495217 -0.48575455 0.04317368 0.95462126 -0.075738646 0.30173868 -0.24018301 0.40269676 -0.17048894 0.47264957 -0.023272358 -0.8399715 -0.5463091 0.14081483 0.35700783 -0.3232464 1.057412 -1.1232129
1225 -0.1233116 0.3007616 0.31299588 -0.8735246 0.9798477 -0.31232932 0.5413007 0.15382625 -0.44584444 0.59987485 0.7651332 0.18407512 -0.5878579 0.66877717 0.20363165 0.43122813 -0.2510287 0.15575229 0.055746414 -0.27659115 0.08388081 -0.26784524 -0.04163971 0.08927599 0.2760853 0.12931865 -0.1533696 -0.42398456 -0.52429813 0.26971146 -0.004576687 0.1609538 0.30572268 0.3706158 0.10182676 -0.91812295 -0.40390512 0.10617435 -0.19595191 0.7355851 -0.018764375 -0.20348111 -0.045838095 -0.14635298 -0.09034727 0.5152082 0.45466262 0.52504903 0.36926022 0.3119223 -0.22945744 0.1228398 -0.010751273 -0.0821728 0.23468792 -0.14011951 -0.46558446 -0.4740236 0.6027906 -0.60673416 0.45632848 -0.29703936 -0.0920011 -0.09836496
1170 -0.17267984 0.7528484 0.280874 0.09361602 0.8188475 0.16256927 -0.28179824 -0.43535462 -0.062464472 0.68417954 -0.46229675 -0.82423687 0.47214282 0.6397766 0.50464106 0.31074598 0.15629525 -0.024444709 0.15074244 0.57148486 0.71298254 0.078964956 -0.31733668 0.5165124 -0.069609575 -0.32040328 0.3256284 0.2919609 0.10960963 0.11469983 -0.12357834 -0.6540071 0.0011017312 0.037625574 -0.058732197 0.029469108 0.006262793 0.17696935 -0.31942323 0.712722 -0.16148669 -0.95871013 0.76379544 -0.15401247 0.049503747 0.32552648 -0.50887084 1.1471554 0.4826653 -0.06895157 -0.96823955 -0.16979626 -0.13066657 -0.15101281 0.5968554 -0.17106004 -0.18853955 0.47730193 -0.43278503 -0.06565541 0.022127671 -0.5448658 -0.06629074 -0.27382854
1043 -0.35047245 0.5418546 0.035412077 -0.13948812 0.7231757 0.13278973 0.22053215 0.2748248 -0.72972536 0.37705812 0.17719868 0.4913756 -0.83695173 0.7819875 -0.031553958 -0.96113616 -0.7025831 -0.30946562 0.079562314 0.292901 0.5459322 -0.19229035 0.054562423 0.025895867 -0.1885186 -0.08222465 -0.32538763 0.20612682 0.396012 1.0443215 -0.14029944 -0.22091736 0.019105343 0.8665209 0.7799289 -0.72377634 -0.31115004 0.3273981 0.018494021 -0.15655749 -0.14495145 -0.25463533 -1.2077818 -0.2325483 -0.43330207 -0.6769093 0.58793026 0.59322107 -0.04663733 0.10988244 0.187689 -0.53350896 0.27312657 0.3182292 0.098373644 -1.0817056 0.9450809 0.8632123 -0.09568306 -0.013964052 -0.041804712 -0.79540557 -0.1991104 -0.41593197
1132 -0.067682706 0.48394182 0.17654444 -0.2734812 0.4113535 0.14206001 0.8809302 0.4795995 0.1326625 0.19103397 -0.17975633 0.09296512 0.018228633 0.12690112 0.4298721 0.44479302 -0.35522002 -0.37027696 -0.122654915 -0.24826662 0.57815063 -0.36643293 -0.46905726 -0.20697927 -0.0067927544 -0.09023706 -0.49273005 -0.4267032 -0.26935667 0.21727 -0.056427933 -0.32225093 -0.38309574 0.008698076 -0.4306795 -0.51267064 -0.23818782 -0.3648807 -0.20026739 -0.11757676 -0.23278098 -0.7974567 -0.15638101 0.32281014 -0.43086636 0.28762874 0.7118524 0.35169327 0.3924412 0.76704466 0.2043917 -0.36175144 0.43325078 -0.85575986 0.13974509 -0.6462907 -0.59618145 -0.10860962 0.7714567 -0.3330236 0.009998799 -0.03157608 0.04832006 -0.33507797
1484 0.6174825 -0.6813421 0.3535526 -0.09425981 0.9933998 0.4084118 -0.41048825 -0.20805587 -0.28712586 -0.15526563 0.19763634 0.08602346 0.13459317 0.69037503 -0.16779304 0.3806487 0.44191772 -0.43526354 -0.57489127 0.7611772 0.32366827 0.17720836 -0.4733099 0.034594387 0.34481037 -0.45573616 -0.27578247 0.33835402 -0.14178257 -0.41694602 -0.08400688 -0.40685982 0.42747357 -0.1626031 0.07327749 0.17274185 0.43311417 0.0017489422 -0.29317996 0.06429944 -0.45202297 0.5423932 -0.40039372 0.46104276 -0.30555263 0.117339335 0.5578342 0.21862708 0.4289132 -0.013363328 -0.5660379 0.048017476 0.124095775 -0.52249205 0.2607941 0.37883303 -0.055399157 0.44418254 -0.7222993 0.59885085 -0.16147572 -0.99617153 -0.021917136 -0.44018045
96 0.12080543 0.79983115 0.36829197 -0.9277014 0.20157063 0.11802418 0.2980386 0.02845207 -0.18025814 1.0471852 -0.32871193 -0.048158433 -0.4394925 0.45840186 -0.15167542 -0.24442008 -0.23120484 -0.6985368 -0.042825177 0.25767884 0.25107315 -0.7998804 -0.22610897 0.09209096 -0.061167937 0.048131242 -0.31257442 0.09004578 0.5517411 0.15879305 -0.8467642 -0.2358347 -0.2816024 -0.2361661 0.49264845 0.2102037 -0.42360887 0.1768268 0.6403207 0.26188922 -0.53591406 -0.0031137974 -0.75681525 -0.378738 0.19075553 -0.67611194 0.16020039 0.073502354 -0.2145623 0.26989853 0.3397159 -0.42923066 -0.1857768 0.15926193 0.17182413 -0.48177114 0.26300764 0.4688483 -0.050440017 -0.51121354 0.11485003 -0.30345744 -0.26184183 -0.9000987
416 -0.14686176 0.35714513 0.8023682 -0.07357958 0.09211799 0.390358 0.21037193 0.1526095 -0.5087148 0.56742245 -0.38597247 -0.061503038 -0.83708745 -0.07645127 0.0809265 -0.06198419 0.01858683 -0.1866139 -0.42462012 0.45075122 -0.05391353 0.16466664 -0.5030156 0.023783067 -0.3856916 -0.014652787 -0.28383622 -0.06180726 -0.15383542 -0.60095644 0.15041097 -0.3790991 0.24677123 -0.11259797 0.623186 -0.46777737 -1.1291096 0.2192427 0.32438397 0.98208535 0.14252645 0.31965122 -0.12939467 0.70528364 -0.18668067 -0.4905528 0.27436718 -0.00036409285 0.24722151 0.26676163 -0.54285914 -0.94364125 -0.3698953 -0.13689116 0.3262065 0.23831141 0.0756041 -0.43194038 0.5408825 0.04634527 -0.4248201 0.16308853 -0.4716187 -0.17527829
964 -0.40204298 0.3054282 0.06218065 -0.58335346 0.763329 0.1129785 -0.21975213 0.54605895 -0.48813134 0.10256211 -0.812765 0.0001405024 -0.24381359 -0.447724 0.32041374 0.5727799 0.08916038 0.754419 -0.9259304 0.18418035 0.81130487 0.4393444 0.021236446 -0.2923342 -0.49345475 1.555722 0.46017897 -0.17742194 -0.41102844 0.2631978 -0.054448172 1.1937973 -0.19578575 -0.78252417 0.28642312 -0.078672685 -0.25249508 0.3015589 -0.05496284 0.0055027194 0.09793342 -0.053863723 -0.58250743 -0.0912736 -0.70166403 -0.65152556 1.1916935 0.5257157 0.67222244 0.08822861 0.1381739 -0.56609523 0.5235507 -0.6428559 0.7216691 0.06566832 0.16029234 0.12099728 -0.29431137 0.4048928 0.66687006 -0.060738314 0.13019285 -0.38055578
119 0.33860317 0.24079993 0.21162312 -0.5008285 1.0901302 -0.16481839 -0.13846852 0.60311747 -0.13956787 -0.14566492 0.030512432 -0.6807513 -0.54568714 -0.17989726 0.332606 0.041352283 0.32917038 0.015970657 -0.28725466 0.8315052 0.18100187 -0.8554905 0.053174805 -0.382365 0.31512296 -0.8806721 -0.078762375 -0.14188531 -0.75183356 0.42676857 0.15937877 -0.68444693 0.34772754 -0.06283683 0.0977446 -1.0852878 -0.0017277851 -0.33062202 0.27691016 0.23384406 -0.36384824 -0.24229267 0.15869974 -0.08736478 -0.37794828 -0.119664036 0.9764089 0.06625262 0.14311966 1.0133486 0.8925353 0.29173905 0.47525322 -0.5164285 0.2030539 0.73985976 0.5043254 0.07655932 0.5750192 -0.08431282 -0.48130754 -0.42040238 -0.7108901 -0.19342628
2183 -0.00077380036 0.31981614 0.35680404 -1.1336064 -0.23422647 0.8379376 0.19597426 0.62678605 -0.41559854 0.39671832 -0.70679736 0.17581299 -0.77714103 0.62363046 -0.10623993 -0.24848579 -0.017799199 -0.31593436 -0.5684764 0.70239776 0.41665116 -0.23710297 -0.19322821 0.40802133 0.41977927 0.16940087 -0.084647685 -0.51021475 -0.37285584 -0.60255694 -0.45234415 -0.108145185 0.14609385 -0.03012523 1.0376954 -0.03591441 0.16120547 0.74881727 0.20044866 0.7355322 -0.12711193 -0.040663507 -0.32181624 -0.4243962 0.40582383 -0.3696495 0.17040236 0.0859086 -0.35183567 0.56413954 -0.24959114 -0.68650144 0.10008674 0.15330829 0.57902354 -0.46038964 0.15444098 -0.07278462 0.15496619 -0.17909414 -0.21633746 -0.16930069 -0.22066198 -0.8300734
1693 -0.5990744 0.6859031 0.9936165 0.42151663 0.44346052 -0.8540427 -0.6308179 -0.017691279 0.75926733 1.1435014 -0.27398804 -0.2426444 -0.6446954 0.57224303 0.5734113 -0.86304677 -0.89315903 -0.63391256 -1.3113232 0.3251902 0.5140647 -0.6914758 0.42817798 0.24872603 0.002141348 0.109729804 -0.33682653 -0.14007223 0.40461487 -0.67898405 -0.16035424 0.51927745 0.6968492 -0.16372716 0.7201413 -0.17194991 0.34406427 -0.6241196 -0.08637928 -0.15759462 0.093960054 0.004067233 -0.97788465 0.12750934 -0.9837164 -0.62653965 0.18166223 0.8335559 -0.042392243 -0.25188005 0.014157644 0.6627419 -0.13618253 0.33791643 1.0093526 -0.84386116 -0.16553502 0.5650287 0.63269734 0.49025422 -0.3264095 -0.048250698 -0.09880198 -0.77621055
1258 0.343935 -0.23553862 1.1932809 0.54091406 1.0549339 0.66891277 1.2690768 -0.18756427 -0.5820959 0.57233757 -0.38225633 0.4002082 -0.4465025 0.12549609 0.1700883 -0.93616277 0.950728 -0.4818963 -0.58379334 0.046478104 0.22565764 -0.46496394 -0.23686405 0.43314445 0.47613797 0.6279969 0.2721807 0.6877423 0.10700585 0.23012646 0.4500962 0.68471676 0.9391931 -0.06927767 0.103153385 -0.07962198 1.6416875 0.37848982 0.105341226 -0.059881695 -0.48954436 -1.6685364 0.50082225 0.53686106 0.5531899 0.18945186 1.127542 0.5188876 0.6443648 0.5782665 0.26476115 -0.6001271 -0.5732853 0.0808026 0.010624272 -0.00097209756 0.39745042 -0.35753632 -0.82347184 -0.25349063 0.04730039 0.70742565 -0.18850093 -1.148125
1414 0.55039626 0.13814257 1.2282363 -0.40771756 -0.4701352 -0.8051003 1.0108508 0.4685741 -0.0058095497 0.11953528 -0.5573075 -0.47162744 -0.6989316 -0.17116478 0.6463509 -1.0728155 0.33221248 0.7093364 -0.1839324 0.94000113 0.09584909 -0.5961193 -1.2315115 1.0512583 0.64096117 -0.24770103 0.2675963 -0.07774908 -0.67124474 -0.20686857 -0.2516919 1.0536374 0.3216691 -0.069572285 -0.36486953 -0.78412616 -0.10532905 -0.6211128 0.30914354 -0.6878156 -0.10459463 0.24250652 0.7339699 0.27223513 -1.312523 -0.9303048 -0.18515795 -0.34586322 1.6216356 0.76888967 0.09345518 0.1564715 -0.6249257 -0.10603019 -0.12443563 -0.3091937 0.026726428 0.0648005 -0.6812716 -0.1006592 1.1098944 -1.0437512 0.7505803 0.34195322
508 0.6253482 0.2891511 1.1483735 -0.64550126 -0.47281942 -0.9702579 1.1772511 0.3647342 0.1291734 0.55456334 -0.9203081 -0.4307341 -1.0041726 -0.35609746 0.5563927 -1.0000488 0.5300951 0.63085115 -0.023305515 0.79741746 -0.059709217 -0.20480902 -1.6178169 0.83480936 0.28535807 -0.29884675 0.43009964 -0.08898714 -0.9303216 -0.20446648 -0.2530539 0.6623654 0.36673304 -0.045961197 -0.52970296 -0.7088462 0.04977906 -0.16909544 0.31627178 -0.5253588 -0.37188435 0.4237221 0.2052587 0.07299566 -1.3607492 -1.1967586 -0.2508877 -0.7189052 1.128379 0.47113946 0.16383557 0.42764193 -0.52318954 -0.08706607 0.41875848 -0.48223057 -0.30978668 0.15279523 -0.95731664 -0.50790364 1.1987064 -0.92949235 0.42518774 0.21399824
1417 -0.64930207 0.6597725 0.514526 -0.46218896 0.45708573 0.09723609 0.3771802 0.26081866 -0.48486963 0.6737507 0.2216302 -0.09208347 -0.678197 0.3070136 -0.7036463 -0.63186055 -0.28140447 -0.3392297 0.78611463 0.064083226 0.32223874 0.39850315 0.14996271 0.6238425 0.11902704 -0.25015807 0.4250619 -0.48772028 -0.48560676 0.65080583 -0.11739633 -0.41597554 -0.29132095 0.51039267 0.33598948 -0.54878783 0.06932939 -0.26077464 0.31844008 0.20162953 -0.33100957 0.31856313 -0.66478175 -0.4148408 -0.28337705 -0.4593851 0.18798597 0.9210051 0.6767914 0.37467116 0.5460035 -0.776395 0.16839698 0.29151723 -0.020657243 -0.78704745 -0.44654644 0.26015103 -0.32138318 0.24830517 -0.20808756 -0.315289 -0.030220585 -0.05975652
2156 -0.15873787 0.5077878 0.11964841 -0.59062123 0.49695566 0.1542046 0.5097465 0.5474559 0.013884633 0.7291603 0.7379494 0.20718218 -0.32063863 0.4547646 0.60026735 -0.059559934 -0.19780064 -0.21142201 0.42074302 -0.083304666 0.7167255 -0.22424753 0.2286166 0.29241958 -0.069584765 0.28584325 -0.07562689 -0.18944438 -0.21418495 0.37627873 -0.1560153 0.21256132 0.0030516777 -0.2140708 0.3000232 -0.78187305 -0.7724424 0.24983351 -0.17495094 0.10565807 -0.9448407 -0.2680281 0.0012014803 -0.07843628 -0.7822204 0.22550449 0.4127491 1.0369003 0.40467817 0.67784935 0.016760223 0.24638657 0.17725095 -0.35253164 0.16335084 -0.65778434 -0.21353014 0.33405772 -0.23440489 -0.8054249 -0.21987908 0.07648967 -0.06772932 -0.11280351
1704 -0.8282399 -0.00500224 0.20739041 0.45833284 1.0531806 0.25522268 0.42625347 0.44980538 -0.73874086 0.5772037 -1.0010905 -0.2686214 -0.29518342 0.074714884 -0.24186806 0.67765296 -0.27672753 0.872992 -1.0246006 0.59574556 -0.19086571 0.4514408 0.5100188 0.39649236 -0.3311684 0.279069 0.75748676 -0.8763285 0.12272721 0.34122902 0.03866676 0.81725174 0.0840004 -0.7013906 0.40730575 -0.008992377 0.22741069 -0.033231284 -0.02727681 0.03973995 -0.12131204 -0.108620755 -0.56867355 -0.029241081 -0.7886908 -0.3026638 0.82839054 -0.1636137 0.11792776 0.20217627 0.7105943 -0.21529245 -0.49817026 -0.4717233 0.008301884 -0.58926326 0.08013564 0.014686602 -0.44018742 0.51180243 0.0044052005 -0.3792679 -0.122867115 -0.18287157
974 -0.022534128 0.118065104 0.16424213 -0.37104663 0.282756 0.1593051 -0.53525937 0.10487576 0.2588168 0.95292413 0.15429221 -0.49425918 -0.8441972 0.34501037 -0.20402783 0.31603053 -0.15674983 0.15891895 -0.43448293 0.6158704 0.17804673 -0.40217704 -0.24377078 -0.53618103 0.10764688 0.22748594 -0.10420922 -0.150316 -0.95139194 0.19390051 -0.09501679 0.29539132 -0.08311677 0.16045028 0.34683016 -0.45620066 0.16734804 0.631854 0.16373892 0.39034095 -0.21324733 0.12219687 -0.31703347 0.38203076 0.234142 0.3730671 0.8421095 0.48641518 0.46840376 0.09955757 -0.3700198 0.29023722 0.15232655 -0.52512705 -0.27620867 0.45068178 -0.33464578 -0.14048795 0.38084605 0.03963434 -0.24736011 0.2463282 0.11545227 0.251804
430 -0.3827483 0.6180775 0.624933 0.4748644 0.20861301 -0.20430668 0.22079648 -0.4658946 -0.11348994 0.25491813 -0.50989723 -0.0077165165 0.030841898 0.48786968 0.22547024 0.015359249 0.11124631 -0.448834 -0.29604483 0.0009837021 0.37669 -0.31213436 0.5851379 -0.30349427 0.68415636 0.87636405 -0.42646843 -0.32838655 -0.3478079 0.8489415 0.41127068 0.22902173 0.7270403 -0.0606965 0.30335748 0.19960977 -0.1461587 0.120169304 0.27030003 -0.23996249 -0.54547274 0.05900594 -0.339263 0.50511044 -0.22867711 -0.20585321 0.1760021 -0.22603682 1.4389129 -0.5852243 0.6969571 0.55425256 -0.40854162 -0.16327228 0.8653142 -0.86161375 -0.020531522 0.22591464 -0.35630864 -0.26640615 -0.47432074 -0.84647334 -0.7405822 0.4735382
1766 -0.3416866 0.5692454 0.449308 0.293481 0.44444743 0.46023327 -0.04865252 -0.91524214 -0.02995163 0.35444883 -0.25149345 -0.4466783 -0.24623987 0.8313187 0.20487405 -0.113147296 0.12296294 0.0342001 -0.31091988 1.0679696 0.5025496 -0.044635262 -0.28213793 0.0025062796 -0.19010925 -0.2118791 0.11473814 -0.23716094 0.3058985 0.00585939 -0.3691813 -1.2142048 -0.015460819 -0.29688686 -0.25493586 -0.41460958 -0.037771117 -0.049544282 -0.24750209 0.3803767 -0.0533087 -0.5473511 0.7765384 -0.09851732 0.12621568 0.17997046 -0.19149847 0.866347 0.43006822 -0.376684 -0.37111267 -0.03093931 -0.006467652 -0.28587785 0.3301664 0.36503562 -0.00996412 0.3879602 -0.36885518 0.30205533 0.5073756 -0.4073603 0.11079865 0.12958209
437 0.31486794 0.11243021 0.51033455 0.55043405 0.5830342 -0.100444734 -0.1504368 0.4995806 0.095815755 1.4256656 -0.054926485 0.60889506 -0.3652709 -0.43639296 0.13629635 -0.015179747 -1.0732075 -0.5340636 -0.16069432 -0.007828399 0.468337 -0.14335366 -0.61826766 0.12466128 -0.16978106 -0.038534965 0.19653752 -0.9933842 -0.33203045 0.08817221 -0.50454575 -0.32279637 -0.053177856 -0.21900931 -0.5524087 -0.1698366 -0.39671862 -0.39891386 -0.1392165 0.171249 0.079199634 -0.66641235 0.45238623 0.72231436 -1.0751321 -0.29759806 0.73871714 0.7363789 0.5804356 0.4741496 0.35079995 -0.64194083 0.36634347 -0.20230554 -0.16891636 0.31318855 -0.5775534 -0.1695764 1.1213051 -0.20371558 -0.16090009 -0.38306883 -0.13103998 -0.7768068
1104 -0.28840244 0.7491097 0.39044034 0.14710407 0.9619265 0.16691881 -0.66110444 -0.73078406 -0.07664059 0.057396486 -0.14057939 -0.43485856 -0.21318325 0.08204079 -0.0010216777 0.2384185 0.41251573 -0.6466631 -0.063170955 1.2809634 -0.085301615 0.3602534 -0.518124 -0.22921179 -0.37354234 0.1254229 0.040404625 0.44544974 -0.22172266 0.5877879 -0.37437335 -0.6846816 -0.49058592 -0.15634009 -0.6596214 -0.30602473 -0.0033080461 0.6938846 -0.03117643 -0.04048278 -0.08243396 -0.5140089 0.81641483 -0.4753649 -0.9623174 -0.37500235 -0.035133846 0.40178576 0.31409368 -0.2087175 -0.62590015 -0.25847352 0.043336518 -0.6859775 0.6714666 -0.15282923 -0.010783306 0.02937627 -0.23966059 0.038222812 0.14946146 -0.9018928 0.26542947 -0.08860162
2395 0.18228118 0.7532681 1.4382823 -0.07671566 0.66403604 -0.03149037 0.14363992 -1.0233071 0.016645608 -0.2887325 -0.4866469 -0.1292946 -0.26168415 -0.26923403 0.35291195 -0.10943364 0.41960874 0.82913095 0.2677019 1.2956312 -0.7544375 0.014949347 -0.5230862 0.33781973 0.06675339 0.21911111 -0.35890326 -0.09736409 -0.64374685 0.27574986 -0.7124637 0.5584944 0.058263034 0.56938946 -0.086287916 -0.90141463 -1.3810685 0.49317354 0.94956857 0.875463 0.28147864 0.3941716 -0.59089 0.6603115 -0.027321992 0.36030647 0.3696216 0.795684 -0.033759814 -0.115289085 -0.35420656 -0.7704336 -0.00016763536 -0.59444475 0.06412514 -0.1330092 0.1799894 -0.5506601 0.8970665 -0.17711328 -0.27869076 -0.43748364 0.029378178 -1.0281668
662 0.479144 -0.094559215 0.89852816 -0.26311734 0.7562983 0.38049534 -0.05357908 0.027556792 0.7165315 0.21974766 0.24900492 -0.5281156 -0.21268003 -0.28730425 0.09513559 -0.087062344 -0.4287796 0.16521561 -0.09655594 0.15429302 0.29197297 -0.86644185 -0.03451841 0.18830775 0.32441816 0.6764737 -0.13100503 0.30856004 -0.98403597 0.19697784 -1.1745309 0.11341561 0.03783756 0.07827845 -0.16599828 -0.56488204 -0.25885713 0.24298273 -0.5743629 1.4274819 -0.55065715 -0.047947314 -0.31543314 0.57382375 0.059403323 -0.16918078 0.26111522 -0.5463702 0.7544201 0.17662503 -0.091417775 0.13535658 0.140072 0.60241777 -0.35437652 -0.19625314 -0.2431599 -0.44911832 -0.06734877 1.1313026 -0.108573146 -0.10950313 0.493093 -0.012001373
2002 -0.8324972 0.4370815 0.20377868 0.35981527 0.20409824 -0.5139435 0.11614888 -0.1371588 0.45360738 0.8400175 -0.28808382 -0.0011963442 -0.22250555 0.59045637 0.8303937 -0.5214571 0.10890699 -0.57398903 -0.67955095 0.2785683 -0.20163973 0.6879795 0.28021017 -0.29282537 0.81123686 -0.06467879 -0.35970035 0.16806127 -0.49395865 0.14770259 0.08857735 0.40831524 0.24177012 0.017895836 0.42742908 -0.22244343 -0.38975438 -0.40275863 -0.26821184 -0.36487633 0.4031192 -0.38695654 -0.3185894 0.008014369 -0.37221476 -0.8250378 0.24398942 0.05725787 1.0726217 -0.6192631 0.34538692 0.3006424 -0.3824783 0.329288 0.67256355 -0.1826903 -0.03468249 0.37111443 -0.27653122 -0.32004347 -1.0074362 -0.27556404 -0.44058695 0.23917328
1625 0.38095555 0.056297436 0.47005385 -0.35522056 0.88074374 0.37338278 0.24891873 0.5772046 -0.41694888 -0.073905304 -0.5852925 -0.803126 -0.15216844 -0.1426473 0.062025614 -0.5343728 0.15940091 -0.5846752 -0.95579 -0.37197545 0.6802328 0.3943056 -0.5021861 0.31993908 0.123085834 0.047595248 -0.08727471 0.0049189404 -0.015572603 0.8895157 0.3073501 0.54661787 -0.61362416 0.011500428 0.39890397 -0.25794855 0.34714395 0.30462745 -0.4325886 0.28548092 0.41988805 0.087984525 -0.20139839 0.35813284 -0.2665147 -0.9590871 -0.43881667 0.5462356 0.6735509 -0.1103076 0.35447332 0.358825 -0.22577262 -0.14529505 -0.16201654 0.7498996 -0.35914147 0.0012744564 -0.05418889 -0.27054152 -0.05782822 -0.3278562 -0.039804574 -0.43558472
1629 0.39416733 0.77075475 0.6060811 -0.6182554 0.4030404 0.5090484 0.7585641 0.16494465 -0.5234788 0.08415105 -0.44116372 0.4931368 -0.57312775 0.28450194 -0.16030619 -0.3293548 -0.22617185 -0.2758392 -0.3649742 0.50654167 0.14181681 -0.2941656 -0.15566276 0.20433865 0.33107132 -0.51938736 -0.7021715 -0.5670733 0.121377066 0.21800788 -0.4731275 -0.11669371 -0.0682918 -0.0126252845 1.4705491 0.5511608 -0.34804863 0.59228456 0.45349917 0.69694984 -0.04285813 -0.3360364 -0.5551849 -0.038389776 0.2886128 -0.6711338 0.13245347 0.3946615 -0.25019535 0.21520796 0.4628579 -0.49191558 0.11428332 0.39037862 -0.012649318 -0.9375937 -0.13262379 0.6142991 -0.085429154 0.05882173 -0.1339655 -0.43878475 0.13955648 -0.9020303
2249 0.7318241 -0.5369913 1.0044142 0.5843145 0.7655847 0.44330093 1.3766983 -1.1140765 -0.20741726 0.99011976 -0.32399657 0.061010204 -0.5814467 -0.1503071 -0.20858082 -0.47258693 1.0381829 -0.6381282 -0.3815125 -0.200486 0.5446324 -0.4548601 -0.6336065 0.077586524 1.1401743 0.7226102 -0.19620155 0.74320275 0.14011933 0.14140242 0.2943441 1.2526368 0.6141698 0.29978284 -0.016884565 -0.35678288 0.7240749 0.62025934 0.43131635 -0.69361675 -0.86107045 -1.0831716 0.66737086 0.4268412 0.33509588 0.42273828 0.6689945 0.25163084 -0.153081 0.27467915 0.48514166 -0.6848624 -0.29264474 0.16912949 0.56655955 -0.106061526 -0.23819852 -0.5546151 -0.47916368 -0.17537257 0.42314965 0.03070102 -0.39420062 -1.5616566
1726 0.64163476 0.3945039 0.7156074 0.05051628 0.31833175 0.31661892 0.17765816 -0.23303324 -0.04227055 -0.37222278 0.27836025 -0.53805256 -0.19517596 0.5439741 -0.12827758 0.47159198 0.1766446 0.16774575 0.2786609 0.70613724 0.91333985 0.37894258 0.031330954 -0.20591745 -0.44528213 -0.43868372 0.21927506 0.38461006 -0.41160876 0.1314757 -0.22152749 -0.10750407 -0.21077113 -0.541663 0.2249094 -0.005282739 0.45064002 -0.31908274 -0.101501286 0.25326988 -0.61119074 -0.7546957 0.16069984 0.18469003 0.09801651 -0.59408194 -0.053390242 0.749797 0.2678737 -0.008740059 -0.6274004 -0.15175997 -0.5492317 0.07439151 1.1147021 -0.07717775 -0.49694213 0.095982775 -0.20666485 0.08437594 -0.16672319 -0.24504144 0.11045413 -0.13630854
2672 0.01763996 0.43312082 0.95976 0.02430197 0.91644543 0.39508238 1.0016761 -0.24134803 -0.7905719 0.546457 -0.38053724 0.14173007 -0.18401691 0.08245708 0.5718036 -0.9334155 1.1950102 -0.65806544 -0.7799152 0.047891628 -0.0076597123 -0.7645186 -0.39941657 0.4706813 0.4417754 0.4142461 0.33686766 0.31732732 0.52309984 -0.22162002 0.6341204 0.6595468 1.256423 0.51913786 0.008550618 -0.6229017 1.4478145 0.50095403 -0.032934576 0.37383956 -0.43362936 -2.0874236 0.99136204 0.521582 0.6141 0.2871785 1.3754898 0.39365527 0.59878236 0.4418309 0.5089817 -0.79587924 -0.17332304 -0.018849013 0.58540213 0.38246813 0.54739875 -0.31282285 -1.0877899 -0.63351786 -0.5974018 0.5552376 0.23417902 -1.0333833
1310 -0.450553 0.42734662 0.78499013 0.36712217 0.48745316 0.12757725 0.47440758 -0.21643907 -0.30614415 0.4017682 -0.33366698 -0.5801944 -0.8466471 -0.508925 -0.5463464 0.15273155 -0.48936126 -0.08101574 -0.34814602 0.31917948 0.11710553 -0.41598323 -0.45375788 0.6927314 -0.30314317 0.18694228 -0.100469686 0.21400431 -0.1917853 -0.37148485 0.052691367 -0.40787426 0.39937386 0.44045106 -0.25420713 -0.42244038 -0.23838873 0.0015318621 -0.035132077 0.8588778 -0.29184598 0.61066264 0.13060845 0.20138367 -0.19007018 -0.33901995 0.33965918 0.012635496 0.7825142 0.40783498 -0.9262777 -0.9195653 -0.23143478 -0.13153191 0.0013631583 -0.19737299 -0.18470469 -0.2549805 1.0304705 -0.43795878 -0.49394184 0.025666231 -0.2454168 -0.21788014
1974 -0.3151395 0.35884264 0.79658717 -0.54210067 0.30736825 0.12441253 0.8082734 0.22847435 -0.02279393 0.17325006 0.77024597 0.12610027 -0.7472553 0.8197131 0.38979822 0.25950512 0.08335593 0.5651057 0.08763391 0.44335738 0.161798 -0.10955176 -0.061846085 -0.267602 0.23706195 0.574175 -0.55427766 -0.051813293 -0.29636496 -0.804282 -0.43421176 -0.015116996 0.19926131 0.03207653 -0.047319166 -0.40797892 -0.5239943 0.56562847 -0.34084466 0.65697473 -0.20215234 -0.31519744 -0.6162179 0.2421189 -1.0056717 0.6755309 0.044654146 0.13994889 0.41417632 0.13265997 -0.22894697 -0.8140101 0.22496983 -0.8333961 -0.2789717 0.44264728 -0.17299275 -0.8530092 0.11705535 -0.46314186 0.056642562 -0.5279703 -0.06808441 -0.9412643
1895 -0.5606926 0.009621473 0.25754187 0.05497141 0.55391306 -0.6879532 0.19913696 0.39371744 -0.30048156 0.70133156 -0.7069837 -0.44972062 0.27669287 -0.3156247 0.109930195 0.31854746 0.06899516 0.16375047 0.25538367 -0.138013 0.007164856 -0.7222044 -0.11960848 -0.05829012 0.19627169 -0.352796 -0.32480502 -0.31125417 -0.35238832 0.1505065 0.054121803 -1.1461476 -0.19448736 0.21155687 -0.017486088 -0.39139223 0.11530932 0.23541427 -0.26520908 -0.41337043 -0.23211434 -0.7505669 -0.15240313 0.7577896 -0.3713657 -0.28372973 0.43240318 -0.21480365 0.015615004 -0.28595543 -0.03332269 -0.70582 -1.2620206 -0.49312317 0.07859112 -1.1124755 -0.79658115 0.19022463 -0.33462983 -0.24883324 0.37154424 -0.3660478 0.07123466 0.036711738
1230 -0.19100818 -0.7023247 0.23925674 0.27288637 0.7050325 -0.03408995 -0.23204969 -0.39006913 -1.0255532 0.41775972 -0.30451527 -0.53406763 -0.64388615 0.6570695 -0.9216605 -0.41408294 -0.46179426 0.22331251 0.2987541 0.5175837 0.79053104 0.3762121 -0.5329908 0.62393135 -0.6293897 -0.17148176 -0.90957564 -0.021052046 -0.6353198 -0.2060486 -0.47575012 -0.13732593 -0.5924578 -0.50541675 -0.1350703 -0.86352265 0.058332026 -0.117737494 0.0105776135 -0.13621639 -0.26266834 -0.604084 0.33473888 -0.018212939 0.16963872 -0.5600603 -0.27228427 0.24596857 0.20892073 0.041194443 -0.7340473 0.02589901 -0.90009075 -0.29455996 0.83185625 0.33000255 -0.116176195 0.45285547 -0.5447968 0.09259805 0.12702036 -0.47809908 -0.2992297 -0.3871304
311 0.43247297 -0.24019867 0.57827854 0.20407593 -1.0249732 -1.0147803 0.08584139 0.9740215 -0.10275452 0.0056349435 -1.1665988 -0.6568903 -0.67287785 0.8505913 0.5722445 0.3732559 0.063782275 -0.012593699 -1.6266297 0.4061863 0.9753215 -0.71459794 -0.17428808 0.44370496 0.54263186 0.968795 0.04845512 0.22155465 -0.41328734 0.45779502 0.3260603 0.14448026 -0.063605934 0.2453704 -0.36697787 -0.82266843 -0.14306544 -0.59521794 0.8508165 -0.34878772 0.61840886 -0.2558862 -0.40948582 0.110562146 0.3892588 -0.013085805 0.2551348 0.6135586 0.046692412 0.6667499 -0.64403874 -0.060333505 0.17780507 0.11619235 0.090626925 -0.82025146 -0.88869816 -0.126999 -0.8993508 0.011085317 0.2571947 -0.9937341 -0.8995444 -0.5030309
688 0.4558694 0.7864552 0.4346072 -0.100193776 0.68035805 0.18723994 -0.16472356 -0.30784878 -0.1305413 0.059504613 -0.18617658 0.17934191 0.41533494 1.0625128 0.38078722 0.31172642 0.7737486 0.40384015 -0.06708902 0.59316254 0.45074812 0.08901305 -0.114366636 -0.0051367977 -0.4157716 -0.2930085 -0.091536455 0.05175154 -0.24120525 -0.07922693 -0.32475716 -0.28806663 -0.309219 0.32683158 -0.07069334 0.12434581 0.20252381 -1.0994092 -0.11946388 0.27788845 -0.345869 -0.26200575 0.3089295 -0.030749608 -0.089902215 -0.21314968 0.43515274 0.70742947 0.19706228 -0.1292366 -0.15391876 0.40612465 -0.9082629 -0.14311346 0.61459506 -0.058932066 -0.033853192 -0.011247332 -0.37612453 0.122685045 0.62942785 -0.20011215 0.13563372 -0.5737
1741 0.25713745 0.13103801 0.6749397 0.15592866 0.3318325 0.19386588 -0.592027 0.070090644 -0.26147872 -0.27132788 0.48165995 -0.6904358 -0.39088947 0.36612612 -0.35678053 0.5074468 0.013532568 -0.054674525 0.069187716 1.0207615 0.3828206 0.7869739 -0.20267327 0.29761577 -0.23349632 0.034721643 -0.06828345 -0.27283815 -0.065822765 -0.33457133 -0.8317346 0.25861716 -0.20608014 -0.120428324 0.039759867 -0.69126356 0.36990908 -0.30218825 -0.20124404 -0.14669645 -0.7126043 -0.7045262 -0.2805963 0.69026953 0.2653806 -0.3078357 -0.43427095 0.62429583 0.4152197 -0.2365838 -0.65420675 0.16135658 -0.75057334 -0.4806902 0.99512404 -0.06380999 -0.46101588 0.58371913 -0.08323655 -0.4085222 0.029814238 -0.07592346 0.59429085 -0.2996313
2368 0.8369729 0.34169552 -0.0033247694 -0.3587057 0.86055315 -0.6831456 0.18835579 -1.0831307 -1.1647941 0.7163151 -0.19104743 -0.24896108 -0.522607 0.28877485 0.37363023 0.817035 0.72608674 -0.91126066 -0.65716755 0.542911 0.01911364 -0.87187517 -0.3961769 0.5147981 0.632759 0.953663 -0.46481138 0.7738846 -0.091420606 0.011686989 -0.7991807 0.27468744 -1.2278422 -0.610818 1.5408602 -1.3640164 -0.23583607 0.1428456 0.3341511 -0.46238518 -0.5378767 -1.4018526 -1.4604658 0.09700245 -1.3940382 -0.49142942 -0.5079193 -0.4781748 -0.094597496 -0.35991758 -1.1958007 -0.47802013 -0.57559544 0.15707283 -1.0511408 -0.7753349 0.0031078458 -0.5837739 -0.599086 0.41656977 0.086876296 0.3591778 -1.240542 -0.072357215
1928 -0.60519135 0.8094528 0.8058328 -0.14682297 1.1663475 0.096686795 0.99998194 0.29298967 -0.28388295 0.47101635 -0.11264662 0.2182454 -0.39413708 -0.42193907 -0.070350416 0.1869032 0.03880978 0.03297072 0.8499162 -0.034132406 0.22282419 0.21540636 0.43705156 0.99911785 0.37394506 -0.55374753 0.817625 -0.5530597 -0.3414866 0.666743 -0.33898252 -0.114120714 -0.23947676 0.10673096 0.053279098 -0.5805821 -0.36962366 -0.10402939 0.5013814 -0.4164592 -0.98795897 0.41045767 -0.6349388 0.107951395 -0.4973516 -0.12191306 0.6696623 0.3435594 0.66099477 0.95710087 0.042967465 -0.52194726 0.28797644 -0.55199486 -0.016728275 -0.33035487 -1.0453067 -0.0052263513 -0.7079119 0.3195659 -0.85410035 -0.14569356 -0.028201956 0.42635036
1951 0.5898399 0.12246202 0.6826605 0.124773555 -0.69248766 -1.1562808 0.23541819 0.7055014 0.10645809 -0.2394392 -1.4167895 -0.74624723 -0.91884214 1.0798866 0.7321124 0.39803037 0.45636418 0.076370314 -1.5470822 0.13250408 0.65158296 -0.8704588 -0.33715707 0.39565858 0.5694934 0.8361947 0.11683593 0.23268302 -0.3105375 0.54150313 0.65256345 -0.2655233 -0.23327823 0.11572146 -0.27684584 -0.76421875 -0.17881182 -0.53346384 0.64828664 -0.38995355 0.4760973 0.026144642 -0.49130514 0.3181083 0.098282374 -0.0857989 0.25040478 0.034060843 0.20576432 0.4902317 -0.53305674 -0.4430311 -0.23864688 0.27860346 -0.15562226 -0.77185357 -1.0624036 0.49416348 -1.2575353 -0.1325302 0.5882036 -0.7943545 -0.5850097 -0.5879486
646 -0.23054948 -0.17050284 0.27899048 0.10548306 0.48175725 -0.16874436 -0.28942415 -0.47407088 -0.76550233 -0.2251228 0.7415424 -0.37816063 -0.46090728 0.31053483 0.2543678 0.43382102 -0.8841609 -0.5846894 0.1466759 0.40562403 0.18589558 0.018248662 0.14233224 0.19911693 1.1855534 -0.17458665 0.5214957 -0.80847055 -0.61692107 0.39990887 -0.37844884 -0.1048067 0.16702193 0.12332969 -0.59150726 -0.70350415 0.017612875 -0.27856576 -0.040952176 0.6270483 -0.3823226 -0.7576232 0.67481863 0.25222594 0.23161118 -0.18917236 -0.45488536 -0.12449526 -0.13164753 -0.32416782 -0.5632366 -0.57723355 0.22324233 -0.20704174 0.5021676 0.07527896 0.10846121 -0.445504 -0.6935564 0.28779516 -0.026441807 -0.53094995 -0.19262771 -0.5601051
240 -0.29780412 -0.41084352 0.16658993 -0.6967601 0.03762284 0.30081058 0.25810716 0.53208786 -0.27637622 -0.023822967 -0.40976128 0.18837291 -0.0058329306 0.4596362 -0.41423047 -0.5221196 -0.14684615 -0.02173092 -0.6412637 0.12644537 0.32108513 0.146096 -0.6667581 0.19123897 0.643805 -0.57815963 -0.15634392 -0.6789974 -0.23930542 0.24959974 0.013381977 -0.36024648 0.0073673585 0.44980174 1.0851939 0.5552169 0.0849339 0.081074364 -0.28679252 0.8835884 0.4801296 -0.26755807 0.005098591 0.14088567 0.13787542 -0.95318973 0.48140904 1.0028011 0.3765583 0.6989211 -0.3585991 -0.2172019 -0.105683364 -0.36263323 0.457828 -0.83761203 -0.55873185 -0.20018572 0.3906251 -0.10160466 0.065365724 0.21549769 0.22025937 -0.7956735
1743 0.6687674 0.20602973 0.6959049 0.8571594 0.3950517 0.14386837 -0.08708675 -0.4768746 -0.3945685 -0.2707523 -0.0060031805 0.07645639 -0.53662336 0.6822674 -0.4289466 0.062267266 0.4991013 -0.14051221 -0.46559268 0.36947778 0.91631126 0.039286625 -0.43192416 0.2753887 -0.05417985 -0.12864839 0.18252656 -0.316269 -0.23836115 0.32493374 -0.38232905 -1.0611168 -0.098101005 -0.13720307 0.14756666 -0.18923272 -0.47316313 -0.3113415 -0.42393234 0.63051856 -0.16147003 -1.094758 0.6433577 -0.508146 0.26040676 -0.16319963 0.007348509 0.24235971 0.46450004 0.5616174 -0.31644076 -0.008518303 -0.6834072 -0.19545302 0.52833045 -0.110219084 0.34099007 0.06995142 -0.8069146 0.2593609 -0.27762073 0.022385472 0.17145136 0.10497024
526 0.32876712 0.6941673 0.96916795 -0.61050695 0.45487684 0.5760042 0.28274778 0.24461523 -0.68268514 0.65282243 -0.48055163 0.13213195 -0.8017844 0.18713519 -0.35672584 -0.26847494 0.023806881 -0.74249595 -0.09162549 0.64429945 -0.06303628 -0.20244052 -0.32540527 0.2985167 -0.060960438 0.28949952 -0.5075435 -0.40028304 0.15671653 -0.686901 -0.28464347 0.040163174 -0.102735296 -0.45072496 1.3199579 0.21167669 -0.38958254 0.5668509 0.42969579 0.71469486 0.16305335 -0.4024562 -0.29512182 -0.018989006 0.36032242 -0.5951201 0.17130573 -0.22562511 -0.42591614 -0.14559114 0.31429365 -0.69948155 0.49943766 0.100647636 0.0834574 -0.7636618 0.003919915 0.29374778 0.17929463 -0.4173686 -0.20524648 -0.646475 -0.16052231 -1.2432019
74 -0.09632522 0.46692786 0.19669005 0.11390728 0.66741943 0.22047633 -0.06605509 -0.6240592 -0.26374656 0.120329045 0.040443216 0.30037236 -0.21086611 0.5438236 -0.05770349 0.48748627 0.40809274 -0.7935378 -0.31031165 1.1450533 0.832714 0.7538292 0.15261821 0.20964783 -0.4531883 -0.5594311 0.21115007 0.004032906 -0.2950288 0.31450787 0.013347047 -0.062412098 -0.24599113 -0.33617505 0.0027808938 -0.63663596 0.40283003 -1.0555581 0.5966665 0.08759833 -0.4380261 -0.19430694 0.3994325 -0.30295604 0.023541097 -0.041794732 -0.111736305 0.17060976 0.48750514 -0.5700022 -0.42093498 0.5169413 -0.22302917 -0.7291786 0.8123166 0.025879273 -0.8065702 -0.31759092 0.16319989 -0.08141661 0.380682 -0.34993386 -0.16819721 -0.5711497
1016 -0.49491435 -0.07173809 0.022939503 0.21054076 -0.04400361 0.82755715 0.3025445 0.0970454 -0.40193155 0.35728684 -0.30466306 -0.58185875 -0.41298416 0.4428484 -0.016048178 -0.50402653 0.2998768 0.6688598 -0.6196498 -0.1491887 1.2190883 0.27937487 0.6375592 -0.18133517 0.38275272 0.36412716 -0.5643684 0.4963601 0.29918823 0.7731302 -0.0972491 0.6328544 -0.095651336 -0.250419 0.5831843 -0.31375736 -0.2906501 0.4940202 -0.07240699 0.30836332 -0.39836356 0.043670543 -0.3398231 0.24045475 -0.68007505 0.31344184 0.77577114 -0.03146451 1.1018227 -0.5399687 0.28954652 0.008630072 0.074522935 -0.48831937 -0.092124835 -0.17465602 -0.31414977 0.61391014 -0.43619356 -0.82485896 -0.7070793 -0.8627981 0.4481794 -0.5980311
2131 -0.018733878 -0.028155442 0.33718202 0.14777185 0.29005098 -0.6576846 0.87760586 -0.37951103 -0.3996203 -0.13668583 -0.7846481 0.23884617 -0.14283292 0.20342307 -0.12150388 -0.34644482 0.004862703 -0.48421913 -0.18191525 0.7978113 0.6322335 -0.5486422 -0.27644548 -0.042369116 1.0196648 0.9328975 0.7539095 0.04594396 0.18400612 -0.26360363 -0.15064588 -0.5963944 0.97831786 -0.7248356 -0.37685224 0.2999613 -0.05550982 0.5666742 0.3906069 -0.17557096 -0.32405335 -0.380025 -0.33063638 1.3109508 0.057114933 0.43833056 0.84498173 -0.06750698 0.75940645 -0.6182494 0.8964986 -0.648646 -1.2169493 -0.11479928 0.43922257 -0.0029648305 0.054176565 0.009587255 -0.60737383 -0.29119268 0.075783014 0.06375424 -0.6334564 0.20379192
1120 -1.2331551 0.41952926 1.1855979 0.62069815 0.76597106 -1.1102308 0.7942361 -0.0022461691 -1.02886 -0.53915197 -0.65842927 0.1823516 -0.054910548 -0.24089897 0.54864347 -0.6511142 -0.33317062 0.28370008 -0.11532339 1.2089956 0.6276491 0.5197416 -1.3255001 0.35034516 1.4047413 0.008149595 -0.3111412 -0.750925 0.6300734 -0.08032687 -0.9235771 -0.21670765 0.65744156 -0.46402237 -0.027814027 -0.6711483 -0.46075284 0.15751942 0.29790857 -0.28460717 -0.5352957 -0.9615907 -0.18200627 0.13081087 0.6780892 0.36883134 0.8914285 0.4451309 -0.080123305 -1.2945487 0.76750654 0.2266187 -0.54458934 -0.24436168 -0.75917435 -0.37882486 0.073551476 0.13224365 -0.09070458 0.88325346 0.28641573 -0.256306 -0.5528348 0.39005044
1967 -0.9778117 -0.3532497 0.15314792 0.25248694 0.959882 0.58482695 1.3183346 -0.21308814 -0.2257757 0.44428262 -1.1023206 -0.93951815 -0.4856993 0.7720098 -0.37856957 0.58588845 -0.72782904 0.81786644 -1.2316692 0.30400172 -0.14945295 -0.107642844 0.5884641 0.25155354 -0.55348694 0.030280536 1.1321667 -0.9107456 -0.063962065 0.029961621 0.14470123 0.6105933 0.07707685 -0.13348356 -0.1101438 0.32143033 0.1446842 0.3534033 0.460751 0.31306005 -0.87506187 -0.52337235 -0.29466733 0.15703772 -0.9653049 -0.13876677 1.0349747 0.022649009 0.6419826 -0.20650946 0.72363776 0.49187705 -0.7993941 -0.08017827 -0.038718995 -0.5654414 -0.25292355 0.31610778 0.30347604 0.74542594 0.5331969 -0.5809127 -0.31931853 -0.3709241
2465 -0.2360756 0.6435303 -0.010723867 -0.3038256 1.3249084 0.14053346 0.97787005 -0.9104325 0.96724164 -0.19972044 0.049841225 0.3536283 -0.2658794 -0.41575068 0.49900684 0.474261 -0.49699008 0.90230846 -1.4356328 0.59537137 1.4209191 1.4023322 -0.8811846 -0.28604558 0.0067550386 0.90431607 1.0469507 0.0600295 -1.0483266 0.26814905 0.23166575 0.6639083 0.6459731 0.11188261 0.49385834 -0.3809552 -1.2764637 0.046746198 -0.58376825 -0.18475366 -0.3398905 -0.55998343 0.07119787 -0.77752393 0.044217993 -1.3219734 0.7956383 -0.6611855 -0.053026143 0.12972854 0.15651916 -0.24955839 0.39088848 -1.6972337 -0.27584285 -1.4616382 0.22890197 0.77335286 -0.7473617 -0.19131656 -0.11847631 -0.00108618 -0.53507817 -0.2041994
578 -1.0446897 0.25455588 1.0805162 0.3594053 0.35735005 -0.38573396 -0.88295233 -0.66403776 -0.059463736 0.24658923 -0.036853895 0.007807667 -0.20083846 -0.08231564 0.9928996 -0.8593817 0.8293078 0.38167587 -0.28451884 1.0371296 0.75063986 0.54711807 -1.8968211 0.45859364 0.2369029 0.03983658 0.568438 -0.18054943 0.43123 -0.50756943 -0.664524 0.22926512 1.4491034 0.493102 -0.2283569 -0.16332816 0.15793331 0.113623984 -0.86297256 0.36069784 -0.2442443 -1.0227884 -0.94560266 0.7164443 0.35824692 -0.98577005 0.8012638 -0.29215652 -0.5614362 0.3975699 1.0966148 0.1301707 -0.13517828 0.16274744 -0.9052745 0.019139675 -1.0904229 -0.012349885 -0.53838074 0.6534556 -0.48729482 -1.3430505 -1.43921 -0.04057396
520 0.007551431 0.17329066 0.64243126 -0.1004735 0.4246636 0.30108985 -0.08915371 -0.050612956 -0.020701364 0.29481074 -0.46610916 -0.11580984 0.2718546 0.29243702 0.19845371 -0.35440192 0.2677381 0.16118743 -0.86707854 0.16855228 0.11266795 -0.3721113 -0.42804468 -0.52793485 -0.0014045422 -0.35242793 0.27617377 -0.27819046 -0.16209432 0.17146844 0.023006408 -0.018450521 -0.5992461 -0.0022644124 0.14051008 -0.5588709 -0.06796005 0.055401832 -0.16299401 -0.23634931 -0.12812175 -0.49015895 -0.79461473 0.6008931 0.10043605 -0.76707387 0.3980728 0.03146205 0.45972386 -0.33925208 0.21157888 0.4579567 0.12099575 -0.41975737 -0.09279665 0.46511626 -0.48733234 -0.38633257 0.16634552 -0.7270295 0.09913055 0.2535773 0.19780771 0.55843633
1051 -0.8320763 -0.5894366 1.0905584 0.70259184 1.8997622 0.24014154 0.9212444 -1.210739 0.00049536914 0.61584413 -1.0784645 -1.9411457 0.41378754 0.9578874 -0.16027668 0.16995907 0.18856913 -1.3097291 -0.69413656 -0.11783226 0.670406 0.1416081 -0.03828805 -0.73730636 -0.084459744 -0.09712726 1.65477 0.43811074 -0.17274392 -0.10238454 0.5280479 1.1714871 1.031559 -0.4915084 -0.16986457 0.5402804 -0.5705203 -0.10375871 0.8260629 0.26157543 -0.039825782 -0.96624845 -0.16840981 0.105251886 -0.4071422 0.8217673 0.52885514 -0.16370572 0.24812035 1.0199386 0.6468293 -0.37012568 -0.14021093 0.04477388 -0.27504972 -0.7022972 0.24095878 -0.3824104 -0.104616776 0.51545024 1.8935672 -0.3465401 0.5558702 -0.9772068
351 0.42120853 -0.40138343 0.6880958 -0.4867625 0.8076095 -0.36290365 -0.1468249 0.45633748 0.4076319 -0.022143077 -0.67498803 -0.5318313 0.35551122 0.43885788 -0.33072257 -0.050450344 0.25553972 -0.09517849 -0.70662004 0.33138627 1.0442895 -0.15589577 -0.41026846 0.08051196 0.22770584 -0.6929981 -0.42475024 -0.19457321 -0.32963046 0.48204678 0.13068539 0.45156282 -0.40665156 -0.065669455 0.49532536 -0.24987713 -0.024638249 0.49522287 -0.622488 0.14185606 -0.0779635 0.19133084 -0.44047958 1.1429375 0.29911023 -0.73758733 -0.28079504 0.51726216 0.75876456 -0.3675784 0.27137557 -0.27504185 0.1450105 -0.95229024 -0.4663442 0.50692034 0.5685785 -0.3318183 -0.035371106 -0.3679283 0.21315752 0.0026447102 -0.33370888 -0.66749454
2026 -0.62083143 -0.061055455 0.77947354 -0.88622546 0.51774687 -0.19551933 -0.45162296 -0.02613117 0.43627942 1.0374074 0.5489864 0.022024078 -0.23835923 0.40153116 -0.33262458 -0.5836664 -0.052207936 -0.23406057 -0.31563574 -0.1576418 0.684263 -0.3477104 -0.16225718 -0.31941244 0.82710445 0.069065996 0.0017560574 -0.31909606 -1.0304626 0.47182783 0.042445228 -0.01623213 -0.59772867 -0.16929743 0.026248384 -0.7529436 0.20762332 -0.46853077 0.41878343 0.8674695 -0.36155713 0.5189305 -0.16052671 -0.19532631 0.42114505 0.46768215 0.6098354 0.5779458 0.54686964 -0.3760618 0.48093694 -0.85447794 -0.31317648 0.086014554 0.48443198 -0.178609 -0.68825036 0.07362538 0.4095231 0.40962386 -0.41336802 0.08171625 0.25552484 0.46139684
155 -0.26650584 -0.20421146 0.44885594 -0.27091378 0.4213996 -0.14852338 -0.53711003 -0.73257554 0.06263723 0.5039465 -0.15631238 -0.5048204 -0.06510856 0.50420064 0.1724829 0.5012659 0.5972388 -0.37578422 0.12060749 0.7339936 0.82706994 0.74352455 -0.520675 0.5518064 -0.1263602 -0.447313 0.4669042 0.18476675 0.2761657 0.6902702 -0.8771983 -0.71285665 -0.6325817 0.46834925 0.042508703 -0.576359 0.5259533 0.41676047 -0.48578897 0.39898896 -0.15036353 0.054006323 0.5845298 -0.21121252 -0.11567394 -0.33178762 0.6174619 0.27819136 0.26704526 0.09350506 -0.5133233 -0.4571407 0.012220302 -0.22446798 0.55068797 0.28133804 -0.14358602 -0.3432148 -0.042273164 0.04474431 0.33688366 -0.5588607 0.6033066 -0.2966208
566 0.58244723 0.5641419 0.15305206 0.31489232 0.46087274 -0.39145148 -0.41825932 -0.92147446 -0.07654958 0.17926562 0.67555815 -0.025216429 -0.24055828 1.2162067 -0.6046583 0.48457524 0.5797984 0.26361388 -0.4152584 0.25314513 0.28048202 0.36736163 -0.6942169 0.4637031 0.0111668 -0.17513369 0.39953753 -0.33299777 -0.31682387 0.27122095 -0.15326127 0.013550751 -0.89999473 0.4579915 -0.17823793 0.017401686 -0.12717365 -1.0149279 -0.20173076 0.03785754 -1.1014395 -0.61395264 0.63156253 0.095148064 0.0021473675 -0.4913067 1.1645662 0.5467267 0.7169626 0.3702767 -0.31304413 0.675989 -0.32454157 -0.35071823 0.93725276 -0.11834971 0.5469663 0.7075996 -0.71027714 0.47526708 0.33100423 0.1402058 0.33060232 -1.0888771
1506 0.03289867 -0.10599134 0.84865904 -0.48272628 0.87787664 0.020796813 -0.2011375 0.76088566 0.009017858 0.29089403 -0.56782335 -0.95485985 -0.5405593 0.3632092 -0.15477924 0.7114258 -0.54290813 -0.16098881 -0.22863664 -0.033754583 0.29765108 0.44990316 -0.51127905 -0.09905206 0.33906353 0.2517044 -0.6279644 0.50601107 -0.020141982 0.6045675 0.46467116 0.40487054 -0.76748145 0.3937666 0.55100894 0.33773997 0.47166425 0.019735651 -0.007893394 -0.026942642 -0.08332053 -0.73228115 -0.25316048 0.15820806 -0.27111006 -0.17280862 -0.13705912 0.37301835 0.6158145 -0.38527253 0.21044241 0.38488463 -0.5930196 -0.019223897 0.11565051 0.7616024 -0.20519042 0.3709618 0.005639441 -0.14667875 -0.63210756 -0.63804 -0.042117067 -0.22132878
1656 -0.028846392 0.08935184 0.26833788 -0.35926828 -0.1390515 -0.098078266 0.26959357 0.48135808 0.44546604 0.6306486 0.23796591 -0.3617329 0.13619949 -0.29070392 -0.15315741 0.38193193 -0.49454638 -0.6437204 0.0072822077 -0.28387776 0.18912627 -0.49142805 -0.42356554 -0.3602002 0.40137142 -0.35071012 0.043801155 -0.6960202 -0.039979283 0.29028508 -0.0047578737 -0.38514307 -0.28884578 -0.22272334 -0.5752679 -0.6842297 -0.19431016 -0.14600576 0.1666401 0.060099293 -0.6757737 -0.44637993 -0.06681023 0.22113794 -0.6419506 0.12041834 0.73219335 0.3964555 0.33619082 0.58980703 0.35353634 -0.95520526 -0.61509013 -0.65670395 0.28889477 -1.1288428 -0.5166324 0.109220095 -0.12307826 -0.24783017 0.034990467 -0.53868866 -0.050316527 -0.11314051
95 -1.3090789 -0.5160276 -0.12875287 -0.679091 0.052799135 1.0621125 0.57016516 -0.11721462 -0.085309066 0.48790187 -0.44645372 -0.323092 -0.35710913 0.17352588 0.03811824 -0.19944471 -0.64117914 0.4017924 -0.6286431 0.013767282 0.82370067 -0.4664059 -0.03716923 0.36508328 0.3531034 0.7506863 0.972167 -0.36049673 -0.007013041 -0.23131713 -0.0010439061 0.21748637 0.13722046 -0.023183154 0.5250536 -0.024325235 -0.57419384 -0.10680758 0.31273392 -0.18578315 -1.1155581 -0.16971247 0.47957292 0.61645865 -0.45830834 0.23761816 0.8156043 0.66858983 0.37744096 0.5502039 0.8117489 1.0215483 -0.73337317 0.025971415 0.35671806 -0.4725738 -0.42440733 0.041056387 0.14179128 0.09087412 0.36260232 -1.3647943 -0.68017495 -0.5460465
2239 -1.2712219 -0.27183494 0.192343 0.61195916 1.1697093 -0.14644757 0.061183974 0.29634976 -0.18527359 -0.07118309 -0.7863276 -0.0118423365 -0.45196298 0.1971596 0.21028672 0.5760157 -0.30578983 0.5559924 -1.0044227 0.43291923 0.26249066 0.77347267 0.3206937 -0.04710742 -0.3253616 0.6848311 0.39419448 -0.87568504 -0.36413437 0.22111236 0.23642501 0.9792424 0.108425386 -0.7354709 0.70847505 0.07656315 0.21234506 -0.246755 0.024078304 -0.05704447 -0.010173602 -0.29686892 -0.35209686 -0.34766266 -0.54967207 -0.58031875 0.89181876 -0.4198145 0.7421846 -0.46054292 0.47401744 -0.7499281 -0.44360024 -0.27682745 -0.09122799 0.11689217 0.26060846 0.15166317 -0.41925126 0.11239843 -0.03622538 -0.82479036 0.35552895 -0.16662495
56 0.3325485 0.3321237 0.6780132 0.42280006 1.1108224 -0.44051027 0.47113302 0.48987743 0.044972237 0.112951405 -0.2059913 0.2395528 -0.012692323 0.0072376886 -0.6362551 -0.5368082 -0.21090509 0.07600123 0.13375504 -0.059876617 0.22272031 -0.1474371 0.20760827 0.6222251 0.21645845 -0.49385503 0.5330141 -0.23368584 -0.33437714 -0.34970295 -0.12567149 -0.13211851 0.014235749 0.5915624 0.5999156 0.06307063 -0.8306115 0.14318636 0.87419516 1.1790107 0.2825018 -0.24112234 -0.26301825 1.0436631 -0.76419556 -0.28627384 0.91870916 1.057685 -0.24581309 0.48648635 0.22459781 -0.18589489 0.048541673 0.52472186 0.14810787 -0.003713123 -0.40137142 -0.094118945 -0.45464537 -0.20645565 -0.06311648 -0.41282296 0.016181974 -0.03164984
658 -0.044039153 -0.5384578 0.23358592 0.09310266 0.8001736 -0.46653262 -0.40358126 -0.54889774 -1.0204518 0.5088329 0.019340042 -0.7479653 -0.56336546 0.6120281 -1.0261045 0.18254915 -0.4581906 0.017043756 0.35022163 0.6426861 0.27267885 0.6449321 -0.81205904 0.5690656 -0.45718604 0.16948633 -0.78978556 -0.15085985 -0.6211946 -0.33916038 -0.74581724 -0.34403542 -0.8518262 -0.20494287 -0.22889984 -0.8680123 -0.15299542 -0.39152354 0.07370009 -0.5658657 -0.5918155 -0.36241227 0.27816665 0.2712341 0.42742062 -0.6992714 0.22122222 0.46448916 0.65349805 0.3449927 -0.5140057 0.46308962 -0.9255089 -0.23530437 0.78211915 0.09917571 0.089340754 0.8945855 -0.30947173 -0.3880858 0.2801065 0.22666022 0.102559574 -1.1811086
365 -0.18244974 0.19615959 0.2861896 -0.3097289 0.5444791 0.19389826 -0.7345111 -0.7730527 -0.12056787 0.31404492 -0.4800648 0.21766602 -0.50523734 0.10266299 0.27812794 0.5196048 0.7558046 -0.9758172 -0.34565955 0.6294308 1.1804183 0.18507941 -0.6453621 0.4572878 -0.33998415 -0.34797785 0.38829875 -0.28828275 0.31833145 0.5294467 -1.1867291 -0.45856583 -0.3822714 0.43139857 -0.08300206 -0.40969574 0.3442749 0.2985062 0.16306014 -0.047206514 0.2069055 0.0035839188 0.81420124 0.30674475 -0.3292746 0.03459081 0.43822104 0.43003672 0.22372866 -0.36836624 -0.62338114 -0.48151222 -0.7380551 -0.39740643 0.99822307 0.3375074 0.29756814 -0.06370252 -0.1975802 -0.13635771 0.1643346 -1.3520119 0.48774245 0.19910097
2360 0.37693664 0.5702485 0.40089905 -0.28366727 0.61614037 0.37843826 -0.046770807 -0.27936447 0.16081278 0.32492775 -0.3762774 0.371181 0.39882421 0.73099554 0.2968387 -0.14054266 0.5808229 0.13000518 0.12112779 0.9774914 0.65908915 0.55285895 0.1145602 -0.34708217 -0.36495808 -0.5827971 -0.23297854 -0.030025579 0.002348913 0.11739413 -0.2485779 0.04642222 -0.47922537 0.23909847 0.23606202 -0.31162927 0.05645293 -1.5705438 0.7466605 0.3921805 -0.35380644 -0.28981686 0.03775808 -0.35845336 0.2197281 0.16529891 -0.035309114 0.561012 0.43873614 -0.33308426 0.16900119 0.2711386 -1.0031816 -0.7245865 0.43492487 0.18461314 -0.57914376 -0.31500047 -0.31351006 -0.040727314 1.0087168 -0.27141967 -0.45929834 -0.5058047
219 -0.9084503 0.19283451 0.7350865 0.5619507 0.5135739 -0.4693115 0.13045746 -0.031667605 0.15150662 -0.12824504 0.5686558 -0.3472855 0.4549693 0.23152716 0.41533542 0.42264703 0.220955 -0.29169172 -0.42543224 0.48173055 1.1820259 -0.44011408 -0.29946527 0.1544815 0.06187171 0.2337659 -0.48427546 -0.6840583 -0.47683102 -0.40890518 -0.022407124 -0.022308167 0.06920113 -0.37722316 0.048543453 0.056217477 0.015223293 0.009293978 0.38626513 0.14461309 -0.19424541 -0.14289825 0.23135741 0.5225222 0.5390992 -0.41803688 -0.049200345 -0.14465189 0.2987857 0.26215956 0.51537734 0.80905974 -0.06142755 0.04661466 -0.17940542 -0.95848924 0.7210357 -0.9733374 -0.23668131 -0.5746608 -0.35920835 -0.8673258 -0.064080626 0.20498589
455 0.5428639 0.4418305 -0.40105996 -0.37620082 0.5161964 0.17251961 -0.5874611 -0.18832912 0.31180102 0.69272536 -0.22960916 -0.9430724 -1.0128406 0.36432427 0.14044975 0.3028599 -0.09384932 0.35284612 -0.042615313 0.56673616 0.16953649 -0.88115406 -0.02161504 0.29589626 0.8495592 -0.25385284 0.07232333 -0.4160636 -0.77139807 0.3105563 0.40496695 -0.13704646 0.22454846 0.3114535 0.419146 -0.7761492 0.05468261 0.49308172 0.8183062 0.5588204 0.3629412 0.062020276 -0.23022422 0.080685 -0.57893 -0.40906677 0.7234933 0.27611458 -0.046957187 0.38780022 0.18669906 0.9331127 0.46483392 -0.11992125 -0.6126155 0.2525114 0.018988388 0.05775701 -0.081484385 0.21007925 -0.13092832 -0.53380513 0.47130647 -0.23187824
1172 -0.5037919 0.53016806 0.3136415 -0.5396839 0.62420756 0.20543031 0.112708054 0.34907895 -0.24735712 0.68324476 -0.2680456 -0.09041418 1.1523639 0.34814355 0.95764005 0.040116344 0.4065946 0.53042465 -0.097483456 0.556512 0.035071947 -0.10404821 -0.6802064 -0.3208628 -0.014660202 -0.2011887 -0.21981043 0.21157843 -0.020622484 0.47627854 -0.27039853 0.12812723 -0.6719102 0.8705243 0.42419115 -0.09398437 -0.03449672 -1.3337787 0.3362829 0.5854429 0.03408466 -0.6146313 0.14034396 0.22589105 0.16098113 0.3214731 -0.0026988222 0.26972607 0.1693495 0.2747573 0.20846355 0.29864898 -0.4802671 -0.34461436 0.35623932 -0.40950382 -0.3450572 -0.40145615 0.115836985 0.35959852 0.6166319 0.026276393 -0.018628888 -0.30477846
488 0.38003564 -0.24993141 0.63551307 -0.3163934 0.940853 -0.01703411 -0.14145023 0.07692024 -0.30893365 0.23585707 0.1552272 -0.34601796 -0.23040114 0.04671061 0.3649618 -0.8439733 -0.28143135 -0.28204048 -0.9679461 0.36608076 1.3668022 -0.082671426 -0.39116126 0.42708796 0.8456585 -0.5431358 -0.15854287 0.006790279 -0.48403236 0.16169584 0.16916037 0.8508081 -0.5107274 -0.0004981549 0.026622597 0.11004973 0.11305839 0.6498311 -0.058340777 0.23101959 -0.29729566 0.48116058 0.055323947 0.5115002 0.048434127 -0.2157569 -0.25936872 0.09617941 0.33641675 -0.4575991 0.096431285 0.2701737 0.1916819 -0.9262968 0.36019883 0.40590852 -0.3152833 0.24689288 0.50939953 0.14214405 0.08814451 -0.0949675 -0.04337255 -0.081595264
506 0.39776218 -0.23429984 -0.36008146 -0.04789822 1.0703859 0.3189481 0.09351811 0.21628945 -0.52572566 -0.20167182 0.068262555 -0.60430855 0.7098424 0.32401478 -0.058267847 0.28701788 0.39925033 -0.81498146 -0.5448152 0.6804632 0.44618794 -0.9939539 -0.08823979 0.29299423 -0.26745614 -0.4032817 -0.16021831 0.107856534 -0.5419006 0.50012094 -1.0513736 0.47165287 0.015666476 0.3538528 0.4152531 -0.18459843 -0.03201096 0.5762486 -0.77607423 0.33465695 -0.00687139 0.5263832 -0.14233568 0.49844366 -0.23449945 -0.3079973 0.089777924 0.28371182 0.6820925 -0.79712737 0.26507103 -0.20670488 -0.24442945 -0.7896029 -0.33357757 -0.26749867 0.4037118 -0.27221352 -0.4567531 -0.03295087 -0.05275602 -0.24148272 -0.2772234 -0.41302636
442 0.8902884 -0.76968837 -0.2023809 -0.8063893 0.34169605 -0.07057054 -0.72688776 -0.6360224 0.14428894 1.1645298 -0.5665952 -0.5687842 -0.7037093 0.3887135 0.20785944 0.93502903 -0.56653357 0.25408718 0.038001485 0.9779907 0.72188133 -0.5726463 -0.46093568 -0.12589917 0.40434787 -0.31620523 0.18784522 0.26011795 -0.8438589 0.30852234 0.026133321 0.32772025 0.59500206 -0.04307027 0.14348151 -0.6257238 0.21702847 0.53298175 0.0871932 1.3169887 0.24382257 -0.33923596 -0.65985334 0.43918395 -0.03434411 -0.3359841 0.4097576 0.09572854 0.5355921 -0.35691017 0.08016153 -0.11414462 0.83690083 0.6931828 -0.21112666 -0.032624725 -0.2418082 0.15271597 -0.44286454 0.41091487 0.13554573 -0.581484 0.45752773 0.8752015
834 0.3049175 -0.22487041 0.34213465 0.22981727 1.0228672 -1.2045567 0.73239493 -0.8065897 0.17146774 1.4709407 -0.31230393 0.39912194 -0.5747789 0.17256185 -0.57884794 0.6568958 -0.73712844 -0.21127388 0.17268829 2.0371475 -0.15030344 -1.1968504 0.21924818 0.4180496 0.08443252 0.34986413 0.87893397 0.29330876 -0.059737854 0.06367722 -0.3587651 0.0215386 0.24547559 -0.25555873 1.0173584 0.60465 0.22111557 0.26937342 -0.3545177 -0.042459827 1.6533468 -0.6676125 0.17908704 -0.26433772 1.3678854 -0.8740404 0.9053432 0.21265754 0.08459016 0.6548481 1.0104603 0.82275015 -0.3561766 -2.397785 0.6576703 0.3369948 0.2845823 0.006090152 -0.8660846 -0.24956869 0.01562718 -0.30211657 -0.23244406 -0.263805
735 -0.17942859 0.5516982 0.8166486 -1.1117852 -0.18655637 0.29537332 0.048318624 0.6171508 -0.6094596 1.5399631 -0.35903138 0.18331946 -0.32022646 0.37820938 -0.4124702 0.5599322 -0.23349585 -0.9206753 -0.07609276 0.09389616 0.28268293 -0.22112496 -0.29286402 0.13617267 0.6136711 -0.37484038 -0.13465841 0.017779265 1.0313646 -0.14902987 -0.96468216 -0.15679651 -0.3433431 -0.14419132 0.5039258 -0.4539426 -0.66567045 0.2780471 1.4652979 0.69657636 -0.26122728 -0.5395244 -0.51949954 -0.035471093 0.7632087 -0.5696256 0.029498924 -0.18027495 0.98476493 0.3561058 0.15640582 -0.12210323 0.2686999 0.20884284 -0.28811535 -0.2469342 0.5281631 0.7684015 -0.3050026 -0.46081927 0.06041374 -0.9918969 -0.15707868 -1.2072083
2452 -0.16305864 0.04680848 1.185181 0.33803865 0.49268144 0.3816677 -0.37517548 0.17369346 -0.3473677 -0.16534801 0.92173696 -0.8641249 -0.1368764 -0.16010652 -0.5424697 0.86975706 0.040538777 -0.2886689 -0.35245544 1.1411151 0.48129898 0.6718543 -0.40374053 0.20861192 -0.048628554 -0.04701178 -0.24127148 0.06160163 0.4022845 0.0017432047 -1.5473194 0.25269404 0.24548122 -0.1603185 0.29657194 -0.44619647 0.2994251 -0.45745555 -0.7111181 -0.1724348 -0.70754147 -0.22709288 -0.5431341 0.5020133 -0.16851129 -0.26978236 -0.23074555 0.16430296 0.47374126 -0.22366996 -0.759389 0.5041172 -0.7272089 -0.54498297 1.0001158 0.15762164 0.20458277 0.6210281 0.052547 -0.49627388 0.17685793 -0.43734342 0.63821787 -0.28008866
749 -0.25919572 0.4456807 0.17741017 -0.4015642 0.7575567 -0.10863724 0.069806725 -0.597055 -0.6992227 0.3229866 0.34635377 -0.5069891 0.05156635 0.6357722 -0.05424832 0.63618505 0.35432908 0.06340535 0.24851544 0.99555856 0.5066918 0.12619387 -0.45706034 0.14949542 -0.38226068 -0.046004552 0.14638427 0.44124097 -0.18096986 0.40575963 -0.30442503 -0.5884191 0.095979206 0.47820625 -0.2843474 0.22371018 -0.18014327 0.5084995 -0.40983066 0.6410653 0.0072680544 -0.3943348 0.78013337 0.1184389 -0.3909382 -0.058877785 -0.19317622 0.89796776 0.21867046 0.05900252 -0.40316987 -0.21961984 0.42139784 -0.23087564 0.59290886 -0.15126924 0.13445885 0.06524776 -0.44682124 -0.62615263 0.044506133 -0.34522277 0.26950267 -0.11268621
280 -0.09880869 0.058273297 0.9470827 -0.19367209 1.0414846 -0.09663066 1.2298489 0.60994834 0.00689875 0.49236405 -0.31455687 0.07315611 -0.50186247 1.050431 0.39545015 0.3416574 0.3728155 0.3601846 0.36831462 -0.09705151 0.26657826 -0.15780589 -0.6338856 -0.20916052 0.917885 -0.18710835 -1.0050019 -0.31114307 -0.69512135 -0.32732832 -0.75037825 -0.47742018 -0.6382538 -0.30183408 -0.3476386 -0.9651242 0.092320085 -0.5402325 -0.85116553 -0.15182343 -0.097390056 0.021603392 -0.1997836 0.041553125 -0.6245585 0.34339404 0.6041575 -0.75876254 0.17630424 0.88065827 0.35452858 -0.90933245 0.47213182 -1.0742965 0.11330844 -0.08129883 -0.2773846 0.15295437 0.81660277 0.34497115 -0.21357085 -0.28853652 -0.46617004 0.05786858
1777 0.38612598 -0.50378585 0.81443477 -0.1303313 1.1699282 0.05809522 -0.45646182 -0.04429535 -0.32335892 -0.25556022 -0.14106424 -0.1918158 -0.22321993 0.49837208 0.03611251 -0.041345675 0.27537924 -0.18587948 -0.9678005 0.33948776 0.1499404 -0.06415395 -0.27522877 0.055844113 0.46539763 -0.9474548 0.19711289 -0.026980659 -0.013686876 -0.43024734 0.08616882 -0.13806507 0.024621556 -0.42527476 0.053208616 -0.24429025 0.44126764 -0.15653889 0.18173224 0.13282667 -0.6548285 0.21378167 -0.42867106 0.27927315 0.06410503 -0.41592467 -0.3719064 0.3835876 0.4197286 -0.11267962 -0.93686366 0.54296386 0.4544129 -1.2646589 -0.09965939 -0.5755119 -0.27940783 -0.3069796 0.23829703 0.067071624 0.24603909 -0.5932746 0.22527803 0.2773695
317 -0.94077945 0.49862438 0.40800112 0.66304916 -0.35197595 -0.004224386 0.84995925 -0.6082868 -0.22459757 0.40407145 -0.29884684 -0.10729008 0.67822087 0.112356566 -0.09893072 0.2914391 0.4519382 -0.26247102 -0.45139682 1.0819949 0.38590577 -0.94893074 0.05987742 -0.9141303 0.40727535 0.17422166 -0.2691228 -0.16381243 -0.44256642 -0.26730448 -0.20508373 0.2587095 -1.0616322 0.30641925 -0.3224161 -0.3989687 -0.1479662 0.13482894 -0.3593869 0.19624905 0.03582891 0.24897683 -0.9084765 0.2722177 0.16004306 -0.84164286 0.115823515 0.47719097 0.29244742 -0.020046912 0.6910412 -0.13043049 -0.45400834 0.080041125 0.4347135 0.21002103 -0.7571299 -0.37268192 -1.1436749 -0.047646634 0.29448545 -0.36272973 -0.3687216 -0.3003503
66 -0.08388596 -0.27497947 0.45226926 -0.26575384 0.84093845 0.05826646 0.6434904 0.26578096 0.1338669 0.1512583 0.26840934 0.32143807 -0.5725396 0.4933944 -0.55191845 -0.51877165 -0.0297413 0.16127954 -0.41038784 -0.1762516 -0.046644658 0.19193535 -0.11304368 0.3855312 0.71731687 -0.6194454 0.10273608 -0.18954895 -0.09194753 0.24838325 -0.1425614 -0.74843174 -0.1449761 0.022617476 1.5962183 0.5266464 -0.23011537 0.14612517 0.3169713 0.8824063 0.36688012 0.073935054 -0.30000043 0.3424017 -0.30460542 -1.1651893 0.9601432 1.0504552 0.17036477 0.6813703 0.21818814 -0.23052736 0.2247733 0.13388908 0.65810376 -1.1478242 -0.3772042 -0.15368171 0.249838 -0.042023208 0.11465201 -0.18360253 0.41221738 -0.75534797
736 0.4913734 0.012561438 0.75754267 -1.2316245 0.5447131 1.0218279 -0.20337646 0.46220863 0.48134956 1.2186835 0.48364586 0.15987869 -0.30689055 -0.07337214 0.48851454 -0.04694308 -1.7717746 0.08322925 0.19887705 2.011137 1.1386716 -0.19764549 -0.57900083 0.2705069 -0.21663965 0.9299726 -0.64295244 1.0792098 -0.8139429 1.02716 -0.6892353 0.42167407 0.44703218 -0.527038 -0.8655862 -0.25664526 0.14603877 -1.0643872 0.39694837 0.87355965 0.66723466 -0.09900409 -0.4102084 0.5404137 -0.27512774 -0.71870035 -0.04542656 -0.541899 0.45333055 0.3982579 0.65530115 0.33896086 -0.01884288 -0.24731342 -0.81125724 -0.1963739 -0.11435583 -0.36892426 -0.91165817 1.5305501 0.7099553 -0.45651156 0.7191035 -0.2822654
2451 0.8155984 -0.8653959 0.5302163 -0.19567426 1.1316202 0.6132996 -0.61890936 -0.4407038 -0.1591849 0.09318996 0.104661666 0.34281734 0.1277577 0.8701917 -0.3495646 -0.038084634 0.68220073 -0.3025693 -0.4186538 0.9109362 -0.0017361863 -0.0146819595 -0.5844027 0.13570611 -0.07869955 -0.08115426 -0.21434677 0.20628664 -0.41881284 -0.115279265 -0.16379856 -0.4883732 0.76448584 -0.18007526 -0.2475428 0.004441781 0.13002811 0.32406363 0.2941432 0.106744796 -0.29605132 0.6080248 -0.27068725 0.51825416 -0.71696126 -0.011015163 0.46520144 0.48995757 0.2575765 0.6222557 -0.78134274 -0.8819362 0.055171452 -0.43976644 0.3922549 0.46622688 -0.34885842 0.33214658 -0.888677 1.015156 -0.4537314 -0.83092165 -0.3242304 -0.26298508
2161 0.92145026 0.31399453 0.67869073 0.47390243 1.5845726 0.15282047 0.92945063 -0.0012745792 -0.24938074 1.3070763 -0.4349074 -1.6706805 0.76945347 0.83702743 0.86723566 -0.095877595 -0.43559206 -0.4805511 -0.90144926 -0.08284575 1.2426453 0.15116903 -0.82821935 -0.38708225 0.13567866 -0.41131935 0.7629062 -0.6699139 -0.20220312 0.8943379 -1.3980521 0.21666817 1.0230985 -0.3226407 -1.2441059 0.5376634 -1.6132035 0.121734984 0.5302101 0.11896109 0.29136595 0.16093107 -0.72232187 -1.6453075 1.2264154 -0.40986887 1.8808845 -1.0309576 0.752135 -0.8128976 -1.7021937 -0.28563404 -0.13933292 0.023845842 -0.1701398 -0.7864649 0.9796007 0.117007956 -0.35741252 -0.73976314 0.06662325 -0.12585896 0.49626154 -0.0019034202
1318 -0.33722982 0.7434723 0.6247228 0.02028538 0.80085903 0.6560568 -0.46911782 -0.6724107 0.780596 0.6373193 -0.90708184 0.16340964 -0.07609683 0.77949125 0.57614344 -0.21458326 0.17033194 -0.15157034 -0.16975185 0.82128876 0.9082034 0.3287948 -0.41242787 0.2778612 -0.12938839 -0.3370569 0.45009145 -0.34420994 -0.0037688087 0.08347544 -0.7523805 -0.8861709 -0.17082791 0.090461105 -0.55035853 -0.20582221 0.10160132 0.34808636 -0.55403423 0.21356568 -0.1732105 -0.6879741 0.61209565 -0.15096262 0.073281325 0.33722484 -0.8201161 0.5959567 0.5914031 0.052556913 -0.89295983 -0.63101465 -0.091492765 -0.38505447 0.6088199 0.1476643 -0.2244591 0.14509651 -0.1624667 -0.4275685 0.94827855 -1.2559397 0.23314223 0.3362505
1955 -0.08093554 0.3532117 0.14483017 -0.4474048 1.3012987 -0.04250498 -0.41285777 0.0016732996 0.05156056 0.44385618 0.064754486 -0.9062008 -0.043839753 0.32766378 0.89763063 -0.2981409 -1.6964339 -0.065838054 -0.21579504 1.0791005 0.64439565 0.023985077 -0.03146796 0.403276 0.55491304 -0.0111845555 -0.06960615 -0.0763102 -0.42529494 0.66075236 -0.18083419 -0.47113279 0.53879887 0.35459173 -0.49412593 -1.0762008 -0.115715735 -0.31826302 0.33899814 -0.06193225 0.34877667 -0.017186604 -0.28821948 0.55031824 0.21644413 -0.20774715 -0.33127904 -1.0127017 -0.0035187346 0.6530664 0.30241406 -0.16731991 -0.209839 0.36656463 0.57357556 -0.21607783 -0.16594227 -1.1619495 -0.3555192 0.9230324 0.40697667 0.54300404 1.12799 -0.92840445
1352 -0.21170476 0.11134103 -0.07551332 -0.5735965 0.51552516 0.2844529 0.3418828 -0.6423746 0.12922318 0.4510401 -0.21543027 0.04519986 -0.83870953 0.32818082 0.46704084 -0.08300784 -0.5709242 -0.19389935 0.02939511 -0.315819 -0.61568016 -0.66817343 -0.43717435 -0.52088773 -0.115448624 -0.1264123 -0.0022527375 -0.6078785 -0.7501545 0.1383545 -0.7787045 -0.07188065 0.5627464 0.584571 0.34559494 -0.73549783 -0.48256016 -0.47219887 0.29333675 0.17921466 -0.5351803 -0.62242943 -0.7353163 0.13832317 -1.0825378 0.058103684 -0.16475475 0.7840497 0.5149648 0.79845154 0.29971218 -0.33712405 -0.2272782 -0.87609243 -0.20491782 -0.19356976 -0.5588689 -0.2288079 -1.0033567 -1.3971661 -0.056447495 -0.16097258 0.42999646 -0.9008549
1953 -0.299389 -0.18071136 0.9491082 0.22920951 0.41449425 -1.0147187 0.3573251 1.1133612 -0.33758047 1.2106142 -1.2708571 0.14706197 -0.48644897 0.12262555 -0.47525144 -0.76756555 -0.2505323 -0.41606522 1.1874782 -0.06373653 0.53364307 0.23305067 0.79403806 0.43328848 0.31846756 0.11990398 0.7433238 0.10976174 -0.2260766 0.41821456 -1.014765 -0.037669867 0.5125405 0.5482149 -0.04641109 -0.70123833 -0.37807354 -0.09053597 0.17540754 -0.58137906 0.14500287 -0.40622842 -0.23391184 -0.26805717 0.59422165 -0.65859264 0.6162555 0.5768611 1.4758142 -0.38260105 0.9761232 0.12336681 -0.13988523 -1.6684357 1.2699082 -0.55600613 -0.7733712 -0.5830463 -1.3422965 -0.3612452 0.506808 -0.039546765 -0.31509426 0.14028414
237 0.63785964 -0.2859166 0.5831714 -0.36759707 1.0283339 -0.32483688 -0.32984996 0.20478818 -0.31195486 0.28845116 -0.27182153 -0.40270275 -0.06274607 0.50782496 -0.32420397 -0.05010361 0.25392035 0.19500107 -0.8676283 -0.116381645 0.26249108 -0.38143268 -0.30734253 -0.030668683 0.3798301 -0.35008842 0.024816114 0.07394448 -0.41706088 -0.24019827 -0.015208383 0.26496747 -0.63839567 -0.19799295 0.076631986 -0.14009315 0.31472242 -0.2161227 0.09054785 -0.0369627 -0.5515903 -0.4050242 -0.43819663 0.9284672 0.0015025851 -0.61261874 -0.1857884 0.33283174 0.19483371 -0.1979321 -0.32246572 0.2704209 0.3596436 -1.2550312 0.2390646 0.33886406 0.17043929 -0.2589251 0.13361722 -0.4299605 0.16594224 -0.27732038 0.36838973 0.29512393
757 -0.45885563 1.1357205 0.7668594 0.49264112 0.5057482 -1.0622659 -0.3482361 0.4178266 0.30110875 1.4003845 -0.17766376 -0.20355892 -0.98623073 0.41545415 0.113619074 -1.1884599 -1.1420821 -0.8863026 -0.98946977 0.11724072 1.2217448 -0.6258931 0.23891105 0.025035175 0.052056905 -0.44346958 -0.15161389 -0.33160833 0.045706257 -0.8996165 -0.47545084 0.2078887 0.43371636 -0.33943382 0.56854415 -0.30290934 0.36481035 -0.6999313 -0.10713422 -0.049042415 0.038230132 -0.17274296 -0.7097754 0.5463731 -1.2807581 -0.10370155 0.5761391 0.66380817 -0.22881019 -0.07491992 0.15828682 -0.028219914 0.37687588 0.5865701 0.9942692 0.052548427 -0.18043779 0.40672725 1.1973202 0.5598195 0.10756945 -0.38350227 0.1378652 -0.7049527
211 0.11472708 0.36037904 0.39127395 0.1672011 1.3820534 -0.49201694 0.646977 0.6050063 0.0024641105 0.514267 -0.77590364 -0.31953996 0.012613748 -0.4269781 -0.34005418 0.056344774 -0.33775288 0.18491071 -0.076949075 0.32288456 -0.7824913 -0.18921751 0.45471925 0.4806293 0.017363092 0.04577582 0.47420526 -0.7467869 -0.6058174 0.06886712 0.039646305 0.08346671 0.20230882 0.34682348 0.06926215 0.1548254 -0.24363737 0.0022433137 0.77292746 0.7744646 -0.04502539 -0.17152388 -0.6445 0.77865314 -0.7886725 0.43402845 0.63514763 0.9919218 -0.20163667 0.46272492 -0.12798765 -0.036561243 -0.16900465 -0.32766542 -0.078037344 -0.3853225 -0.35685307 -0.0011576292 -0.8934461 -0.0047286022 -0.22454691 -0.59281796 0.1638171 0.3683246
2123 -0.3653313 -0.1940201 0.1454987 0.35287547 0.57787716 -1.100391 0.08124034 -0.29213426 0.6477478 0.45283097 -0.63909364 0.07947336 -0.49239758 0.04112546 0.7280784 -0.25538048 -0.053939372 -0.3619197 -0.47467685 0.39751908 -0.28476858 0.6598183 0.6315015 0.0035592436 1.0647694 -0.017178029 -0.6745459 -0.6614937 -0.41799876 0.1605791 -0.43614414 0.6632708 0.16542052 -0.043337315 0.27270114 0.4078355 -0.3700228 0.07022906 -0.18869711 0.2218207 0.26194558 0.03560649 0.27959758 0.2694404 -0.21338663 -0.65009636 0.23676287 0.07922631 1.4712254 -0.16825433 0.7930928 -0.43206865 -0.64894766 0.34718615 0.39717618 0.027650299 0.39641085 0.06104322 -0.77069414 -0.42187363 -0.7284746 -1.1651759 -0.10254157 0.22715509
1584 -0.71402425 0.4097019 0.21732123 -0.774346 0.39379504 -0.2921962 0.12975101 -0.4130605 0.22688787 1.2678887 0.6572121 -0.07787943 -0.31232208 -0.018133683 -0.25919464 0.20037344 0.061943192 0.12512413 -0.721106 -0.15108928 0.025092993 -0.22365136 -0.39076155 -0.095524125 0.63607466 0.029110122 -0.15781325 0.11925517 -0.7764835 0.42845434 0.43976068 0.11134173 -0.50812083 -0.13075276 0.43187386 -0.695815 -0.109904 0.10209052 0.22293699 0.16377051 -0.044942237 0.09072256 -0.53949314 -0.3418737 0.45745766 0.49788025 0.74954623 0.4487778 0.17130734 -0.12620552 -0.07370626 -0.4055113 -0.24797538 -0.21648525 0.23049498 0.35548645 -0.6799385 -0.050929904 0.35266897 0.13769265 -0.040548995 -0.32247412 0.59296346 0.024047978
1903 0.83259356 0.095333755 0.41002688 -0.51416475 0.5591963 -0.14121823 0.5458765 -0.50561094 -0.09651489 0.22575563 0.67999774 -0.8291045 -1.0458678 0.016945854 0.5394039 0.43050748 -1.1238114 0.45418 -0.8008858 0.47669092 0.0042474484 0.16752848 0.8856854 -0.551592 -0.15752286 -1.1479896 0.009387022 0.019707669 -0.43299037 0.7465083 -1.0361294 0.18100938 -0.04061117 0.51920176 -0.35582024 -0.48154446 0.8780542 -0.5768942 0.38347706 -0.2620349 -0.2768095 -0.8006102 0.6950823 1.2347742 0.18785319 -0.41941097 0.4897073 -0.25747392 0.20247003 -0.7269192 -0.70869225 -0.7945698 0.33080673 -0.31817067 0.4664777 0.5818451 -0.024387522 -0.35822976 -0.8268885 0.69979304 -0.25917682 -0.96955395 -0.57414436 -0.9045059
2084 0.3588769 0.084668 -0.06393085 0.0402295 0.8304922 0.2806098 0.020069003 0.033993684 -0.45670184 0.106694795 0.40495998 -0.43508047 0.1564377 0.46325102 -0.49200633 0.9872114 0.9444638 -0.6111384 -0.90604794 0.7119723 0.03381806 0.049506884 -0.3042757 0.2269843 0.08737856 -0.6827381 0.046206586 0.4495162 -0.16406818 0.31131294 -1.4694103 -0.7010509 0.8139657 0.009993333 -0.04568842 0.025725752 0.08902298 0.20549202 -1.0173557 0.23733483 -0.10797313 0.5457867 -0.32182986 0.1806773 -0.30749336 0.113239296 0.7843879 0.04637347 0.43069115 -0.6553061 -0.60256463 0.41577083 -0.6865885 -0.15706116 0.51413023 -0.01835737 0.07284805 0.22733277 -0.50977963 0.016042551 0.5441737 -0.6416447 -0.3117848 -0.6619658
1155 0.279295 0.07473025 0.27954063 0.54055095 0.8584598 0.39719433 -0.3822134 -0.38273796 -0.65939903 0.23245211 -0.1865298 0.040009096 -0.24687064 0.21468495 -0.5961127 0.3111829 0.26193175 -0.094705045 -0.66646564 0.3304088 0.49093702 0.4757766 -0.26750574 0.7730763 -0.11959413 -0.21527068 -0.24203214 0.18927908 -0.30002752 -0.15095687 -0.63643 -1.1139872 -0.17416659 -0.14663273 -0.04902346 -0.38584355 -0.39071262 -0.19565162 -0.3785743 0.66685706 0.342004 -0.7529078 0.88517594 -0.3524071 0.25097165 -0.43819484 0.21876404 -0.098851115 0.26419973 0.2540796 -0.3030632 -0.012864208 -0.6826018 -0.3318933 0.8961557 0.032889508 -0.24400336 0.34217334 -1.0172294 0.08491807 0.36850452 -0.3819238 0.027920574 -0.47289085
90 0.33237222 -0.09849885 -0.4263099 -0.085567206 1.4429451 0.0043694843 -0.2845073 0.25808197 -0.5787385 -0.44387913 -0.5279086 0.06179442 -0.46249673 -0.8008916 0.80863863 0.64229304 0.94502544 0.8304147 -1.6122477 0.22947961 1.5579897 0.538428 -1.0215967 -0.46582404 -0.8502241 1.7346126 0.75861084 -1.0809578 -0.943919 -0.20239994 -0.8535785 0.7823137 0.4067677 0.1826123 0.82283723 -0.34246835 -0.14269662 -0.44458434 -0.07578411 -0.1786455 -0.115665875 0.23740691 -0.19731584 -0.3054495 -0.6333721 -0.7038399 1.3051023 0.027628578 0.613048 0.045883175 0.553909 -1.128367 0.21844056 -0.7530267 0.6334756 -0.055920333 0.4234464 0.20443326 -1.0128545 0.27866197 0.52385885 -0.14069925 -0.4710175 -0.49516422
1559 -0.53344595 0.454674 0.19278914 0.9422875 0.87006354 -0.04661447 0.2494719 0.5610382 0.16588338 0.67638415 0.5322824 -0.06544247 -0.037175417 -0.30412754 0.8621096 0.44517928 0.25003707 -0.903755 -1.4118901 1.2892666 -0.023913326 -0.35949916 -0.3299849 0.78169096 -0.2339649 0.0068032597 0.5584623 0.32274446 -0.4807744 -0.4814608 -0.6404142 0.281206 -0.16224481 0.5932537 0.8435298 -0.49831623 -0.27778766 -0.08662308 -0.8448584 -0.70568645 0.02652176 -0.12741703 -0.33443594 -0.14829214 0.5755261 0.2123182 -0.61431533 -0.060605668 0.2231103 0.06809104 0.3509963 -0.29131198 -0.1895061 0.08937262 -0.2892691 -0.6195073 0.35567188 -0.026767833 0.04087794 -0.7688108 -0.2457925 -1.0425005 0.8609437 0.051743146
2336 -0.77531344 0.14458275 0.29646525 0.44348478 0.11412799 0.06722643 0.24213243 0.2245107 -0.34118816 0.46651176 -0.5850435 -0.6586915 -0.6589189 1.0988464 0.22855406 -0.5481094 0.27216914 0.17366259 -0.22045659 0.32508823 0.30193686 0.8472193 0.82369953 -0.30054307 -0.1323372 0.028583992 -0.65962917 0.04355461 -0.738095 0.43155032 -0.08203304 0.7167668 0.09399828 -0.33723462 0.85445994 0.07918751 -0.78656846 -0.28889072 -0.09122306 0.028625468 0.17480579 -0.54741836 -0.47020948 -0.046754684 -0.4911511 0.005367616 0.84679663 -0.39952034 0.66230845 -0.24194455 0.0063111284 -0.5179674 0.04906614 0.26578417 0.18145524 0.4544277 0.1913109 0.53635883 -0.30856174 -0.1873505 -0.6266627 -0.83270305 0.043940786 0.24076493
491 -0.10893314 0.344553 0.6634778 -0.27643 0.3783316 0.3509323 0.92819893 0.16089444 0.0864212 0.075524144 0.0069286544 0.22648081 -0.0948857 0.116986394 -0.3107222 0.16354176 -0.3388817 0.39474857 -0.14868928 0.18149695 0.47127917 -0.47608954 -0.018793402 0.60401744 0.09389674 0.47426477 -0.45198566 -0.45097068 -0.28909528 -0.17539316 -0.33804235 -0.27998397 -0.40131333 0.49844244 -0.6503955 -0.06733572 -0.056573417 -0.17169282 -0.741006 0.81341803 -0.7087343 -0.33930936 -0.68061787 0.11164193 -0.5374352 0.14297538 0.69461054 -0.26060078 0.8403088 0.21756236 -0.5464087 -0.8180375 0.5284227 0.03634258 0.2233349 0.08434975 -0.63902754 -0.9356831 1.0329579 -0.4112526 -0.40596417 -0.5412791 -0.18747659 -0.78071463
457 0.19809778 0.8145083 1.1050609 -0.5005155 0.46857098 0.075604565 -0.29702726 -0.10600244 -0.09363318 0.42076248 -0.9119073 0.06534265 -0.73310876 0.4110928 -0.20438279 -0.5384648 -0.32575712 -1.1474589 -0.58921945 0.2658854 0.517405 -0.92999226 -0.056747217 0.27823627 -0.28659686 0.39378324 -0.60781586 -0.07822469 0.7901517 0.3445201 -0.40116715 -0.06440574 0.339706 -0.1228324 0.58073175 -0.31531963 -0.058594305 0.04791087 0.13165891 0.2956739 -0.30261266 -0.17324772 -1.1085796 -0.3844513 0.33933797 -0.50113153 -0.1403949 -0.02121205 -0.5489603 -0.27181593 0.75957763 -0.5686827 -0.372397 0.06785848 -0.072653376 -0.8515238 0.3369002 0.58844686 0.420125 -0.12635006 -0.059650257 -0.46090263 -0.12676667 -1.027038
375 0.48621103 -0.6141515 1.1387466 0.45529473 -0.40078086 1.2133713 0.7457403 -0.96509486 0.36033365 0.9740293 0.22601743 -0.09696063 0.011461271 -0.88299394 0.79995906 0.6777886 0.37908682 -1.0292109 -0.44791794 1.2361925 0.76435417 0.33804977 0.6318245 0.4123681 0.030499415 0.33812326 0.05044192 -0.75095975 -0.7698516 -0.5668558 1.2076231 -0.3684552 -1.4939607 1.3095355 1.6265522 -1.0289383 0.5439698 0.9373971 -0.58424747 1.926997 -0.9055703 -0.94900525 -0.8089533 0.10938749 -0.5238443 -0.5821138 0.7983068 -0.3345938 1.1249026 0.55912375 0.86779183 -0.020064594 -1.2654161 -0.081228934 0.18010963 -0.010446024 1.4338781 0.2314975 -0.24101436 -1.214941 0.2796966 -1.1784686 -0.095025375 -0.9664437
1683 0.35513282 1.2169962 0.35354963 -0.18551943 0.53009814 0.15980695 -0.7328689 -0.25866663 0.30834267 1.0597043 -0.552713 -1.0439087 0.5892488 0.45553684 -0.7060519 -0.62936205 -0.63399404 0.41163588 -0.13620491 -0.26137006 0.35964844 -0.30180162 -0.7237786 0.5035057 0.35789615 0.575045 -0.18939456 -0.5872747 -0.5658669 -0.36556387 0.09879737 0.38135156 0.3915239 0.23021011 1.4747962 -1.0221019 1.0092822 0.032999396 -0.21342932 -0.12871517 -0.2857368 0.46600944 -0.19534053 0.06516002 -0.5508309 -0.1993379 0.12193211 -0.065912895 0.1605043 -0.06832995 0.3333334 0.45891207 0.0122686215 -0.24736798 0.22236621 -0.4447939 0.64670914 -0.90688115 -0.44415224 -0.55005187 0.0016528922 -0.81875664 -0.46174836 -0.13035683
1913 -0.17139563 0.2529876 1.1418134 0.7185459 0.2885648 0.19292392 0.43524724 -0.41650304 -0.41293082 -0.024422428 0.072181456 -0.5788578 0.024566919 -0.67966473 -0.9787592 0.44117698 -0.72137153 0.24486296 -1.1657759 0.41840523 0.57161784 -0.58247596 -0.81657743 0.60708916 -0.028599711 -0.232675 -0.83103 0.754356 -0.8469869 0.19824366 -0.15526533 0.3572543 0.19329913 0.8601159 0.44275847 -0.6952971 0.05066762 -0.26870272 0.5077265 0.46185765 0.47289765 0.4669726 0.072890915 -0.45668668 -0.3685987 -0.15701008 0.5947064 0.17798297 0.42565975 -0.19647129 -0.19597459 -0.5798428 -0.2429129 0.34606528 0.5101626 -0.43486667 -0.057236418 -0.13171513 0.5280089 -0.8322828 -0.23970897 -0.14904368 -0.67141026 0.37945858
2081 0.0047949892 -0.3246645 0.425374 -0.4083307 0.9703968 0.14398307 0.20637289 0.2866992 0.14453706 0.3218613 0.029073644 -0.63034785 -0.32910806 -0.2192774 0.29410458 -0.29524848 0.14351393 -0.55584365 -0.8276239 0.4115567 1.218336 0.023571437 -0.3128935 0.58746827 1.4879752 -0.725457 -0.17542337 0.21377763 -0.061378572 -0.04239036 -0.022111956 0.5238586 -0.04090978 -0.24166504 0.4809994 -0.34576905 -0.09047875 0.1858916 -0.038834114 0.16905633 -0.7511822 0.34637234 0.19528435 0.94132406 0.35411605 -0.4222134 -0.43095025 0.25961143 0.39609292 -0.3643597 0.1045772 0.07388231 0.27830738 -0.88869596 0.21972689 0.60652125 0.4443554 -0.27671757 -0.008586109 -0.28206956 0.69122106 0.37496948 -0.54638284 0.121513925
2384 0.709012 0.7950921 0.4169674 0.7677342 0.6326997 -0.7402654 0.20021111 -0.47606003 -0.47445557 0.2675155 -0.45596305 0.5931962 -1.0983175 0.07826017 0.217734 -0.28327537 0.5693426 0.21539998 -1.3426824 -0.11738097 0.7618317 0.039157286 0.7210171 0.30159292 0.1538627 -0.31394312 -0.9342683 -0.6264792 -0.05789159 0.86599576 -0.74594784 1.2344208 0.35528496 -0.63935983 0.37836036 0.41289464 0.11716966 0.5768403 -0.7090553 0.54410344 -0.17309861 -0.35023865 -0.36120698 0.09103686 0.17622407 -0.41156924 -0.268781 0.2065786 1.1168445 0.5620603 0.8982392 -0.21120046 -0.10508883 0.34460923 -0.40033332 -0.35311893 -0.5789785 0.059788592 0.39472875 -0.24496567 -0.25370097 -0.8326085 0.38841623 -0.8115385
1703 -1.0322478 -0.29911143 0.19681883 0.48923203 1.2217053 0.23005036 0.60070777 0.18086514 -0.60304993 0.20291851 -1.1475155 -0.2790663 -0.6250701 0.43662232 -0.36489445 0.629367 -0.53807527 0.7411042 -1.2563201 0.69468665 -0.21489382 0.6244927 0.56221884 -0.0025985222 -0.5696709 0.71780217 0.8944834 -1.2754778 0.23919447 0.23597577 -0.18047956 0.8982819 -0.016570117 -0.20423307 0.27581805 0.10633033 0.17699917 -0.034817897 -0.12602206 -0.06483672 -0.14677036 -0.7124573 -0.4089399 0.009892897 -0.59177244 -0.69779104 0.8175391 -0.27546528 0.45836496 -0.1428021 0.82743394 -0.22416908 -0.6747457 -0.25825408 -0.4010042 -0.35794988 -0.030067455 -0.09713065 -0.34827244 0.72365427 -0.017602382 -0.52371156 0.028324265 -0.40123072
49 -0.69728327 -0.33783635 0.87083715 -0.11000917 0.32418436 -0.44652215 0.82892805 0.33172634 0.04755638 0.5241032 -1.1791247 0.48369002 0.014297248 0.05108772 0.4839391 -0.67571974 0.23055625 0.039780546 0.406207 0.56459695 0.37596515 -0.1467529 0.7432431 -0.033019345 0.35811207 0.13485245 -0.08205311 0.5240107 0.13126245 0.06076368 -0.7655499 0.45845965 0.66806227 0.6259061 0.27669162 -0.6029137 -0.38354093 -0.17584285 -0.3144141 -0.8372389 0.16996345 -0.46707252 -0.09745861 -0.22195174 0.121257104 -0.5124301 1.1726136 0.3374421 1.3357239 -0.97890663 0.5469254 0.2477238 -0.00052993454 -0.84924704 0.74331474 -0.16629513 -0.6068757 -0.16596465 -1.0032486 -0.37039432 0.069314584 0.36571458 -0.6075065 0.09481965
1870 -0.08371152 -0.15241267 1.0502336 -0.15113436 0.14695296 -0.50091267 -0.16741891 -0.14149365 -0.32456043 0.57806313 -0.09560516 -0.27901816 0.072504 -0.23809905 0.5884169 0.3132147 0.1334521 0.21818368 -0.33515507 0.21907961 -0.345767 -0.3848383 0.47516122 0.2778475 -0.0996333 0.7279696 0.31683815 0.10158312 -0.5563117 0.012993748 -0.08235875 0.31315044 -0.025182022 -0.3939513 0.42079672 -0.22328262 -0.30992922 0.021789858 0.16939133 -0.4614156 0.5565289 0.35765857 -0.50650454 0.37843275 0.7020585 -0.28565308 0.8984558 1.0953895 0.15947704 0.70607114 -0.6462062 0.29271162 -0.16485697 -0.3901219 -0.27534992 0.046340972 -0.41684076 0.18061602 -0.228168 0.37105736 0.41888487 -0.3134193 -0.2841493 -0.14438917
703 -0.9773465 0.37555 0.911306 -0.8454098 0.904166 -0.3361804 1.1467899 0.361475 0.33829144 0.30909026 1.2520764 0.3911628 -1.2358667 0.5377376 0.18857989 -0.12729158 -0.017119743 0.54960406 -0.2370322 0.85642356 0.8077373 -0.5644348 0.45259243 -0.49103683 0.11509453 0.10974585 0.018867735 1.0974891 -0.33017468 0.12034664 -0.23517364 -0.35234982 0.38414544 0.86487997 0.1261748 -0.50569236 -0.5082799 0.27962726 -0.05431061 0.8732742 -0.9389704 -0.6917285 0.33514407 0.32600668 -1.5124744 0.66619676 0.22729777 0.23395114 -0.002061944 0.011193614 -0.28124133 -0.25364688 0.3725066 0.15449618 -0.01821523 0.024028549 0.9163697 -0.18128991 -0.31958145 -1.2690762 0.911442 -0.14746648 0.45003515 -0.3633658
60 0.29234543 0.17252098 0.91278094 0.2891668 0.36275327 0.13253945 -0.47946644 -0.26855385 0.5633064 -0.53621924 -0.19230014 -0.34430197 -0.6268314 1.0609704 -0.3295736 0.20428495 0.20155449 0.36913654 -0.0028154734 0.87234366 1.0698807 0.037956636 0.18574515 0.3070739 -0.16927485 -0.07951833 0.17277877 -0.082935356 -0.6105715 -0.25868392 -0.21550609 -0.9137693 0.00827818 -0.6651139 0.16686974 -0.45697546 0.089083605 0.16344737 -0.026669921 0.1541037 -0.3934309 -1.0026405 0.3850493 -0.5747795 0.07266489 -0.53969586 -0.31725448 0.26398924 -0.1387239 -0.11779605 -0.5915038 -0.16444027 -0.78355646 -0.1904645 0.6571522 0.19598177 -0.07442668 -0.04307381 -0.5083204 -0.13488194 -0.18229759 -0.39292282 0.2905246 -0.4149951
1023 0.24523678 0.6881094 -0.5805942 -0.57766587 1.0376352 0.389285 0.011606834 -0.5642524 -0.62572145 0.0657672 -0.22640856 -0.9994484 -1.0689378 -0.40672213 0.0009872597 0.12374804 -0.6973238 -0.13329703 -1.1383698 0.5639156 1.1821978 0.85118294 -0.23881647 -1.4134127 1.3016478 -0.3524731 -0.20887503 -0.6118086 -0.67071915 -0.1395186 -0.49097618 -0.44589016 1.0090725 0.3699073 0.41041455 0.03245645 0.44857734 -0.21533103 0.43475503 0.15177883 -0.7197907 -0.3242398 0.5592164 1.444239 0.96464944 -0.59104687 0.7056669 -0.663062 0.44479626 0.74183017 -0.81027037 -0.84807307 0.18670645 1.1838018 -1.1488931 -0.46576387 -0.016938018 -1.0772344 -0.75436056 -0.3045485 0.35134825 -0.22486305 0.20009093 0.036041293
181 -0.26078168 0.20899802 0.51322514 0.5563174 -0.2879088 -1.1651775 0.53239447 -0.9332921 -0.28714442 0.031832878 0.18965302 0.109122016 0.45218027 -0.21068151 0.18585233 -0.118186355 0.45299587 0.10317121 -0.6151725 1.1235762 0.8408993 -0.65838104 0.45246816 0.18746974 0.29947087 0.35490763 -0.32927752 -0.66329676 -0.5674905 0.03777716 -0.06815266 -0.12676145 -0.5383736 -0.39874655 -0.22391622 0.24354434 -0.36120594 0.16097108 1.067829 0.21211661 0.45366994 -0.33234474 -0.30149952 0.7914524 0.279061 -0.5484862 0.80667865 -0.22924493 1.0379254 -0.5077688 0.5858743 0.31251743 -0.23072839 -0.5309295 0.13052393 -0.64537245 0.09773344 -0.9275859 -0.599279 -0.5229356 0.55590254 -0.38758513 -0.7439505 0.33386928
2292 -0.58672464 0.90720075 0.88251525 -0.20643064 -0.25964382 0.30139408 -0.73514044 0.11479498 0.15076312 0.7841741 -0.44107825 -0.3709526 0.17961264 1.0407032 -0.19470821 -0.36375004 -0.68628 0.19912201 -1.0477984 0.05934759 0.56110716 0.3646857 -0.54669183 0.51551855 -0.18690808 0.5465924 -0.26872078 -0.4608888 -1.0485011 -0.4174613 -0.085294195 -0.46238247 0.711206 0.3696497 0.9874588 -0.30663177 0.9883942 0.6757674 0.18967552 -0.20693687 0.31021565 0.278094 0.5646505 -0.34656093 0.08054029 0.1693323 0.46221557 0.27785057 0.04561539 0.47279823 0.18058951 0.20994477 -0.054849632 -0.3787934 -0.10216394 -0.5466808 0.238922 -0.6952992 -0.4354986 -0.8579539 0.41808915 -0.33429947 -0.5491476 -0.51870066
2200 0.07607609 0.86568016 0.6981872 -0.48645806 0.48017246 -0.44321775 -0.2268464 -0.09735547 -0.22164921 1.0502168 -0.5881551 -0.3422018 -0.8165177 0.6406514 0.045557957 -0.7660883 -0.585807 -1.6770514 -0.18120731 0.17212085 0.9932236 -0.48980355 -0.40363386 0.09930297 -0.1846478 0.3690837 -0.5659482 0.25566387 0.8015293 0.32355133 -0.58713496 -0.37847528 0.18400411 0.19225705 0.13551502 0.062872335 -0.026342016 -0.10468077 0.13909045 0.1774787 -0.44649386 0.017216817 -1.1175652 -0.189069 -0.34319672 -0.61398745 0.022061689 0.34909353 -0.6995454 -0.68718386 -0.07784572 -0.2770135 -0.54144526 0.062124632 0.06469094 -0.4579242 0.18828678 0.68479323 0.4055703 -0.43242154 0.09982696 -0.3399126 -0.16264652 -0.7358385
1890 -0.3785473 0.47737256 0.2506436 0.18085581 0.17332062 -0.5898897 0.45185173 -0.3819519 -0.42894557 -0.1518439 -0.7245571 -0.14590047 -0.41156036 0.25827715 -0.0071286764 -0.014660424 0.21027488 -0.55743253 -0.29462367 0.70519257 0.52589357 -0.51351136 0.24442859 -0.16757172 0.923118 1.1903561 0.49726516 -0.23563248 0.16877998 0.2974174 -0.0009709643 -0.4789103 0.68010855 -0.12487412 0.07080035 0.6170577 0.37398002 0.73762804 0.6283134 0.04114916 -0.5241827 0.014260055 -0.80457747 0.94718254 -0.353936 0.0834503 0.7041377 -0.5404414 1.2006621 -0.31924114 0.9582184 -0.11526099 -1.3232782 -0.18122971 0.6138251 -0.2289714 -0.32851765 0.29328153 -0.36152527 -0.40285543 -0.28702882 -0.24128002 -0.14149179 0.24458537
1740 -0.44917402 0.40652615 0.43871823 -0.12819055 0.6949427 0.39965984 -0.5963427 -0.98681253 0.49404383 0.052463613 -0.4474447 0.32649824 0.1277215 0.46908012 0.38280597 -0.40974537 0.082300454 -0.3602075 -0.5964637 0.6769679 0.38637412 0.60228735 -0.47742954 -0.01024784 0.02414367 -0.11166043 0.45809522 -0.04207449 -0.034472242 0.07177351 -0.6918838 -0.5240978 -0.5019373 -0.11040363 -0.22011839 -0.24249546 0.16469598 0.38468128 -0.18447332 0.21988578 0.20700912 -0.6406298 0.7189765 -0.5611719 -0.30701193 0.14396153 0.11990694 0.318026 0.5800838 0.1531773 -1.0572021 -0.21113855 -0.3206783 -0.16779277 0.20752929 0.04666257 -0.26036844 0.058460083 -0.3664864 -0.3286541 0.785824 -0.88096523 -0.19384368 0.288298
1465 -0.6330461 0.6451914 -0.41433012 0.044234224 0.16849798 0.10697744 0.7342976 -0.36128327 -0.86375964 0.9692501 0.18388112 0.20359646 -0.8665804 0.17739987 0.4979406 0.12169657 0.29582372 0.10021821 -0.31532693 -0.10173663 -0.3276678 -0.25622666 -0.4311131 -0.86073965 0.81951654 0.6072196 -0.28866315 -0.3685448 -0.56391966 -0.30850747 -0.57470477 -0.15708138 0.075946376 0.04382809 0.18331696 -0.41227135 -0.4518646 -0.2772304 0.5457026 1.2186029 -0.2949989 -0.11034058 -0.7818527 0.31451216 -1.0688938 -0.044413507 -0.37841645 0.93742514 0.6836657 0.04878959 -0.37233016 0.077656746 -0.037481233 -0.8147794 -0.3067393 0.47376788 -0.20810448 -0.602125 -0.28128076 0.019019706 0.27183166 -0.38187784 0.6483673 -1.448107
712 0.089019135 0.4396955 0.2620999 -0.9161286 0.44709855 -0.21562363 -0.690832 0.47373495 -0.48906764 0.09186366 0.29720864 -0.1629664 0.063280575 0.57968456 0.47734424 0.09153195 0.5300212 -0.2819833 -0.16103858 1.1338084 -0.11573602 -0.6272486 -0.16918911 -0.5378005 0.28697893 -0.2585897 -0.46305785 -0.3299507 -1.3895323 0.108734086 0.24378523 0.09645131 0.68318814 0.3308502 0.18564568 -0.07308321 -0.5580926 0.8212232 0.18501726 0.53780985 -0.8230258 -0.14420149 -0.019921737 -0.22351523 -1.038099 0.16238607 0.16677529 0.5612117 0.6952932 0.5445997 -0.3251915 -0.30922702 0.6028393 -0.20831458 -0.24482214 0.3559449 0.27490446 0.18746234 -0.993981 0.10806527 -0.64538777 0.30783227 -0.81500375 -1.092734
1956 -0.37230226 0.0681298 0.40889195 -0.7416955 1.4678315 -0.025634648 -0.19162175 0.44367912 0.092741124 0.14088076 -0.26477814 -1.0322474 -0.015383418 -0.8714162 0.5274018 -0.16111259 -0.4094943 0.48310074 -0.5984389 0.84662074 1.3254881 0.006235167 0.32188565 0.08715168 0.85496646 0.22846001 0.048917975 -0.58228713 -0.45393386 0.2568677 -0.84395564 -1.105272 0.8463497 0.7058443 -0.2138269 -0.9620685 -0.16243437 0.09288871 0.20005709 0.38587055 0.047780287 -0.5531694 -0.2223316 1.0625564 0.32561222 -0.0123951305 -0.030506782 -1.7426524 0.71776664 0.6952086 -0.2970814 -0.21676777 -0.12972406 1.3276027 0.56342614 -0.58061737 0.08203304 -1.3080677 -0.5141067 0.86524975 0.37174433 0.3989773 1.8193412 -1.2109511
868 -0.2294525 -0.85929537 0.0020169737 0.67209643 1.250868 -0.49741 -0.2055914 -0.77233315 -1.2920134 0.5555991 -0.28332052 -0.76401824 -0.8761607 0.56624854 -1.0383127 -0.03119915 -0.5263537 0.31097144 0.37581408 0.72872776 0.7340194 0.44180086 -1.0113143 0.901724 -0.62599087 -0.06144532 -1.2553167 -0.17276649 -0.9190425 -0.51724356 -0.6100444 -0.2384852 -0.78081536 -0.33233905 -0.48678663 -1.2201744 -0.15121816 -0.16636223 0.21632704 -0.61628854 -0.5422435 -0.57414955 0.26086533 0.25412515 0.7681878 -0.8314182 0.11092412 0.4254447 0.87572515 0.12972796 -0.5980966 0.47233126 -1.0187616 -0.06269149 0.25034785 -0.05977385 0.14074896 0.95966434 -0.4418795 -0.3843004 0.47217444 -0.12387163 -0.014837057 -1.22548
2682 0.09990085 -0.18015455 0.7150225 -0.06267479 0.7298569 1.2118604 0.2344166 -1.345004 -0.9879154 -0.5070595 -0.39574888 -0.13024656 -0.52336586 -0.40388125 0.39713034 -0.8555572 0.41842145 -0.8918554 -0.42761052 0.9138787 0.5981599 0.2874056 -0.48004708 -0.17776808 0.8876696 0.7568059 -0.45206875 -0.3033327 -1.4106641 -0.4898596 0.8866953 0.51812893 -0.14368932 0.22874849 1.1173006 0.70177907 1.1896302 0.17076503 -1.0647084 -0.59847754 -0.8824791 -0.49428928 -0.009845241 2.2766147 -1.1419533 0.7478607 0.0055381763 -0.78404117 1.210006 0.6044974 0.9338519 -0.6534885 -0.96131194 -0.2485985 0.9525072 -1.441327 0.14520155 0.38776422 -0.98784316 -0.8461283 1.4571115 0.1036351 -0.5679351 -2.493618
1843 0.23430237 -0.025350498 0.2795764 -0.23343316 0.10246756 0.19943178 -0.25831535 0.082894474 0.5698724 0.78359985 -0.04337834 -0.102165565 -0.24629152 -0.63322514 -0.34532824 0.21739927 -0.7469819 -0.6073177 -0.3752384 -0.15810223 0.21605265 -0.7825683 -0.6360455 -0.7043425 0.10430094 -0.014847463 -0.22881307 -0.79889035 -0.3739022 0.19082882 0.03778524 -0.8348855 -0.06207733 -0.030348094 -0.18840462 -0.72895384 -0.7186944 -0.14598432 0.52854925 -0.023725094 -0.14079815 -1.0444376 0.23458262 0.7079599 -0.8404535 -0.24092321 0.96351683 0.24196787 0.49084502 0.5850692 0.3026284 -0.6989855 -0.049536295 -0.93540615 0.0025611988 -0.45493245 -0.14820535 0.3540423 0.9217701 -0.23082003 0.39830384 -0.1898305 -0.044457182 -0.9044878
